<?xml version="1.0"?>
<MethodSetup Method="BDT::BDT_0">
  <GeneralInfo>
    <Info name="TMVA Release" value="4.2.0 [262656]"/>
    <Info name="ROOT Release" value="5.34/15 [336399]"/>
    <Info name="Creator" value="epuesche"/>
    <Info name="Date" value="Fri Jan 30 08:07:10 2015"/>
    <Info name="Host" value="Linux cvrsvc03 2.6.32-358.18.1.el6.nersc.x86_64 #1 SMP Wed Aug 28 02:17:42 PDT 2013 x86_64 x86_64 x86_64 GNU/Linux"/>
    <Info name="Dir" value="/global/u1/e/epuesche"/>
    <Info name="Training events" value="200000"/>
    <Info name="TrainingTime" value="2.39821987e+02"/>
    <Info name="AnalysisType" value="Classification"/>
  </GeneralInfo>
  <Options>
    <Option name="V" modified="No">False</Option>
    <Option name="VerbosityLevel" modified="No">Default</Option>
    <Option name="VarTransform" modified="No">None</Option>
    <Option name="H" modified="No">False</Option>
    <Option name="CreateMVAPdfs" modified="No">False</Option>
    <Option name="IgnoreNegWeightsInTraining" modified="No">False</Option>
    <Option name="NTrees" modified="Yes">200</Option>
    <Option name="MaxDepth" modified="Yes">50</Option>
    <Option name="MinNodeSize" modified="No">0.0500003.2</Option>
    <Option name="nCuts" modified="Yes">20</Option>
    <Option name="BoostType" modified="Yes">AdaBoost</Option>
    <Option name="AdaBoostR2Loss" modified="No">quadratic</Option>
    <Option name="UseBaggedBoost" modified="No">False</Option>
    <Option name="Shrinkage" modified="No">1.000000e+00</Option>
    <Option name="AdaBoostBeta" modified="Yes">1.000000e+00</Option>
    <Option name="UseRandomisedTrees" modified="No">False</Option>
    <Option name="UseNvars" modified="No">3</Option>
    <Option name="UsePoissonNvars" modified="No">True</Option>
    <Option name="BaggedSampleFraction" modified="No">6.000000e-01</Option>
    <Option name="UseYesNoLeaf" modified="Yes">True</Option>
    <Option name="NegWeightTreatment" modified="No">inverseboostnegweights</Option>
    <Option name="Css" modified="No">1.000000e+00</Option>
    <Option name="Cts_sb" modified="No">1.000000e+00</Option>
    <Option name="Ctb_ss" modified="No">1.000000e+00</Option>
    <Option name="Cbb" modified="No">1.000000e+00</Option>
    <Option name="NodePurityLimit" modified="No">5.000000e-01</Option>
    <Option name="SeparationType" modified="Yes">giniindex</Option>
    <Option name="DoBoostMonitor" modified="No">False</Option>
    <Option name="UseFisherCuts" modified="No">False</Option>
    <Option name="MinLinCorrForFisher" modified="No">8.000000e-01</Option>
    <Option name="UseExclusiveVars" modified="No">False</Option>
    <Option name="DoPreselection" modified="No">False</Option>
    <Option name="SigToBkgFraction" modified="No">1.000000e+00</Option>
    <Option name="PruneMethod" modified="Yes">costcomplexity</Option>
    <Option name="PruneStrength" modified="Yes">-1.000000e+00</Option>
    <Option name="PruningValFraction" modified="No">5.000000e-01</Option>
    <Option name="nEventsMin" modified="Yes">100</Option>
    <Option name="UseBaggedGrad" modified="No">False</Option>
    <Option name="GradBaggingFraction" modified="No">6.000000e-01</Option>
    <Option name="UseNTrainEvents" modified="No">0</Option>
    <Option name="NNodesMax" modified="No">0</Option>
  </Options>
  <Variables NVar="7">
    <Variable VarIndex="0" Expression="MSCW" Label="MSCW" Title="MSCW" Unit="" Internal="MSCW" Type="F" Min="-1.93325138e+00" Max="1.99999213e+00"/>
    <Variable VarIndex="1" Expression="MSCL" Label="MSCL" Title="MSCL" Unit="" Internal="MSCL" Type="F" Min="-1.66796935e+00" Max="4.99998474e+00"/>
    <Variable VarIndex="2" Expression="log10(EChi2S)" Label="log10(EChi2S)" Title="log10(EChi2S)" Unit="" Internal="log10_EChi2S_" Type="F" Min="-5.51156902e+00" Max="1.13962555e+00"/>
    <Variable VarIndex="3" Expression="EmissionHeight" Label="EmissionHeight" Title="EmissionHeight" Unit="" Internal="EmissionHeight" Type="F" Min="1.43813157e+00" Max="2.09742480e+03"/>
    <Variable VarIndex="4" Expression="log10(EmissionHeightChi2)" Label="log10(EmissionHeightChi2)" Title="log10(EmissionHeightChi2)" Unit="" Internal="log10_EmissionHeightChi2_" Type="F" Min="-1.00000000e+01" Max="2.49146581e+00"/>
    <Variable VarIndex="5" Expression="log10(SizeSecondMax)" Label="log10(SizeSecondMax)" Title="log10(SizeSecondMax)" Unit="" Internal="log10_SizeSecondMax_" Type="F" Min="2.00428557e+00" Max="3.46043444e+00"/>
    <Variable VarIndex="6" Expression="sqrt(Xcore*Xcore+Ycore*Ycore)" Label="sqrt(Xcore*Xcore+Ycore*Ycore)" Title="sqrt(Xcore*Xcore+Ycore*Ycore)" Unit="" Internal="sqrt_Xcore_T_Xcore_P_Ycore_T_Ycore_" Type="F" Min="2.99206734e-01" Max="7.35632385e+02"/>
  </Variables>
  <Spectators NSpec="4">
    <Spectator SpecIndex="0" Expression="NImages" Label="NImages" Title="NImages" Unit="" Internal="NImages" Type="F" Min="2.00000000e+00" Max="4.00000000e+00"/>
    <Spectator SpecIndex="1" Expression="Xoff" Label="Xoff" Title="Xoff" Unit="" Internal="Xoff" Type="F" Min="-7.74161279e-01" Max="7.74450481e-01"/>
    <Spectator SpecIndex="2" Expression="Yoff" Label="Yoff" Title="Yoff" Unit="" Internal="Yoff" Type="F" Min="-7.74377942e-01" Max="7.74404049e-01"/>
    <Spectator SpecIndex="3" Expression="ErecS" Label="ErecS" Title="ErecS" Unit="" Internal="ErecS" Type="F" Min="3.16228092e-01" Max="5.01185656e-01"/>
  </Spectators>
  <Classes NClass="2">
    <Class Name="Signal" Index="0"/>
    <Class Name="Background" Index="1"/>
  </Classes>
  <Transformations NTransformations="0"/>
  <MVAPdfs/>
  <Weights NTrees="200" AnalysisType="0">
    <BinaryTree type="DecisionTree" boostWeight="2.1540685562839053e+00" itree="0">
      <Node pos="s" depth="0" NCoef="0" IVar="0" Cut="5.0559830665588379e-01" cType="1" res="-9.9000000000000000e+01" rms="0.0000000000000000e+00" purity="5.0000000000000000e-01" nType="0">
        <Node pos="l" depth="1" NCoef="0" IVar="1" Cut="9.3313670158386230e-01" cType="1" res="-9.9000000000000000e+01" rms="0.0000000000000000e+00" purity="7.8454875946044922e-01" nType="0">
          <Node pos="l" depth="2" NCoef="0" IVar="5" Cut="2.3359961509704590e+00" cType="0" res="-9.9000000000000000e+01" rms="0.0000000000000000e+00" purity="8.5249292850494385e-01" nType="0">
            <Node pos="l" depth="3" NCoef="0" IVar="1" Cut="3.5215929150581360e-01" cType="1" res="-9.9000000000000000e+01" rms="0.0000000000000000e+00" purity="8.6611616611480713e-01" nType="0">
              <Node pos="l" depth="4" NCoef="0" IVar="3" Cut="9.3473243713378906e+00" cType="0" res="-9.9000000000000000e+01" rms="0.0000000000000000e+00" purity="8.9962863922119141e-01" nType="0">
                <Node pos="l" depth="5" NCoef="0" IVar="5" Cut="2.5203297138214111e+00" cType="0" res="-9.9000000000000000e+01" rms="0.0000000000000000e+00" purity="9.2145454883575439e-01" nType="0">
                  <Node pos="l" depth="6" NCoef="0" IVar="0" Cut="2.0243872702121735e-01" cType="1" res="-9.9000000000000000e+01" rms="0.0000000000000000e+00" purity="9.3292307853698730e-01" nType="0">
                    <Node pos="l" depth="7" NCoef="0" IVar="-1" Cut="2.6695733070373535e+00" cType="0" res="-9.9000000000000000e+01" rms="0.0000000000000000e+00" purity="9.4709157943725586e-01" nType="1"/>
                    <Node pos="r" depth="7" NCoef="0" IVar="3" Cut="1.1697652816772461e+01" cType="0" res="-9.9000000000000000e+01" rms="0.0000000000000000e+00" purity="8.8017016649246216e-01" nType="0">
                      <Node pos="l" depth="8" NCoef="0" IVar="-1" Cut="-6.9872009754180908e-01" cType="1" res="-9.9000000000000000e+01" rms="0.0000000000000000e+00" purity="9.2330819368362427e-01" nType="1"/>
                      <Node pos="r" depth="8" NCoef="0" IVar="2" Cut="-6.3465517759323120e-01" cType="1" res="-9.9000000000000000e+01" rms="0.0000000000000000e+00" purity="8.0630546808242798e-01" nType="0">
                        <Node pos="l" depth="9" NCoef="0" IVar="-1" Cut="3.6123833060264587e-01" cType="1" res="-9.9000000000000000e+01" rms="0.0000000000000000e+00" purity="8.3035731315612793e-01" nType="1"/>
                        <Node pos="r" depth="9" NCoef="0" IVar="1" Cut="-1.9324541091918945e-01" cType="1" res="-9.9000000000000000e+01" rms="0.0000000000000000e+00" purity="5.7793748378753662e-01" nType="0">
                          <Node pos="l" depth="10" NCoef="0" IVar="-1" Cut="0.0000000000000000e+00" cType="1" res="-9.9000000000000000e+01" rms="0.0000000000000000e+00" purity="7.7074635028839111e-01" nType="1"/>
                          <Node pos="r" depth="10" NCoef="0" IVar="3" Cut="1.0464080810546875e+01" cType="0" res="-9.9000000000000000e+01" rms="0.0000000000000000e+00" purity="5.0913184881210327e-01" nType="0">
                            <Node pos="l" depth="11" NCoef="0" IVar="-1" Cut="-4.7140169143676758e-01" cType="1" res="-9.9000000000000000e+01" rms="0.0000000000000000e+00" purity="6.1501991748809814e-01" nType="1"/>
                            <Node pos="r" depth="11" NCoef="0" IVar="-1" Cut="0.0000000000000000e+00" cType="1" res="-9.9000000000000000e+01" rms="0.0000000000000000e+00" purity="3.2289540767669678e-01" nType="-1"/>
                          </Node>
                        </Node>
                      </Node>
                    </Node>
                  </Node>
                  <Node pos="r" depth="6" NCoef="0" IVar="0" Cut="2.1166400983929634e-02" cType="1" res="-9.9000000000000000e+01" rms="0.0000000000000000e+00" purity="8.1612193584442139e-01" nType="0">
                    <Node pos="l" depth="7" NCoef="0" IVar="-1" Cut="3.0450103759765625e+02" cType="1" res="-9.9000000000000000e+01" rms="0.0000000000000000e+00" purity="8.6734133958816528e-01" nType="1"/>
                    <Node pos="r" depth="7" NCoef="0" IVar="6" Cut="2.8509292602539062e+02" cType="1" res="-9.9000000000000000e+01" rms="0.0000000000000000e+00" purity="7.4572771787643433e-01" nType="0">
                      <Node pos="l" depth="8" NCoef="0" IVar="0" Cut="4.1352182626724243e-01" cType="1" res="-9.9000000000000000e+01" rms="0.0000000000000000e+00" purity="7.8704833984375000e-01" nType="0">
                        <Node pos="l" depth="9" NCoef="0" IVar="-1" Cut="-6.3053351640701294e-01" cType="1" res="-9.9000000000000000e+01" rms="0.0000000000000000e+00" purity="8.1271928548812866e-01" nType="1"/>
                        <Node pos="r" depth="9" NCoef="0" IVar="1" Cut="-6.3011169433593750e-02" cType="1" res="-9.9000000000000000e+01" rms="0.0000000000000000e+00" purity="6.1228221654891968e-01" nType="0">
                          <Node pos="l" depth="10" NCoef="0" IVar="-1" Cut="0.0000000000000000e+00" cType="1" res="-9.9000000000000000e+01" rms="0.0000000000000000e+00" purity="7.1113926172256470e-01" nType="1"/>
                          <Node pos="r" depth="10" NCoef="0" IVar="-1" Cut="0.0000000000000000e+00" cType="1" res="-9.9000000000000000e+01" rms="0.0000000000000000e+00" purity="4.5133695006370544e-01" nType="-1"/>
                        </Node>
                      </Node>
                      <Node pos="r" depth="8" NCoef="0" IVar="2" Cut="-1.1864482164382935e+00" cType="1" res="-9.9000000000000000e+01" rms="0.0000000000000000e+00" purity="6.3314700126647949e-01" nType="0">
                        <Node pos="l" depth="9" NCoef="0" IVar="-1" Cut="3.2908175659179688e+02" cType="1" res="-9.9000000000000000e+01" rms="0.0000000000000000e+00" purity="7.0400387048721313e-01" nType="1"/>
                        <Node pos="r" depth="9" NCoef="0" IVar="3" Cut="1.2261193275451660e+01" cType="0" res="-9.9000000000000000e+01" rms="0.0000000000000000e+00" purity="5.1099818944931030e-01" nType="0">
                          <Node pos="l" depth="10" NCoef="0" IVar="-1" Cut="0.0000000000000000e+00" cType="1" res="-9.9000000000000000e+01" rms="0.0000000000000000e+00" purity="6.1572539806365967e-01" nType="1"/>
                          <Node pos="r" depth="10" NCoef="0" IVar="-1" Cut="0.0000000000000000e+00" cType="1" res="-9.9000000000000000e+01" rms="0.0000000000000000e+00" purity="3.8129204511642456e-01" nType="-1"/>
                        </Node>
                      </Node>
                    </Node>
                  </Node>
                </Node>
                <Node pos="r" depth="5" NCoef="0" IVar="3" Cut="7.0729732513427734e+00" cType="0" res="-9.9000000000000000e+01" rms="0.0000000000000000e+00" purity="6.7220646142959595e-01" nType="0">
                  <Node pos="l" depth="6" NCoef="0" IVar="0" Cut="1.9887764751911163e-01" cType="1" res="-9.9000000000000000e+01" rms="0.0000000000000000e+00" purity="7.2905731201171875e-01" nType="0">
                    <Node pos="l" depth="7" NCoef="0" IVar="5" Cut="2.7139177322387695e+00" cType="0" res="-9.9000000000000000e+01" rms="0.0000000000000000e+00" purity="7.7499204874038696e-01" nType="0">
                      <Node pos="l" depth="8" NCoef="0" IVar="2" Cut="-7.0367634296417236e-01" cType="1" res="-9.9000000000000000e+01" rms="0.0000000000000000e+00" purity="8.1396251916885376e-01" nType="0">
                        <Node pos="l" depth="9" NCoef="0" IVar="-1" Cut="7.5104522705078125e+00" cType="0" res="-9.9000000000000000e+01" rms="0.0000000000000000e+00" purity="8.3400225639343262e-01" nType="1"/>
                        <Node pos="r" depth="9" NCoef="0" IVar="3" Cut="8.5989551544189453e+00" cType="0" res="-9.9000000000000000e+01" rms="0.0000000000000000e+00" purity="6.0618329048156738e-01" nType="0">
                          <Node pos="l" depth="10" NCoef="0" IVar="-1" Cut="0.0000000000000000e+00" cType="1" res="-9.9000000000000000e+01" rms="0.0000000000000000e+00" purity="7.0268189907073975e-01" nType="1"/>
                          <Node pos="r" depth="10" NCoef="0" IVar="-1" Cut="0.0000000000000000e+00" cType="1" res="-9.9000000000000000e+01" rms="0.0000000000000000e+00" purity="4.5318698883056641e-01" nType="-1"/>
                        </Node>
                      </Node>
                      <Node pos="r" depth="8" NCoef="0" IVar="3" Cut="8.0470829010009766e+00" cType="0" res="-9.9000000000000000e+01" rms="0.0000000000000000e+00" purity="6.6757631301879883e-01" nType="0">
                        <Node pos="l" depth="9" NCoef="0" IVar="1" Cut="-3.5108771920204163e-01" cType="0" res="-9.9000000000000000e+01" rms="0.0000000000000000e+00" purity="7.1735471487045288e-01" nType="0">
                          <Node pos="l" depth="10" NCoef="0" IVar="-1" Cut="8.0453269183635712e-02" cType="1" res="-9.9000000000000000e+01" rms="0.0000000000000000e+00" purity="7.5456655025482178e-01" nType="1"/>
                          <Node pos="r" depth="10" NCoef="0" IVar="-1" Cut="0.0000000000000000e+00" cType="1" res="-9.9000000000000000e+01" rms="0.0000000000000000e+00" purity="4.4678446650505066e-01" nType="-1"/>
                        </Node>
                        <Node pos="r" depth="9" NCoef="0" IVar="-1" Cut="0.0000000000000000e+00" cType="1" res="-9.9000000000000000e+01" rms="0.0000000000000000e+00" purity="4.4153153896331787e-01" nType="-1"/>
                      </Node>
                    </Node>
                    <Node pos="r" depth="7" NCoef="0" IVar="6" Cut="1.0726363372802734e+02" cType="1" res="-9.9000000000000000e+01" rms="0.0000000000000000e+00" purity="6.0517257452011108e-01" nType="0">
                      <Node pos="l" depth="8" NCoef="0" IVar="-1" Cut="-9.2124098539352417e-01" cType="1" res="-9.9000000000000000e+01" rms="0.0000000000000000e+00" purity="7.4425005912780762e-01" nType="1"/>
                      <Node pos="r" depth="8" NCoef="0" IVar="2" Cut="-6.3450205326080322e-01" cType="1" res="-9.9000000000000000e+01" rms="0.0000000000000000e+00" purity="5.0365668535232544e-01" nType="0">
                        <Node pos="l" depth="9" NCoef="0" IVar="3" Cut="7.9449300765991211e+00" cType="0" res="-9.9000000000000000e+01" rms="0.0000000000000000e+00" purity="5.4983562231063843e-01" nType="0">
                          <Node pos="l" depth="10" NCoef="0" IVar="5" Cut="2.8732500076293945e+00" cType="0" res="-9.9000000000000000e+01" rms="0.0000000000000000e+00" purity="6.0161095857620239e-01" nType="0">
                            <Node pos="l" depth="11" NCoef="0" IVar="-1" Cut="0.0000000000000000e+00" cType="1" res="-9.9000000000000000e+01" rms="0.0000000000000000e+00" purity="7.7406150102615356e-01" nType="1"/>
                            <Node pos="r" depth="11" NCoef="0" IVar="0" Cut="3.2866972684860229e-01" cType="1" res="-9.9000000000000000e+01" rms="0.0000000000000000e+00" purity="5.3915095329284668e-01" nType="0">
                              <Node pos="l" depth="12" NCoef="0" IVar="-1" Cut="2.6002824306488037e-01" cType="0" res="-9.9000000000000000e+01" rms="0.0000000000000000e+00" purity="6.0867637395858765e-01" nType="1"/>
                              <Node pos="r" depth="12" NCoef="0" IVar="-1" Cut="2.6924755573272705e+00" cType="0" res="-9.9000000000000000e+01" rms="0.0000000000000000e+00" purity="4.6464389562606812e-01" nType="-1"/>
                            </Node>
                          </Node>
                          <Node pos="r" depth="10" NCoef="0" IVar="-1" Cut="0.0000000000000000e+00" cType="1" res="-9.9000000000000000e+01" rms="0.0000000000000000e+00" purity="3.0913099646568298e-01" nType="-1"/>
                        </Node>
                        <Node pos="r" depth="9" NCoef="0" IVar="-1" Cut="0.0000000000000000e+00" cType="1" res="-9.9000000000000000e+01" rms="0.0000000000000000e+00" purity="2.5379374623298645e-01" nType="-1"/>
                      </Node>
                    </Node>
                  </Node>
                  <Node pos="r" depth="6" NCoef="0" IVar="3" Cut="5.7733516693115234e+00" cType="0" res="-9.9000000000000000e+01" rms="0.0000000000000000e+00" purity="2.6857545971870422e-01" nType="0">
                    <Node pos="l" depth="7" NCoef="0" IVar="5" Cut="2.6819829940795898e+00" cType="0" res="-9.9000000000000000e+01" rms="0.0000000000000000e+00" purity="3.7259936332702637e-01" nType="0">
                      <Node pos="l" depth="8" NCoef="0" IVar="5" Cut="2.8698616027832031e+00" cType="0" res="-9.9000000000000000e+01" rms="0.0000000000000000e+00" purity="4.5580267906188965e-01" nType="0">
                        <Node pos="l" depth="9" NCoef="0" IVar="-1" Cut="0.0000000000000000e+00" cType="1" res="-9.9000000000000000e+01" rms="0.0000000000000000e+00" purity="5.6825453042984009e-01" nType="1"/>
                        <Node pos="r" depth="9" NCoef="0" IVar="-1" Cut="2.7807447910308838e+00" cType="1" res="-9.9000000000000000e+01" rms="0.0000000000000000e+00" purity="3.8050466775894165e-01" nType="-1"/>
                      </Node>
                      <Node pos="r" depth="8" NCoef="0" IVar="-1" Cut="0.0000000000000000e+00" cType="1" res="-9.9000000000000000e+01" rms="0.0000000000000000e+00" purity="1.3906121253967285e-01" nType="-1"/>
                    </Node>
                    <Node pos="r" depth="7" NCoef="0" IVar="-1" Cut="5.1514101028442383e+00" cType="0" res="-9.9000000000000000e+01" rms="0.0000000000000000e+00" purity="5.8903302997350693e-02" nType="-1"/>
                  </Node>
                </Node>
              </Node>
              <Node pos="r" depth="4" NCoef="0" IVar="2" Cut="-5.8907759189605713e-01" cType="1" res="-9.9000000000000000e+01" rms="0.0000000000000000e+00" purity="7.5237298011779785e-01" nType="0">
                <Node pos="l" depth="5" NCoef="0" IVar="0" Cut="2.6380848884582520e-01" cType="1" res="-9.9000000000000000e+01" rms="0.0000000000000000e+00" purity="8.0079740285873413e-01" nType="0">
                  <Node pos="l" depth="6" NCoef="0" IVar="0" Cut="5.6556854397058487e-02" cType="1" res="-9.9000000000000000e+01" rms="0.0000000000000000e+00" purity="8.3969509601593018e-01" nType="0">
                    <Node pos="l" depth="7" NCoef="0" IVar="4" Cut="-5.9768879413604736e-01" cType="0" res="-9.9000000000000000e+01" rms="0.0000000000000000e+00" purity="8.6786645650863647e-01" nType="0">
                      <Node pos="l" depth="8" NCoef="0" IVar="-1" Cut="-9.0238261222839355e-01" cType="1" res="-9.9000000000000000e+01" rms="0.0000000000000000e+00" purity="8.9505964517593384e-01" nType="1"/>
                      <Node pos="r" depth="8" NCoef="0" IVar="3" Cut="5.9577813148498535e+00" cType="0" res="-9.9000000000000000e+01" rms="0.0000000000000000e+00" purity="8.1656515598297119e-01" nType="0">
                        <Node pos="l" depth="9" NCoef="0" IVar="3" Cut="9.0481090545654297e+00" cType="0" res="-9.9000000000000000e+01" rms="0.0000000000000000e+00" purity="8.3931469917297363e-01" nType="0">
                          <Node pos="l" depth="10" NCoef="0" IVar="-1" Cut="1.4918535232543945e+01" cType="1" res="-9.9000000000000000e+01" rms="0.0000000000000000e+00" purity="8.7881445884704590e-01" nType="1"/>
                          <Node pos="r" depth="10" NCoef="0" IVar="3" Cut="7.2870368957519531e+00" cType="0" res="-9.9000000000000000e+01" rms="0.0000000000000000e+00" purity="6.4658766984939575e-01" nType="0">
                            <Node pos="l" depth="11" NCoef="0" IVar="-1" Cut="1.5554447937011719e+02" cType="0" res="-9.9000000000000000e+01" rms="0.0000000000000000e+00" purity="7.3664313554763794e-01" nType="1"/>
                            <Node pos="r" depth="11" NCoef="0" IVar="-1" Cut="0.0000000000000000e+00" cType="1" res="-9.9000000000000000e+01" rms="0.0000000000000000e+00" purity="3.7871715426445007e-01" nType="-1"/>
                          </Node>
                        </Node>
                        <Node pos="r" depth="9" NCoef="0" IVar="-1" Cut="0.0000000000000000e+00" cType="1" res="-9.9000000000000000e+01" rms="0.0000000000000000e+00" purity="1.3810233771800995e-01" nType="-1"/>
                      </Node>
                    </Node>
                    <Node pos="r" depth="7" NCoef="0" IVar="3" Cut="7.6796760559082031e+00" cType="0" res="-9.9000000000000000e+01" rms="0.0000000000000000e+00" purity="7.7432912588119507e-01" nType="0">
                      <Node pos="l" depth="8" NCoef="0" IVar="2" Cut="-9.7526055574417114e-01" cType="1" res="-9.9000000000000000e+01" rms="0.0000000000000000e+00" purity="8.0510407686233521e-01" nType="0">
                        <Node pos="l" depth="9" NCoef="0" IVar="-1" Cut="2.4485049247741699e+00" cType="0" res="-9.9000000000000000e+01" rms="0.0000000000000000e+00" purity="8.3656060695648193e-01" nType="1"/>
                        <Node pos="r" depth="9" NCoef="0" IVar="3" Cut="1.1267736434936523e+01" cType="0" res="-9.9000000000000000e+01" rms="0.0000000000000000e+00" purity="6.9481092691421509e-01" nType="0">
                          <Node pos="l" depth="10" NCoef="0" IVar="-1" Cut="6.7952656745910645e-01" cType="1" res="-9.9000000000000000e+01" rms="0.0000000000000000e+00" purity="7.9458999633789062e-01" nType="1"/>
                          <Node pos="r" depth="10" NCoef="0" IVar="3" Cut="9.0425987243652344e+00" cType="0" res="-9.9000000000000000e+01" rms="0.0000000000000000e+00" purity="5.7523107528686523e-01" nType="0">
                            <Node pos="l" depth="11" NCoef="0" IVar="-1" Cut="2.7877726554870605e+00" cType="0" res="-9.9000000000000000e+01" rms="0.0000000000000000e+00" purity="6.3481664657592773e-01" nType="1"/>
                            <Node pos="r" depth="11" NCoef="0" IVar="-1" Cut="0.0000000000000000e+00" cType="1" res="-9.9000000000000000e+01" rms="0.0000000000000000e+00" purity="4.3583792448043823e-01" nType="-1"/>
                          </Node>
                        </Node>
                      </Node>
                      <Node pos="r" depth="8" NCoef="0" IVar="5" Cut="2.8195927143096924e+00" cType="0" res="-9.9000000000000000e+01" rms="0.0000000000000000e+00" purity="4.0732434391975403e-01" nType="0">
                        <Node pos="l" depth="9" NCoef="0" IVar="-1" Cut="0.0000000000000000e+00" cType="1" res="-9.9000000000000000e+01" rms="0.0000000000000000e+00" purity="5.5470353364944458e-01" nType="1"/>
                        <Node pos="r" depth="9" NCoef="0" IVar="-1" Cut="0.0000000000000000e+00" cType="1" res="-9.9000000000000000e+01" rms="0.0000000000000000e+00" purity="2.3776085674762726e-01" nType="-1"/>
                      </Node>
                    </Node>
                  </Node>
                  <Node pos="r" depth="6" NCoef="0" IVar="3" Cut="9.3587169647216797e+00" cType="0" res="-9.9000000000000000e+01" rms="0.0000000000000000e+00" purity="6.3990586996078491e-01" nType="0">
                    <Node pos="l" depth="7" NCoef="0" IVar="5" Cut="2.4893758296966553e+00" cType="0" res="-9.9000000000000000e+01" rms="0.0000000000000000e+00" purity="7.2769623994827271e-01" nType="0">
                      <Node pos="l" depth="8" NCoef="0" IVar="2" Cut="-9.4593602418899536e-01" cType="1" res="-9.9000000000000000e+01" rms="0.0000000000000000e+00" purity="7.5128954648971558e-01" nType="0">
                        <Node pos="l" depth="9" NCoef="0" IVar="-1" Cut="9.6957313537597656e+01" cType="0" res="-9.9000000000000000e+01" rms="0.0000000000000000e+00" purity="7.8900152444839478e-01" nType="1"/>
                        <Node pos="r" depth="9" NCoef="0" IVar="3" Cut="1.0543364524841309e+01" cType="0" res="-9.9000000000000000e+01" rms="0.0000000000000000e+00" purity="6.1397773027420044e-01" nType="0">
                          <Node pos="l" depth="10" NCoef="0" IVar="-1" Cut="5.7502681016921997e-01" cType="1" res="-9.9000000000000000e+01" rms="0.0000000000000000e+00" purity="6.7368346452713013e-01" nType="1"/>
                          <Node pos="r" depth="10" NCoef="0" IVar="-1" Cut="0.0000000000000000e+00" cType="1" res="-9.9000000000000000e+01" rms="0.0000000000000000e+00" purity="4.3112236261367798e-01" nType="-1"/>
                        </Node>
                      </Node>
                      <Node pos="r" depth="8" NCoef="0" IVar="-1" Cut="0.0000000000000000e+00" cType="1" res="-9.9000000000000000e+01" rms="0.0000000000000000e+00" purity="4.1339263319969177e-01" nType="-1"/>
                    </Node>
                    <Node pos="r" depth="7" NCoef="0" IVar="3" Cut="6.8649182319641113e+00" cType="0" res="-9.9000000000000000e+01" rms="0.0000000000000000e+00" purity="3.9220619201660156e-01" nType="0">
                      <Node pos="l" depth="8" NCoef="0" IVar="2" Cut="-1.2197837829589844e+00" cType="1" res="-9.9000000000000000e+01" rms="0.0000000000000000e+00" purity="4.7694325447082520e-01" nType="0">
                        <Node pos="l" depth="9" NCoef="0" IVar="5" Cut="2.8300766944885254e+00" cType="0" res="-9.9000000000000000e+01" rms="0.0000000000000000e+00" purity="5.7511824369430542e-01" nType="0">
                          <Node pos="l" depth="10" NCoef="0" IVar="-1" Cut="0.0000000000000000e+00" cType="1" res="-9.9000000000000000e+01" rms="0.0000000000000000e+00" purity="6.8347990512847900e-01" nType="1"/>
                          <Node pos="r" depth="10" NCoef="0" IVar="6" Cut="1.9123558044433594e+02" cType="0" res="-9.9000000000000000e+01" rms="0.0000000000000000e+00" purity="4.7823542356491089e-01" nType="0">
                            <Node pos="l" depth="11" NCoef="0" IVar="-1" Cut="0.0000000000000000e+00" cType="1" res="-9.9000000000000000e+01" rms="0.0000000000000000e+00" purity="5.8099579811096191e-01" nType="1"/>
                            <Node pos="r" depth="11" NCoef="0" IVar="-1" Cut="0.0000000000000000e+00" cType="1" res="-9.9000000000000000e+01" rms="0.0000000000000000e+00" purity="3.5327011346817017e-01" nType="-1"/>
                          </Node>
                        </Node>
                        <Node pos="r" depth="9" NCoef="0" IVar="-1" Cut="-1.0020775794982910e+00" cType="1" res="-9.9000000000000000e+01" rms="0.0000000000000000e+00" purity="3.3589160442352295e-01" nType="-1"/>
                      </Node>
                      <Node pos="r" depth="8" NCoef="0" IVar="-1" Cut="6.5674394369125366e-01" cType="1" res="-9.9000000000000000e+01" rms="0.0000000000000000e+00" purity="9.6279069781303406e-02" nType="-1"/>
                    </Node>
                  </Node>
                </Node>
                <Node pos="r" depth="5" NCoef="0" IVar="3" Cut="8.8529920578002930e+00" cType="0" res="-9.9000000000000000e+01" rms="0.0000000000000000e+00" purity="5.3103190660476685e-01" nType="0">
                  <Node pos="l" depth="6" NCoef="0" IVar="0" Cut="2.7047127485275269e-01" cType="1" res="-9.9000000000000000e+01" rms="0.0000000000000000e+00" purity="6.3985127210617065e-01" nType="0">
                    <Node pos="l" depth="7" NCoef="0" IVar="6" Cut="9.2958221435546875e+01" cType="0" res="-9.9000000000000000e+01" rms="0.0000000000000000e+00" purity="7.0664089918136597e-01" nType="0">
                      <Node pos="l" depth="8" NCoef="0" IVar="0" Cut="-1.3304196298122406e-01" cType="1" res="-9.9000000000000000e+01" rms="0.0000000000000000e+00" purity="7.4624049663543701e-01" nType="0">
                        <Node pos="l" depth="9" NCoef="0" IVar="-1" Cut="2.4434106349945068e+00" cType="0" res="-9.9000000000000000e+01" rms="0.0000000000000000e+00" purity="8.1545931100845337e-01" nType="1"/>
                        <Node pos="r" depth="9" NCoef="0" IVar="1" Cut="7.9443991184234619e-01" cType="1" res="-9.9000000000000000e+01" rms="0.0000000000000000e+00" purity="6.9261437654495239e-01" nType="0">
                          <Node pos="l" depth="10" NCoef="0" IVar="3" Cut="1.1995726585388184e+01" cType="0" res="-9.9000000000000000e+01" rms="0.0000000000000000e+00" purity="7.2967106103897095e-01" nType="0">
                            <Node pos="l" depth="11" NCoef="0" IVar="-1" Cut="1.1619482934474945e-01" cType="1" res="-9.9000000000000000e+01" rms="0.0000000000000000e+00" purity="7.9638743400573730e-01" nType="1"/>
                            <Node pos="r" depth="11" NCoef="0" IVar="5" Cut="2.5966536998748779e+00" cType="0" res="-9.9000000000000000e+01" rms="0.0000000000000000e+00" purity="6.4821571111679077e-01" nType="0">
                              <Node pos="l" depth="12" NCoef="0" IVar="-1" Cut="1.0496025085449219e+01" cType="0" res="-9.9000000000000000e+01" rms="0.0000000000000000e+00" purity="7.1457952260971069e-01" nType="1"/>
                              <Node pos="r" depth="12" NCoef="0" IVar="-1" Cut="0.0000000000000000e+00" cType="1" res="-9.9000000000000000e+01" rms="0.0000000000000000e+00" purity="4.7493535280227661e-01" nType="-1"/>
                            </Node>
                          </Node>
                          <Node pos="r" depth="10" NCoef="0" IVar="-1" Cut="0.0000000000000000e+00" cType="1" res="-9.9000000000000000e+01" rms="0.0000000000000000e+00" purity="4.8873192071914673e-01" nType="-1"/>
                        </Node>
                      </Node>
                      <Node pos="r" depth="8" NCoef="0" IVar="2" Cut="-3.6517003178596497e-01" cType="1" res="-9.9000000000000000e+01" rms="0.0000000000000000e+00" purity="4.5947709679603577e-01" nType="0">
                        <Node pos="l" depth="9" NCoef="0" IVar="-1" Cut="0.0000000000000000e+00" cType="1" res="-9.9000000000000000e+01" rms="0.0000000000000000e+00" purity="6.3110452890396118e-01" nType="1"/>
                        <Node pos="r" depth="9" NCoef="0" IVar="-1" Cut="0.0000000000000000e+00" cType="1" res="-9.9000000000000000e+01" rms="0.0000000000000000e+00" purity="3.4074893593788147e-01" nType="-1"/>
                      </Node>
                    </Node>
                    <Node pos="r" depth="7" NCoef="0" IVar="6" Cut="1.1638401031494141e+02" cType="0" res="-9.9000000000000000e+01" rms="0.0000000000000000e+00" purity="4.1821777820587158e-01" nType="0">
                      <Node pos="l" depth="8" NCoef="0" IVar="1" Cut="4.8962622880935669e-01" cType="1" res="-9.9000000000000000e+01" rms="0.0000000000000000e+00" purity="4.8383069038391113e-01" nType="0">
                        <Node pos="l" depth="9" NCoef="0" IVar="-1" Cut="0.0000000000000000e+00" cType="1" res="-9.9000000000000000e+01" rms="0.0000000000000000e+00" purity="6.0748630762100220e-01" nType="1"/>
                        <Node pos="r" depth="9" NCoef="0" IVar="3" Cut="1.2255171775817871e+01" cType="0" res="-9.9000000000000000e+01" rms="0.0000000000000000e+00" purity="4.1807183623313904e-01" nType="0">
                          <Node pos="l" depth="10" NCoef="0" IVar="-1" Cut="0.0000000000000000e+00" cType="1" res="-9.9000000000000000e+01" rms="0.0000000000000000e+00" purity="5.5591106414794922e-01" nType="1"/>
                          <Node pos="r" depth="10" NCoef="0" IVar="-1" Cut="0.0000000000000000e+00" cType="1" res="-9.9000000000000000e+01" rms="0.0000000000000000e+00" purity="3.0262938141822815e-01" nType="-1"/>
                        </Node>
                      </Node>
                      <Node pos="r" depth="8" NCoef="0" IVar="-1" Cut="6.4674103260040283e-01" cType="1" res="-9.9000000000000000e+01" rms="0.0000000000000000e+00" purity="2.6694834232330322e-01" nType="-1"/>
                    </Node>
                  </Node>
                  <Node pos="r" depth="6" NCoef="0" IVar="3" Cut="6.7685766220092773e+00" cType="0" res="-9.9000000000000000e+01" rms="0.0000000000000000e+00" purity="2.0931120216846466e-01" nType="0">
                    <Node pos="l" depth="7" NCoef="0" IVar="2" Cut="-7.2812356054782867e-02" cType="1" res="-9.9000000000000000e+01" rms="0.0000000000000000e+00" purity="3.1834521889686584e-01" nType="0">
                      <Node pos="l" depth="8" NCoef="0" IVar="0" Cut="-3.1459841411560774e-03" cType="1" res="-9.9000000000000000e+01" rms="0.0000000000000000e+00" purity="3.7859958410263062e-01" nType="0">
                        <Node pos="l" depth="9" NCoef="0" IVar="-1" Cut="0.0000000000000000e+00" cType="1" res="-9.9000000000000000e+01" rms="0.0000000000000000e+00" purity="6.0560715198516846e-01" nType="1"/>
                        <Node pos="r" depth="9" NCoef="0" IVar="-1" Cut="-4.1623288393020630e-01" cType="0" res="-9.9000000000000000e+01" rms="0.0000000000000000e+00" purity="2.6651516556739807e-01" nType="-1"/>
                      </Node>
                      <Node pos="r" depth="8" NCoef="0" IVar="-1" Cut="0.0000000000000000e+00" cType="1" res="-9.9000000000000000e+01" rms="0.0000000000000000e+00" purity="1.3349983096122742e-01" nType="-1"/>
                    </Node>
                    <Node pos="r" depth="7" NCoef="0" IVar="-1" Cut="2.7273790836334229e+00" cType="0" res="-9.9000000000000000e+01" rms="0.0000000000000000e+00" purity="4.4615797698497772e-02" nType="-1"/>
                  </Node>
                </Node>
              </Node>
            </Node>
            <Node pos="r" depth="3" NCoef="0" IVar="5" Cut="2.2639610767364502e+00" cType="0" res="-9.9000000000000000e+01" rms="0.0000000000000000e+00" purity="3.2710400223731995e-01" nType="0">
              <Node pos="l" depth="4" NCoef="0" IVar="1" Cut="4.0559640526771545e-01" cType="1" res="-9.9000000000000000e+01" rms="0.0000000000000000e+00" purity="4.2797532677650452e-01" nType="0">
                <Node pos="l" depth="5" NCoef="0" IVar="0" Cut="6.8548634648323059e-02" cType="1" res="-9.9000000000000000e+01" rms="0.0000000000000000e+00" purity="4.8083484172821045e-01" nType="0">
                  <Node pos="l" depth="6" NCoef="0" IVar="6" Cut="2.4547204589843750e+02" cType="1" res="-9.9000000000000000e+01" rms="0.0000000000000000e+00" purity="5.7021594047546387e-01" nType="0">
                    <Node pos="l" depth="7" NCoef="0" IVar="-1" Cut="-1.0504913330078125e+00" cType="1" res="-9.9000000000000000e+01" rms="0.0000000000000000e+00" purity="7.3581719398498535e-01" nType="1"/>
                    <Node pos="r" depth="7" NCoef="0" IVar="2" Cut="-1.1880245208740234e+00" cType="1" res="-9.9000000000000000e+01" rms="0.0000000000000000e+00" purity="4.8806470632553101e-01" nType="0">
                      <Node pos="l" depth="8" NCoef="0" IVar="5" Cut="2.3085997104644775e+00" cType="0" res="-9.9000000000000000e+01" rms="0.0000000000000000e+00" purity="5.4050368070602417e-01" nType="0">
                        <Node pos="l" depth="9" NCoef="0" IVar="-1" Cut="0.0000000000000000e+00" cType="1" res="-9.9000000000000000e+01" rms="0.0000000000000000e+00" purity="6.2533742189407349e-01" nType="1"/>
                        <Node pos="r" depth="9" NCoef="0" IVar="-1" Cut="0.0000000000000000e+00" cType="1" res="-9.9000000000000000e+01" rms="0.0000000000000000e+00" purity="4.6611174941062927e-01" nType="-1"/>
                      </Node>
                      <Node pos="r" depth="8" NCoef="0" IVar="-1" Cut="-1.9676947593688965e-01" cType="0" res="-9.9000000000000000e+01" rms="0.0000000000000000e+00" purity="4.2091169953346252e-01" nType="-1"/>
                    </Node>
                  </Node>
                  <Node pos="r" depth="6" NCoef="0" IVar="3" Cut="1.0578077316284180e+01" cType="0" res="-9.9000000000000000e+01" rms="0.0000000000000000e+00" purity="3.3514222502708435e-01" nType="0">
                    <Node pos="l" depth="7" NCoef="0" IVar="0" Cut="2.9795241355895996e-01" cType="1" res="-9.9000000000000000e+01" rms="0.0000000000000000e+00" purity="4.0154358744621277e-01" nType="0">
                      <Node pos="l" depth="8" NCoef="0" IVar="6" Cut="2.7099548339843750e+02" cType="1" res="-9.9000000000000000e+01" rms="0.0000000000000000e+00" purity="4.9568709731101990e-01" nType="0">
                        <Node pos="l" depth="9" NCoef="0" IVar="-1" Cut="0.0000000000000000e+00" cType="1" res="-9.9000000000000000e+01" rms="0.0000000000000000e+00" purity="6.0034555196762085e-01" nType="1"/>
                        <Node pos="r" depth="9" NCoef="0" IVar="-1" Cut="0.0000000000000000e+00" cType="1" res="-9.9000000000000000e+01" rms="0.0000000000000000e+00" purity="3.8495627045631409e-01" nType="-1"/>
                      </Node>
                      <Node pos="r" depth="8" NCoef="0" IVar="-1" Cut="0.0000000000000000e+00" cType="1" res="-9.9000000000000000e+01" rms="0.0000000000000000e+00" purity="2.3359103500843048e-01" nType="-1"/>
                    </Node>
                    <Node pos="r" depth="7" NCoef="0" IVar="-1" Cut="0.0000000000000000e+00" cType="1" res="-9.9000000000000000e+01" rms="0.0000000000000000e+00" purity="1.4052470028400421e-01" nType="-1"/>
                  </Node>
                </Node>
                <Node pos="r" depth="5" NCoef="0" IVar="-1" Cut="1.6248748779296875e+02" cType="0" res="-9.9000000000000000e+01" rms="0.0000000000000000e+00" purity="2.3806597292423248e-01" nType="-1"/>
              </Node>
              <Node pos="r" depth="4" NCoef="0" IVar="3" Cut="9.4587154388427734e+00" cType="0" res="-9.9000000000000000e+01" rms="0.0000000000000000e+00" purity="1.8098257482051849e-01" nType="0">
                <Node pos="l" depth="5" NCoef="0" IVar="2" Cut="-1.4659782648086548e+00" cType="1" res="-9.9000000000000000e+01" rms="0.0000000000000000e+00" purity="2.4145606160163879e-01" nType="0">
                  <Node pos="l" depth="6" NCoef="0" IVar="1" Cut="-7.7218770980834961e-02" cType="1" res="-9.9000000000000000e+01" rms="0.0000000000000000e+00" purity="3.7533757090568542e-01" nType="0">
                    <Node pos="l" depth="7" NCoef="0" IVar="-1" Cut="0.0000000000000000e+00" cType="1" res="-9.9000000000000000e+01" rms="0.0000000000000000e+00" purity="5.1821666955947876e-01" nType="1"/>
                    <Node pos="r" depth="7" NCoef="0" IVar="-1" Cut="0.0000000000000000e+00" cType="1" res="-9.9000000000000000e+01" rms="0.0000000000000000e+00" purity="2.5027009844779968e-01" nType="-1"/>
                  </Node>
                  <Node pos="r" depth="6" NCoef="0" IVar="-1" Cut="2.8679641723632812e+02" cType="1" res="-9.9000000000000000e+01" rms="0.0000000000000000e+00" purity="1.7691642045974731e-01" nType="-1"/>
                </Node>
                <Node pos="r" depth="5" NCoef="0" IVar="-1" Cut="8.1485023498535156e+00" cType="0" res="-9.9000000000000000e+01" rms="0.0000000000000000e+00" purity="3.3158715814352036e-02" nType="-1"/>
              </Node>
            </Node>
          </Node>
          <Node pos="r" depth="2" NCoef="0" IVar="2" Cut="-5.7988667488098145e-01" cType="1" res="-9.9000000000000000e+01" rms="0.0000000000000000e+00" purity="3.3206596970558167e-01" nType="0">
            <Node pos="l" depth="3" NCoef="0" IVar="1" Cut="1.7077312469482422e+00" cType="1" res="-9.9000000000000000e+01" rms="0.0000000000000000e+00" purity="4.7248852252960205e-01" nType="0">
              <Node pos="l" depth="4" NCoef="0" IVar="3" Cut="7.6934552192687988e+00" cType="0" res="-9.9000000000000000e+01" rms="0.0000000000000000e+00" purity="5.6613868474960327e-01" nType="0">
                <Node pos="l" depth="5" NCoef="0" IVar="5" Cut="2.4485158920288086e+00" cType="0" res="-9.9000000000000000e+01" rms="0.0000000000000000e+00" purity="6.3260877132415771e-01" nType="0">
                  <Node pos="l" depth="6" NCoef="0" IVar="0" Cut="2.8227928280830383e-01" cType="1" res="-9.9000000000000000e+01" rms="0.0000000000000000e+00" purity="6.7587924003601074e-01" nType="0">
                    <Node pos="l" depth="7" NCoef="0" IVar="0" Cut="-3.6724049597978592e-02" cType="1" res="-9.9000000000000000e+01" rms="0.0000000000000000e+00" purity="7.4767237901687622e-01" nType="0">
                      <Node pos="l" depth="8" NCoef="0" IVar="-1" Cut="8.4086944580078125e+01" cType="0" res="-9.9000000000000000e+01" rms="0.0000000000000000e+00" purity="8.1903702020645142e-01" nType="1"/>
                      <Node pos="r" depth="8" NCoef="0" IVar="5" Cut="2.5449025630950928e+00" cType="0" res="-9.9000000000000000e+01" rms="0.0000000000000000e+00" purity="6.7038196325302124e-01" nType="0">
                        <Node pos="l" depth="9" NCoef="0" IVar="2" Cut="-1.0263551473617554e+00" cType="1" res="-9.9000000000000000e+01" rms="0.0000000000000000e+00" purity="6.9443970918655396e-01" nType="0">
                          <Node pos="l" depth="10" NCoef="0" IVar="-1" Cut="2.8668172359466553e+00" cType="0" res="-9.9000000000000000e+01" rms="0.0000000000000000e+00" purity="7.4973034858703613e-01" nType="1"/>
                          <Node pos="r" depth="10" NCoef="0" IVar="0" Cut="1.4591847360134125e-01" cType="1" res="-9.9000000000000000e+01" rms="0.0000000000000000e+00" purity="5.9323292970657349e-01" nType="0">
                            <Node pos="l" depth="11" NCoef="0" IVar="-1" Cut="1.4078990173339844e+02" cType="0" res="-9.9000000000000000e+01" rms="0.0000000000000000e+00" purity="6.5222543478012085e-01" nType="1"/>
                            <Node pos="r" depth="11" NCoef="0" IVar="-1" Cut="0.0000000000000000e+00" cType="1" res="-9.9000000000000000e+01" rms="0.0000000000000000e+00" purity="4.9509680271148682e-01" nType="-1"/>
                          </Node>
                        </Node>
                        <Node pos="r" depth="9" NCoef="0" IVar="-1" Cut="0.0000000000000000e+00" cType="1" res="-9.9000000000000000e+01" rms="0.0000000000000000e+00" purity="4.2064073681831360e-01" nType="-1"/>
                      </Node>
                    </Node>
                    <Node pos="r" depth="7" NCoef="0" IVar="2" Cut="-1.1155195236206055e+00" cType="1" res="-9.9000000000000000e+01" rms="0.0000000000000000e+00" purity="4.5760646462440491e-01" nType="0">
                      <Node pos="l" depth="8" NCoef="0" IVar="0" Cut="4.4123977422714233e-01" cType="1" res="-9.9000000000000000e+01" rms="0.0000000000000000e+00" purity="5.3347098827362061e-01" nType="0">
                        <Node pos="l" depth="9" NCoef="0" IVar="6" Cut="1.6194110107421875e+02" cType="0" res="-9.9000000000000000e+01" rms="0.0000000000000000e+00" purity="5.7882642745971680e-01" nType="0">
                          <Node pos="l" depth="10" NCoef="0" IVar="-1" Cut="1.0848217010498047e+01" cType="0" res="-9.9000000000000000e+01" rms="0.0000000000000000e+00" purity="6.5821874141693115e-01" nType="1"/>
                          <Node pos="r" depth="10" NCoef="0" IVar="-1" Cut="9.7543098449707031e+01" cType="1" res="-9.9000000000000000e+01" rms="0.0000000000000000e+00" purity="4.9577280879020691e-01" nType="-1"/>
                        </Node>
                        <Node pos="r" depth="9" NCoef="0" IVar="-1" Cut="0.0000000000000000e+00" cType="1" res="-9.9000000000000000e+01" rms="0.0000000000000000e+00" purity="4.0541034936904907e-01" nType="-1"/>
                      </Node>
                      <Node pos="r" depth="8" NCoef="0" IVar="6" Cut="1.8630793762207031e+02" cType="1" res="-9.9000000000000000e+01" rms="0.0000000000000000e+00" purity="3.6050137877464294e-01" nType="0">
                        <Node pos="l" depth="9" NCoef="0" IVar="6" Cut="8.0203887939453125e+01" cType="0" res="-9.9000000000000000e+01" rms="0.0000000000000000e+00" purity="4.0252017974853516e-01" nType="0">
                          <Node pos="l" depth="10" NCoef="0" IVar="0" Cut="4.1074883937835693e-01" cType="1" res="-9.9000000000000000e+01" rms="0.0000000000000000e+00" purity="4.7969824075698853e-01" nType="0">
                            <Node pos="l" depth="11" NCoef="0" IVar="-1" Cut="0.0000000000000000e+00" cType="1" res="-9.9000000000000000e+01" rms="0.0000000000000000e+00" purity="5.5591106414794922e-01" nType="1"/>
                            <Node pos="r" depth="11" NCoef="0" IVar="-1" Cut="0.0000000000000000e+00" cType="1" res="-9.9000000000000000e+01" rms="0.0000000000000000e+00" purity="3.9689636230468750e-01" nType="-1"/>
                          </Node>
                          <Node pos="r" depth="10" NCoef="0" IVar="-1" Cut="0.0000000000000000e+00" cType="1" res="-9.9000000000000000e+01" rms="0.0000000000000000e+00" purity="2.5424119830131531e-01" nType="-1"/>
                        </Node>
                        <Node pos="r" depth="9" NCoef="0" IVar="-1" Cut="0.0000000000000000e+00" cType="1" res="-9.9000000000000000e+01" rms="0.0000000000000000e+00" purity="2.1177874505519867e-01" nType="-1"/>
                      </Node>
                    </Node>
                  </Node>
                  <Node pos="r" depth="6" NCoef="0" IVar="5" Cut="2.3697023391723633e+00" cType="0" res="-9.9000000000000000e+01" rms="0.0000000000000000e+00" purity="2.5627434253692627e-01" nType="0">
                    <Node pos="l" depth="7" NCoef="0" IVar="0" Cut="3.7609953433275223e-02" cType="1" res="-9.9000000000000000e+01" rms="0.0000000000000000e+00" purity="3.8129204511642456e-01" nType="0">
                      <Node pos="l" depth="8" NCoef="0" IVar="-1" Cut="0.0000000000000000e+00" cType="1" res="-9.9000000000000000e+01" rms="0.0000000000000000e+00" purity="5.5259484052658081e-01" nType="1"/>
                      <Node pos="r" depth="8" NCoef="0" IVar="-1" Cut="0.0000000000000000e+00" cType="1" res="-9.9000000000000000e+01" rms="0.0000000000000000e+00" purity="1.8665920197963715e-01" nType="-1"/>
                    </Node>
                    <Node pos="r" depth="7" NCoef="0" IVar="-1" Cut="2.2896559238433838e+00" cType="0" res="-9.9000000000000000e+01" rms="0.0000000000000000e+00" purity="1.2919417023658752e-01" nType="-1"/>
                  </Node>
                </Node>
                <Node pos="r" depth="5" NCoef="0" IVar="3" Cut="6.6366138458251953e+00" cType="0" res="-9.9000000000000000e+01" rms="0.0000000000000000e+00" purity="2.3591522872447968e-01" nType="0">
                  <Node pos="l" depth="6" NCoef="0" IVar="0" Cut="1.4343567192554474e-01" cType="1" res="-9.9000000000000000e+01" rms="0.0000000000000000e+00" purity="4.1623771190643311e-01" nType="0">
                    <Node pos="l" depth="7" NCoef="0" IVar="-1" Cut="0.0000000000000000e+00" cType="1" res="-9.9000000000000000e+01" rms="0.0000000000000000e+00" purity="6.1990457773208618e-01" nType="1"/>
                    <Node pos="r" depth="7" NCoef="0" IVar="-1" Cut="9.2137145996093750e+01" cType="1" res="-9.9000000000000000e+01" rms="0.0000000000000000e+00" purity="2.6257380843162537e-01" nType="-1"/>
                  </Node>
                  <Node pos="r" depth="6" NCoef="0" IVar="-1" Cut="5.5607228279113770e+00" cType="0" res="-9.9000000000000000e+01" rms="0.0000000000000000e+00" purity="9.5014259219169617e-02" nType="-1"/>
                </Node>
              </Node>
              <Node pos="r" depth="4" NCoef="0" IVar="5" Cut="2.7547113895416260e+00" cType="0" res="-9.9000000000000000e+01" rms="0.0000000000000000e+00" purity="2.6057261228561401e-01" nType="0">
                <Node pos="l" depth="5" NCoef="0" IVar="6" Cut="1.1243283843994141e+02" cType="0" res="-9.9000000000000000e+01" rms="0.0000000000000000e+00" purity="3.8137724995613098e-01" nType="0">
                  <Node pos="l" depth="6" NCoef="0" IVar="0" Cut="3.6650996655225754e-02" cType="1" res="-9.9000000000000000e+01" rms="0.0000000000000000e+00" purity="5.3039401769638062e-01" nType="0">
                    <Node pos="l" depth="7" NCoef="0" IVar="-1" Cut="1.5675184631347656e+02" cType="0" res="-9.9000000000000000e+01" rms="0.0000000000000000e+00" purity="7.0863074064254761e-01" nType="1"/>
                    <Node pos="r" depth="7" NCoef="0" IVar="5" Cut="2.8817398548126221e+00" cType="0" res="-9.9000000000000000e+01" rms="0.0000000000000000e+00" purity="3.9911833405494690e-01" nType="0">
                      <Node pos="l" depth="8" NCoef="0" IVar="-1" Cut="0.0000000000000000e+00" cType="1" res="-9.9000000000000000e+01" rms="0.0000000000000000e+00" purity="5.2866071462631226e-01" nType="1"/>
                      <Node pos="r" depth="8" NCoef="0" IVar="-1" Cut="2.3052248954772949e+00" cType="1" res="-9.9000000000000000e+01" rms="0.0000000000000000e+00" purity="3.3668518066406250e-01" nType="-1"/>
                    </Node>
                  </Node>
                  <Node pos="r" depth="6" NCoef="0" IVar="4" Cut="-9.4706916809082031e+00" cType="0" res="-9.9000000000000000e+01" rms="0.0000000000000000e+00" purity="2.2851462662220001e-01" nType="0">
                    <Node pos="l" depth="7" NCoef="0" IVar="0" Cut="9.4760559499263763e-02" cType="1" res="-9.9000000000000000e+01" rms="0.0000000000000000e+00" purity="3.3177983760833740e-01" nType="0">
                      <Node pos="l" depth="8" NCoef="0" IVar="-1" Cut="0.0000000000000000e+00" cType="1" res="-9.9000000000000000e+01" rms="0.0000000000000000e+00" purity="5.4134118556976318e-01" nType="1"/>
                      <Node pos="r" depth="8" NCoef="0" IVar="-1" Cut="2.8385632038116455e+00" cType="0" res="-9.9000000000000000e+01" rms="0.0000000000000000e+00" purity="2.2247120738029480e-01" nType="-1"/>
                    </Node>
                    <Node pos="r" depth="7" NCoef="0" IVar="-1" Cut="0.0000000000000000e+00" cType="1" res="-9.9000000000000000e+01" rms="0.0000000000000000e+00" purity="4.0872741490602493e-02" nType="-1"/>
                  </Node>
                </Node>
                <Node pos="r" depth="5" NCoef="0" IVar="0" Cut="1.6235622763633728e-01" cType="1" res="-9.9000000000000000e+01" rms="0.0000000000000000e+00" purity="1.6778340935707092e-01" nType="0">
                  <Node pos="l" depth="6" NCoef="0" IVar="1" Cut="2.1789174079895020e+00" cType="1" res="-9.9000000000000000e+01" rms="0.0000000000000000e+00" purity="2.3525896668434143e-01" nType="0">
                    <Node pos="l" depth="7" NCoef="0" IVar="5" Cut="2.5228636264801025e+00" cType="0" res="-9.9000000000000000e+01" rms="0.0000000000000000e+00" purity="3.5615834593772888e-01" nType="0">
                      <Node pos="l" depth="8" NCoef="0" IVar="6" Cut="1.6508822631835938e+02" cType="0" res="-9.9000000000000000e+01" rms="0.0000000000000000e+00" purity="4.3844974040985107e-01" nType="0">
                        <Node pos="l" depth="9" NCoef="0" IVar="-1" Cut="0.0000000000000000e+00" cType="1" res="-9.9000000000000000e+01" rms="0.0000000000000000e+00" purity="6.2996536493301392e-01" nType="1"/>
                        <Node pos="r" depth="9" NCoef="0" IVar="-1" Cut="0.0000000000000000e+00" cType="1" res="-9.9000000000000000e+01" rms="0.0000000000000000e+00" purity="2.3555332422256470e-01" nType="-1"/>
                      </Node>
                      <Node pos="r" depth="8" NCoef="0" IVar="-1" Cut="0.0000000000000000e+00" cType="1" res="-9.9000000000000000e+01" rms="0.0000000000000000e+00" purity="2.0713295042514801e-01" nType="-1"/>
                    </Node>
                    <Node pos="r" depth="7" NCoef="0" IVar="-1" Cut="3.3886587619781494e+00" cType="1" res="-9.9000000000000000e+01" rms="0.0000000000000000e+00" purity="1.5208435058593750e-01" nType="-1"/>
                  </Node>
                  <Node pos="r" depth="6" NCoef="0" IVar="-1" Cut="2.5610358715057373e+00" cType="0" res="-9.9000000000000000e+01" rms="0.0000000000000000e+00" purity="8.5478357970714569e-02" nType="-1"/>
                </Node>
              </Node>
            </Node>
            <Node pos="r" depth="3" NCoef="0" IVar="6" Cut="9.3428909301757812e+01" cType="0" res="-9.9000000000000000e+01" rms="0.0000000000000000e+00" purity="1.5680249035358429e-01" nType="0">
              <Node pos="l" depth="4" NCoef="0" IVar="0" Cut="1.8646863102912903e-01" cType="1" res="-9.9000000000000000e+01" rms="0.0000000000000000e+00" purity="2.4385516345500946e-01" nType="0">
                <Node pos="l" depth="5" NCoef="0" IVar="2" Cut="-3.4114298224449158e-01" cType="1" res="-9.9000000000000000e+01" rms="0.0000000000000000e+00" purity="3.2992151379585266e-01" nType="0">
                  <Node pos="l" depth="6" NCoef="0" IVar="5" Cut="2.9086272716522217e+00" cType="0" res="-9.9000000000000000e+01" rms="0.0000000000000000e+00" purity="4.9009591341018677e-01" nType="0">
                    <Node pos="l" depth="7" NCoef="0" IVar="-1" Cut="0.0000000000000000e+00" cType="1" res="-9.9000000000000000e+01" rms="0.0000000000000000e+00" purity="7.9268956184387207e-01" nType="1"/>
                    <Node pos="r" depth="7" NCoef="0" IVar="3" Cut="8.6186180114746094e+00" cType="0" res="-9.9000000000000000e+01" rms="0.0000000000000000e+00" purity="4.3438157439231873e-01" nType="0">
                      <Node pos="l" depth="8" NCoef="0" IVar="5" Cut="2.7433102130889893e+00" cType="0" res="-9.9000000000000000e+01" rms="0.0000000000000000e+00" purity="4.9801260232925415e-01" nType="0">
                        <Node pos="l" depth="9" NCoef="0" IVar="-1" Cut="0.0000000000000000e+00" cType="1" res="-9.9000000000000000e+01" rms="0.0000000000000000e+00" purity="7.1241629123687744e-01" nType="1"/>
                        <Node pos="r" depth="9" NCoef="0" IVar="-1" Cut="2.5102334022521973e+00" cType="0" res="-9.9000000000000000e+01" rms="0.0000000000000000e+00" purity="4.0170660614967346e-01" nType="-1"/>
                      </Node>
                      <Node pos="r" depth="8" NCoef="0" IVar="-1" Cut="0.0000000000000000e+00" cType="1" res="-9.9000000000000000e+01" rms="0.0000000000000000e+00" purity="2.5360581278800964e-01" nType="-1"/>
                    </Node>
                  </Node>
                  <Node pos="r" depth="6" NCoef="0" IVar="6" Cut="1.4575605773925781e+02" cType="0" res="-9.9000000000000000e+01" rms="0.0000000000000000e+00" purity="2.4481442570686340e-01" nType="0">
                    <Node pos="l" depth="7" NCoef="0" IVar="5" Cut="2.4703967571258545e+00" cType="0" res="-9.9000000000000000e+01" rms="0.0000000000000000e+00" purity="3.5875412821769714e-01" nType="0">
                      <Node pos="l" depth="8" NCoef="0" IVar="3" Cut="1.0062049865722656e+01" cType="0" res="-9.9000000000000000e+01" rms="0.0000000000000000e+00" purity="4.6781411767005920e-01" nType="0">
                        <Node pos="l" depth="9" NCoef="0" IVar="-1" Cut="0.0000000000000000e+00" cType="1" res="-9.9000000000000000e+01" rms="0.0000000000000000e+00" purity="5.9558498859405518e-01" nType="1"/>
                        <Node pos="r" depth="9" NCoef="0" IVar="-1" Cut="0.0000000000000000e+00" cType="1" res="-9.9000000000000000e+01" rms="0.0000000000000000e+00" purity="3.4150022268295288e-01" nType="-1"/>
                      </Node>
                      <Node pos="r" depth="8" NCoef="0" IVar="-1" Cut="2.3398561477661133e+00" cType="0" res="-9.9000000000000000e+01" rms="0.0000000000000000e+00" purity="1.9113162159919739e-01" nType="-1"/>
                    </Node>
                    <Node pos="r" depth="7" NCoef="0" IVar="-1" Cut="1.0543249130249023e+01" cType="0" res="-9.9000000000000000e+01" rms="0.0000000000000000e+00" purity="1.5721549093723297e-01" nType="-1"/>
                  </Node>
                </Node>
                <Node pos="r" depth="5" NCoef="0" IVar="-1" Cut="2.9666724205017090e+00" cType="0" res="-9.9000000000000000e+01" rms="0.0000000000000000e+00" purity="1.2840117514133453e-01" nType="-1"/>
              </Node>
              <Node pos="r" depth="4" NCoef="0" IVar="-1" Cut="-9.4445524215698242e+00" cType="0" res="-9.9000000000000000e+01" rms="0.0000000000000000e+00" purity="6.6189616918563843e-02" nType="-1"/>
            </Node>
          </Node>
        </Node>
        <Node pos="r" depth="1" NCoef="0" IVar="1" Cut="3.5216814279556274e-01" cType="1" res="-9.9000000000000000e+01" rms="0.0000000000000000e+00" purity="1.0840830951929092e-01" nType="0">
          <Node pos="l" depth="2" NCoef="0" IVar="0" Cut="9.3146473169326782e-01" cType="1" res="-9.9000000000000000e+01" rms="0.0000000000000000e+00" purity="3.8051337003707886e-01" nType="0">
            <Node pos="l" depth="3" NCoef="0" IVar="5" Cut="2.5210130214691162e+00" cType="0" res="-9.9000000000000000e+01" rms="0.0000000000000000e+00" purity="5.5129182338714600e-01" nType="0">
              <Node pos="l" depth="4" NCoef="0" IVar="3" Cut="8.0127592086791992e+00" cType="0" res="-9.9000000000000000e+01" rms="0.0000000000000000e+00" purity="6.0211008787155151e-01" nType="0">
                <Node pos="l" depth="5" NCoef="0" IVar="1" Cut="-3.5470135509967804e-02" cType="1" res="-9.9000000000000000e+01" rms="0.0000000000000000e+00" purity="6.3696610927581787e-01" nType="0">
                  <Node pos="l" depth="6" NCoef="0" IVar="3" Cut="1.0976071357727051e+01" cType="0" res="-9.9000000000000000e+01" rms="0.0000000000000000e+00" purity="7.3202145099639893e-01" nType="0">
                    <Node pos="l" depth="7" NCoef="0" IVar="-1" Cut="1.1817893981933594e+01" cType="0" res="-9.9000000000000000e+01" rms="0.0000000000000000e+00" purity="7.9493117332458496e-01" nType="1"/>
                    <Node pos="r" depth="7" NCoef="0" IVar="4" Cut="-2.5783443450927734e-01" cType="1" res="-9.9000000000000000e+01" rms="0.0000000000000000e+00" purity="5.3739506006240845e-01" nType="0">
                      <Node pos="l" depth="8" NCoef="0" IVar="3" Cut="9.1585483551025391e+00" cType="0" res="-9.9000000000000000e+01" rms="0.0000000000000000e+00" purity="6.1164951324462891e-01" nType="0">
                        <Node pos="l" depth="9" NCoef="0" IVar="-1" Cut="7.2585231065750122e-01" cType="1" res="-9.9000000000000000e+01" rms="0.0000000000000000e+00" purity="6.6856557130813599e-01" nType="1"/>
                        <Node pos="r" depth="9" NCoef="0" IVar="-1" Cut="0.0000000000000000e+00" cType="1" res="-9.9000000000000000e+01" rms="0.0000000000000000e+00" purity="4.4480001926422119e-01" nType="-1"/>
                      </Node>
                      <Node pos="r" depth="8" NCoef="0" IVar="-1" Cut="0.0000000000000000e+00" cType="1" res="-9.9000000000000000e+01" rms="0.0000000000000000e+00" purity="3.1610071659088135e-01" nType="-1"/>
                    </Node>
                  </Node>
                  <Node pos="r" depth="6" NCoef="0" IVar="0" Cut="7.8933757543563843e-01" cType="1" res="-9.9000000000000000e+01" rms="0.0000000000000000e+00" purity="5.5645835399627686e-01" nType="0">
                    <Node pos="l" depth="7" NCoef="0" IVar="2" Cut="-8.8807004690170288e-01" cType="1" res="-9.9000000000000000e+01" rms="0.0000000000000000e+00" purity="6.1634051799774170e-01" nType="0">
                      <Node pos="l" depth="8" NCoef="0" IVar="3" Cut="1.0287941932678223e+01" cType="0" res="-9.9000000000000000e+01" rms="0.0000000000000000e+00" purity="6.8184775114059448e-01" nType="0">
                        <Node pos="l" depth="9" NCoef="0" IVar="4" Cut="2.7407598495483398e-01" cType="1" res="-9.9000000000000000e+01" rms="0.0000000000000000e+00" purity="7.3704987764358521e-01" nType="0">
                          <Node pos="l" depth="10" NCoef="0" IVar="3" Cut="1.2084012031555176e+01" cType="0" res="-9.9000000000000000e+01" rms="0.0000000000000000e+00" purity="7.5888425111770630e-01" nType="0">
                            <Node pos="l" depth="11" NCoef="0" IVar="-1" Cut="2.8976664543151855e+00" cType="0" res="-9.9000000000000000e+01" rms="0.0000000000000000e+00" purity="8.2000958919525146e-01" nType="1"/>
                            <Node pos="r" depth="11" NCoef="0" IVar="0" Cut="6.4029020071029663e-01" cType="1" res="-9.9000000000000000e+01" rms="0.0000000000000000e+00" purity="6.7064779996871948e-01" nType="0">
                              <Node pos="l" depth="12" NCoef="0" IVar="-1" Cut="-1.3436639308929443e+00" cType="1" res="-9.9000000000000000e+01" rms="0.0000000000000000e+00" purity="7.6341807842254639e-01" nType="1"/>
                              <Node pos="r" depth="12" NCoef="0" IVar="4" Cut="-2.4868585169315338e-01" cType="1" res="-9.9000000000000000e+01" rms="0.0000000000000000e+00" purity="5.5407482385635376e-01" nType="0">
                                <Node pos="l" depth="13" NCoef="0" IVar="-1" Cut="0.0000000000000000e+00" cType="1" res="-9.9000000000000000e+01" rms="0.0000000000000000e+00" purity="6.5112084150314331e-01" nType="1"/>
                                <Node pos="r" depth="13" NCoef="0" IVar="-1" Cut="0.0000000000000000e+00" cType="1" res="-9.9000000000000000e+01" rms="0.0000000000000000e+00" purity="4.4863203167915344e-01" nType="-1"/>
                              </Node>
                            </Node>
                          </Node>
                          <Node pos="r" depth="10" NCoef="0" IVar="-1" Cut="0.0000000000000000e+00" cType="1" res="-9.9000000000000000e+01" rms="0.0000000000000000e+00" purity="5.2893030643463135e-01" nType="1"/>
                        </Node>
                        <Node pos="r" depth="9" NCoef="0" IVar="6" Cut="1.2837454223632812e+02" cType="1" res="-9.9000000000000000e+01" rms="0.0000000000000000e+00" purity="5.0256264209747314e-01" nType="0">
                          <Node pos="l" depth="10" NCoef="0" IVar="0" Cut="6.1447614431381226e-01" cType="1" res="-9.9000000000000000e+01" rms="0.0000000000000000e+00" purity="6.0584849119186401e-01" nType="0">
                            <Node pos="l" depth="11" NCoef="0" IVar="-1" Cut="0.0000000000000000e+00" cType="1" res="-9.9000000000000000e+01" rms="0.0000000000000000e+00" purity="7.0719480514526367e-01" nType="1"/>
                            <Node pos="r" depth="11" NCoef="0" IVar="-1" Cut="0.0000000000000000e+00" cType="1" res="-9.9000000000000000e+01" rms="0.0000000000000000e+00" purity="4.9055594205856323e-01" nType="-1"/>
                          </Node>
                          <Node pos="r" depth="10" NCoef="0" IVar="-1" Cut="1.9259956359863281e+02" cType="0" res="-9.9000000000000000e+01" rms="0.0000000000000000e+00" purity="4.0712717175483704e-01" nType="-1"/>
                        </Node>
                      </Node>
                      <Node pos="r" depth="8" NCoef="0" IVar="6" Cut="1.2660571289062500e+02" cType="0" res="-9.9000000000000000e+01" rms="0.0000000000000000e+00" purity="4.6264508366584778e-01" nType="0">
                        <Node pos="l" depth="9" NCoef="0" IVar="2" Cut="-3.6227312684059143e-01" cType="1" res="-9.9000000000000000e+01" rms="0.0000000000000000e+00" purity="5.3470945358276367e-01" nType="0">
                          <Node pos="l" depth="10" NCoef="0" IVar="3" Cut="1.2421691894531250e+01" cType="0" res="-9.9000000000000000e+01" rms="0.0000000000000000e+00" purity="6.0034555196762085e-01" nType="0">
                            <Node pos="l" depth="11" NCoef="0" IVar="-1" Cut="0.0000000000000000e+00" cType="1" res="-9.9000000000000000e+01" rms="0.0000000000000000e+00" purity="7.0359706878662109e-01" nType="1"/>
                            <Node pos="r" depth="11" NCoef="0" IVar="0" Cut="6.3596826791763306e-01" cType="1" res="-9.9000000000000000e+01" rms="0.0000000000000000e+00" purity="5.1412117481231689e-01" nType="0">
                              <Node pos="l" depth="12" NCoef="0" IVar="-1" Cut="0.0000000000000000e+00" cType="1" res="-9.9000000000000000e+01" rms="0.0000000000000000e+00" purity="6.3494920730590820e-01" nType="1"/>
                              <Node pos="r" depth="12" NCoef="0" IVar="-1" Cut="0.0000000000000000e+00" cType="1" res="-9.9000000000000000e+01" rms="0.0000000000000000e+00" purity="4.0385541319847107e-01" nType="-1"/>
                            </Node>
                          </Node>
                          <Node pos="r" depth="10" NCoef="0" IVar="-1" Cut="0.0000000000000000e+00" cType="1" res="-9.9000000000000000e+01" rms="0.0000000000000000e+00" purity="3.2289540767669678e-01" nType="-1"/>
                        </Node>
                        <Node pos="r" depth="9" NCoef="0" IVar="-1" Cut="6.8258446455001831e-01" cType="1" res="-9.9000000000000000e+01" rms="0.0000000000000000e+00" purity="3.3589160442352295e-01" nType="-1"/>
                      </Node>
                    </Node>
                    <Node pos="r" depth="7" NCoef="0" IVar="3" Cut="1.1472827911376953e+01" cType="0" res="-9.9000000000000000e+01" rms="0.0000000000000000e+00" purity="3.7423095107078552e-01" nType="0">
                      <Node pos="l" depth="8" NCoef="0" IVar="2" Cut="-9.8052757978439331e-01" cType="1" res="-9.9000000000000000e+01" rms="0.0000000000000000e+00" purity="5.2494931221008301e-01" nType="0">
                        <Node pos="l" depth="9" NCoef="0" IVar="3" Cut="1.2617502212524414e+01" cType="0" res="-9.9000000000000000e+01" rms="0.0000000000000000e+00" purity="6.2176728248596191e-01" nType="0">
                          <Node pos="l" depth="10" NCoef="0" IVar="-1" Cut="0.0000000000000000e+00" cType="1" res="-9.9000000000000000e+01" rms="0.0000000000000000e+00" purity="7.1939194202423096e-01" nType="1"/>
                          <Node pos="r" depth="10" NCoef="0" IVar="-1" Cut="0.0000000000000000e+00" cType="1" res="-9.9000000000000000e+01" rms="0.0000000000000000e+00" purity="4.5133695006370544e-01" nType="-1"/>
                        </Node>
                        <Node pos="r" depth="9" NCoef="0" IVar="-1" Cut="-6.6707384586334229e-01" cType="1" res="-9.9000000000000000e+01" rms="0.0000000000000000e+00" purity="3.9457470178604126e-01" nType="-1"/>
                      </Node>
                      <Node pos="r" depth="8" NCoef="0" IVar="-1" Cut="-9.5062656402587891e+00" cType="1" res="-9.9000000000000000e+01" rms="0.0000000000000000e+00" purity="1.9734337925910950e-01" nType="-1"/>
                    </Node>
                  </Node>
                </Node>
                <Node pos="r" depth="5" NCoef="0" IVar="-1" Cut="6.8885688781738281e+00" cType="0" res="-9.9000000000000000e+01" rms="0.0000000000000000e+00" purity="1.3508880138397217e-01" nType="-1"/>
              </Node>
              <Node pos="r" depth="4" NCoef="0" IVar="5" Cut="2.3960812091827393e+00" cType="0" res="-9.9000000000000000e+01" rms="0.0000000000000000e+00" purity="2.8905829787254333e-01" nType="0">
                <Node pos="l" depth="5" NCoef="0" IVar="2" Cut="-1.6018046140670776e+00" cType="1" res="-9.9000000000000000e+01" rms="0.0000000000000000e+00" purity="4.1073808073997498e-01" nType="0">
                  <Node pos="l" depth="6" NCoef="0" IVar="6" Cut="2.6123449707031250e+02" cType="1" res="-9.9000000000000000e+01" rms="0.0000000000000000e+00" purity="6.0560715198516846e-01" nType="0">
                    <Node pos="l" depth="7" NCoef="0" IVar="-1" Cut="0.0000000000000000e+00" cType="1" res="-9.9000000000000000e+01" rms="0.0000000000000000e+00" purity="7.2442549467086792e-01" nType="1"/>
                    <Node pos="r" depth="7" NCoef="0" IVar="-1" Cut="0.0000000000000000e+00" cType="1" res="-9.9000000000000000e+01" rms="0.0000000000000000e+00" purity="4.8250243067741394e-01" nType="-1"/>
                  </Node>
                  <Node pos="r" depth="6" NCoef="0" IVar="0" Cut="7.0811837911605835e-01" cType="1" res="-9.9000000000000000e+01" rms="0.0000000000000000e+00" purity="3.2873097062110901e-01" nType="0">
                    <Node pos="l" depth="7" NCoef="0" IVar="6" Cut="2.5918392944335938e+02" cType="1" res="-9.9000000000000000e+01" rms="0.0000000000000000e+00" purity="4.2140370607376099e-01" nType="0">
                      <Node pos="l" depth="8" NCoef="0" IVar="-1" Cut="0.0000000000000000e+00" cType="1" res="-9.9000000000000000e+01" rms="0.0000000000000000e+00" purity="5.4153400659561157e-01" nType="1"/>
                      <Node pos="r" depth="8" NCoef="0" IVar="-1" Cut="0.0000000000000000e+00" cType="1" res="-9.9000000000000000e+01" rms="0.0000000000000000e+00" purity="2.6893976330757141e-01" nType="-1"/>
                    </Node>
                    <Node pos="r" depth="7" NCoef="0" IVar="-1" Cut="-1.0259650945663452e+00" cType="1" res="-9.9000000000000000e+01" rms="0.0000000000000000e+00" purity="2.1032311022281647e-01" nType="-1"/>
                  </Node>
                </Node>
                <Node pos="r" depth="5" NCoef="0" IVar="-1" Cut="6.0724693536758423e-01" cType="1" res="-9.9000000000000000e+01" rms="0.0000000000000000e+00" purity="1.4168447256088257e-01" nType="-1"/>
              </Node>
            </Node>
            <Node pos="r" depth="3" NCoef="0" IVar="3" Cut="1.2412501335144043e+01" cType="0" res="-9.9000000000000000e+01" rms="0.0000000000000000e+00" purity="1.5339538455009460e-01" nType="0">
              <Node pos="l" depth="4" NCoef="0" IVar="0" Cut="1.3878436088562012e+00" cType="1" res="-9.9000000000000000e+01" rms="0.0000000000000000e+00" purity="2.5280505418777466e-01" nType="0">
                <Node pos="l" depth="5" NCoef="0" IVar="5" Cut="2.6096041202545166e+00" cType="0" res="-9.9000000000000000e+01" rms="0.0000000000000000e+00" purity="3.5200622677803040e-01" nType="0">
                  <Node pos="l" depth="6" NCoef="0" IVar="4" Cut="2.5638663768768311e-01" cType="1" res="-9.9000000000000000e+01" rms="0.0000000000000000e+00" purity="4.3212899565696716e-01" nType="0">
                    <Node pos="l" depth="7" NCoef="0" IVar="2" Cut="-1.0690736770629883e+00" cType="1" res="-9.9000000000000000e+01" rms="0.0000000000000000e+00" purity="4.9227678775787354e-01" nType="0">
                      <Node pos="l" depth="8" NCoef="0" IVar="0" Cut="1.2322816848754883e+00" cType="1" res="-9.9000000000000000e+01" rms="0.0000000000000000e+00" purity="6.0925376415252686e-01" nType="0">
                        <Node pos="l" depth="9" NCoef="0" IVar="-1" Cut="1.0189260244369507e+00" cType="1" res="-9.9000000000000000e+01" rms="0.0000000000000000e+00" purity="6.8058520555496216e-01" nType="1"/>
                        <Node pos="r" depth="9" NCoef="0" IVar="-1" Cut="0.0000000000000000e+00" cType="1" res="-9.9000000000000000e+01" rms="0.0000000000000000e+00" purity="4.1853222250938416e-01" nType="-1"/>
                      </Node>
                      <Node pos="r" depth="8" NCoef="0" IVar="4" Cut="-2.3252569139003754e-01" cType="1" res="-9.9000000000000000e+01" rms="0.0000000000000000e+00" purity="3.8995289802551270e-01" nType="0">
                        <Node pos="l" depth="9" NCoef="0" IVar="-1" Cut="0.0000000000000000e+00" cType="1" res="-9.9000000000000000e+01" rms="0.0000000000000000e+00" purity="5.0702655315399170e-01" nType="1"/>
                        <Node pos="r" depth="9" NCoef="0" IVar="-1" Cut="1.3468891143798828e+01" cType="0" res="-9.9000000000000000e+01" rms="0.0000000000000000e+00" purity="3.3365339040756226e-01" nType="-1"/>
                      </Node>
                    </Node>
                    <Node pos="r" depth="7" NCoef="0" IVar="-1" Cut="0.0000000000000000e+00" cType="1" res="-9.9000000000000000e+01" rms="0.0000000000000000e+00" purity="1.7667996883392334e-01" nType="-1"/>
                  </Node>
                  <Node pos="r" depth="6" NCoef="0" IVar="-1" Cut="2.3892581462860107e+00" cType="0" res="-9.9000000000000000e+01" rms="0.0000000000000000e+00" purity="1.4780032634735107e-01" nType="-1"/>
                </Node>
                <Node pos="r" depth="5" NCoef="0" IVar="-1" Cut="1.7947059869766235e+00" cType="1" res="-9.9000000000000000e+01" rms="0.0000000000000000e+00" purity="1.1538854241371155e-01" nType="-1"/>
              </Node>
              <Node pos="r" depth="4" NCoef="0" IVar="-1" Cut="1.1849315166473389e+00" cType="1" res="-9.9000000000000000e+01" rms="0.0000000000000000e+00" purity="8.8768884539604187e-02" nType="-1"/>
            </Node>
          </Node>
          <Node pos="r" depth="2" NCoef="0" IVar="0" Cut="7.9030120372772217e-01" cType="1" res="-9.9000000000000000e+01" rms="0.0000000000000000e+00" purity="4.8586308956146240e-02" nType="0">
            <Node pos="l" depth="3" NCoef="0" IVar="1" Cut="1.2372632026672363e+00" cType="1" res="-9.9000000000000000e+01" rms="0.0000000000000000e+00" purity="1.7416031658649445e-01" nType="0">
              <Node pos="l" depth="4" NCoef="0" IVar="2" Cut="-9.4509017467498779e-01" cType="1" res="-9.9000000000000000e+01" rms="0.0000000000000000e+00" purity="2.7506181597709656e-01" nType="0">
                <Node pos="l" depth="5" NCoef="0" IVar="3" Cut="9.2938699722290039e+00" cType="0" res="-9.9000000000000000e+01" rms="0.0000000000000000e+00" purity="4.0184986591339111e-01" nType="0">
                  <Node pos="l" depth="6" NCoef="0" IVar="5" Cut="2.5326125621795654e+00" cType="0" res="-9.9000000000000000e+01" rms="0.0000000000000000e+00" purity="4.9214524030685425e-01" nType="0">
                    <Node pos="l" depth="7" NCoef="0" IVar="1" Cut="8.5738962888717651e-01" cType="1" res="-9.9000000000000000e+01" rms="0.0000000000000000e+00" purity="5.4616844654083252e-01" nType="0">
                      <Node pos="l" depth="8" NCoef="0" IVar="0" Cut="6.4165490865707397e-01" cType="1" res="-9.9000000000000000e+01" rms="0.0000000000000000e+00" purity="5.9680670499801636e-01" nType="0">
                        <Node pos="l" depth="9" NCoef="0" IVar="-1" Cut="1.0683014678955078e+02" cType="0" res="-9.9000000000000000e+01" rms="0.0000000000000000e+00" purity="6.7912185192108154e-01" nType="1"/>
                        <Node pos="r" depth="9" NCoef="0" IVar="4" Cut="-6.7277312278747559e-01" cType="1" res="-9.9000000000000000e+01" rms="0.0000000000000000e+00" purity="5.0226116180419922e-01" nType="0">
                          <Node pos="l" depth="10" NCoef="0" IVar="-1" Cut="0.0000000000000000e+00" cType="1" res="-9.9000000000000000e+01" rms="0.0000000000000000e+00" purity="6.8705666065216064e-01" nType="1"/>
                          <Node pos="r" depth="10" NCoef="0" IVar="3" Cut="1.1287274360656738e+01" cType="0" res="-9.9000000000000000e+01" rms="0.0000000000000000e+00" purity="4.1701671481132507e-01" nType="0">
                            <Node pos="l" depth="11" NCoef="0" IVar="4" Cut="1.4703005552291870e-01" cType="1" res="-9.9000000000000000e+01" rms="0.0000000000000000e+00" purity="4.9188530445098877e-01" nType="0">
                              <Node pos="l" depth="12" NCoef="0" IVar="-1" Cut="0.0000000000000000e+00" cType="1" res="-9.9000000000000000e+01" rms="0.0000000000000000e+00" purity="5.8496505022048950e-01" nType="1"/>
                              <Node pos="r" depth="12" NCoef="0" IVar="-1" Cut="0.0000000000000000e+00" cType="1" res="-9.9000000000000000e+01" rms="0.0000000000000000e+00" purity="3.7769687175750732e-01" nType="-1"/>
                            </Node>
                            <Node pos="r" depth="11" NCoef="0" IVar="-1" Cut="0.0000000000000000e+00" cType="1" res="-9.9000000000000000e+01" rms="0.0000000000000000e+00" purity="2.7448022365570068e-01" nType="-1"/>
                          </Node>
                        </Node>
                      </Node>
                      <Node pos="r" depth="8" NCoef="0" IVar="0" Cut="5.8765548467636108e-01" cType="1" res="-9.9000000000000000e+01" rms="0.0000000000000000e+00" purity="4.0235626697540283e-01" nType="0">
                        <Node pos="l" depth="9" NCoef="0" IVar="-1" Cut="0.0000000000000000e+00" cType="1" res="-9.9000000000000000e+01" rms="0.0000000000000000e+00" purity="5.4447484016418457e-01" nType="1"/>
                        <Node pos="r" depth="9" NCoef="0" IVar="-1" Cut="1.8379421997070312e+02" cType="0" res="-9.9000000000000000e+01" rms="0.0000000000000000e+00" purity="3.2856187224388123e-01" nType="-1"/>
                      </Node>
                    </Node>
                    <Node pos="r" depth="7" NCoef="0" IVar="-1" Cut="2.4146151542663574e+00" cType="0" res="-9.9000000000000000e+01" rms="0.0000000000000000e+00" purity="2.1500805020332336e-01" nType="-1"/>
                  </Node>
                  <Node pos="r" depth="6" NCoef="0" IVar="-1" Cut="7.0381278991699219e+00" cType="0" res="-9.9000000000000000e+01" rms="0.0000000000000000e+00" purity="2.0407071709632874e-01" nType="-1"/>
                </Node>
                <Node pos="r" depth="5" NCoef="0" IVar="3" Cut="1.2184950828552246e+01" cType="0" res="-9.9000000000000000e+01" rms="0.0000000000000000e+00" purity="1.6665233671665192e-01" nType="0">
                  <Node pos="l" depth="6" NCoef="0" IVar="1" Cut="6.0737395286560059e-01" cType="1" res="-9.9000000000000000e+01" rms="0.0000000000000000e+00" purity="2.7320250868797302e-01" nType="0">
                    <Node pos="l" depth="7" NCoef="0" IVar="4" Cut="7.1109876036643982e-02" cType="1" res="-9.9000000000000000e+01" rms="0.0000000000000000e+00" purity="3.9800581336021423e-01" nType="0">
                      <Node pos="l" depth="8" NCoef="0" IVar="-1" Cut="0.0000000000000000e+00" cType="1" res="-9.9000000000000000e+01" rms="0.0000000000000000e+00" purity="5.5591106414794922e-01" nType="1"/>
                      <Node pos="r" depth="8" NCoef="0" IVar="-1" Cut="0.0000000000000000e+00" cType="1" res="-9.9000000000000000e+01" rms="0.0000000000000000e+00" purity="2.2247120738029480e-01" nType="-1"/>
                    </Node>
                    <Node pos="r" depth="7" NCoef="0" IVar="-1" Cut="5.8709102869033813e-01" cType="1" res="-9.9000000000000000e+01" rms="0.0000000000000000e+00" purity="2.0411731302738190e-01" nType="-1"/>
                  </Node>
                  <Node pos="r" depth="6" NCoef="0" IVar="-1" Cut="1.0267368316650391e+01" cType="0" res="-9.9000000000000000e+01" rms="0.0000000000000000e+00" purity="1.1911011487245560e-01" nType="-1"/>
                </Node>
              </Node>
              <Node pos="r" depth="4" NCoef="0" IVar="-1" Cut="1.9535511732101440e+00" cType="1" res="-9.9000000000000000e+01" rms="0.0000000000000000e+00" purity="5.8199901133775711e-02" nType="-1"/>
            </Node>
            <Node pos="r" depth="3" NCoef="0" IVar="-1" Cut="1.1935347318649292e+00" cType="1" res="-9.9000000000000000e+01" rms="0.0000000000000000e+00" purity="2.5306748226284981e-02" nType="-1"/>
          </Node>
        </Node>
      </Node>
    </BinaryTree>
    <BinaryTree type="DecisionTree" boostWeight="1.0517610134238251e+00" itree="1">
      <Node pos="s" depth="0" NCoef="0" IVar="0" Cut="1.0659960508346558e+00" cType="1" res="-9.9000000000000000e+01" rms="0.0000000000000000e+00" purity="4.4579827785491943e-01" nType="0">
        <Node pos="l" depth="1" NCoef="0" IVar="1" Cut="3.5217326879501343e-01" cType="1" res="-9.9000000000000000e+01" rms="0.0000000000000000e+00" purity="5.0459337234497070e-01" nType="0">
          <Node pos="l" depth="2" NCoef="0" IVar="0" Cut="1.7188036441802979e-01" cType="1" res="-9.9000000000000000e+01" rms="0.0000000000000000e+00" purity="5.5257296562194824e-01" nType="0">
            <Node pos="l" depth="3" NCoef="0" IVar="-1" Cut="2.5779047012329102e+00" cType="0" res="-9.9000000000000000e+01" rms="0.0000000000000000e+00" purity="6.1395817995071411e-01" nType="1"/>
            <Node pos="r" depth="3" NCoef="0" IVar="-1" Cut="-1.2128515243530273e+00" cType="1" res="-9.9000000000000000e+01" rms="0.0000000000000000e+00" purity="4.7277614474296570e-01" nType="-1"/>
          </Node>
          <Node pos="r" depth="2" NCoef="0" IVar="-1" Cut="1.9014483690261841e+00" cType="1" res="-9.9000000000000000e+01" rms="0.0000000000000000e+00" purity="4.4520097970962524e-01" nType="-1"/>
        </Node>
        <Node pos="r" depth="1" NCoef="0" IVar="-1" Cut="6.4265668392181396e-01" cType="1" res="-9.9000000000000000e+01" rms="0.0000000000000000e+00" purity="1.6260351240634918e-01" nType="-1"/>
      </Node>
    </BinaryTree>
    <BinaryTree type="DecisionTree" boostWeight="8.9199092128691060e-01" itree="2">
      <Node pos="s" depth="0" NCoef="0" IVar="0" Cut="1.2527952194213867e+00" cType="1" res="-9.9000000000000000e+01" rms="0.0000000000000000e+00" purity="4.7844067215919495e-01" nType="0">
        <Node pos="l" depth="1" NCoef="0" IVar="1" Cut="6.4265495538711548e-01" cType="1" res="-9.9000000000000000e+01" rms="0.0000000000000000e+00" purity="5.0780570507049561e-01" nType="0">
          <Node pos="l" depth="2" NCoef="0" IVar="3" Cut="2.4405122756958008e+01" cType="1" res="-9.9000000000000000e+01" rms="0.0000000000000000e+00" purity="5.3381860256195068e-01" nType="0">
            <Node pos="l" depth="3" NCoef="0" IVar="3" Cut="1.1329423904418945e+01" cType="0" res="-9.9000000000000000e+01" rms="0.0000000000000000e+00" purity="5.3604173660278320e-01" nType="0">
              <Node pos="l" depth="4" NCoef="0" IVar="-1" Cut="6.5303802490234375e-02" cType="1" res="-9.9000000000000000e+01" rms="0.0000000000000000e+00" purity="5.6796079874038696e-01" nType="1"/>
              <Node pos="r" depth="4" NCoef="0" IVar="-1" Cut="4.8225078582763672e+00" cType="0" res="-9.9000000000000000e+01" rms="0.0000000000000000e+00" purity="4.9898785352706909e-01" nType="-1"/>
            </Node>
            <Node pos="r" depth="3" NCoef="0" IVar="-1" Cut="5.7760012149810791e-01" cType="0" res="-9.9000000000000000e+01" rms="0.0000000000000000e+00" purity="1.4602859318256378e-01" nType="-1"/>
          </Node>
          <Node pos="r" depth="2" NCoef="0" IVar="-1" Cut="-1.9154900684952736e-02" cType="1" res="-9.9000000000000000e+01" rms="0.0000000000000000e+00" purity="4.4854238629341125e-01" nType="-1"/>
        </Node>
        <Node pos="r" depth="1" NCoef="0" IVar="-1" Cut="1.2236337661743164e+00" cType="1" res="-9.9000000000000000e+01" rms="0.0000000000000000e+00" purity="2.2948065400123596e-01" nType="-1"/>
      </Node>
    </BinaryTree>
    <BinaryTree type="DecisionTree" boostWeight="8.3810316319490719e-01" itree="3">
      <Node pos="s" depth="0" NCoef="0" IVar="0" Cut="1.2527952194213867e+00" cType="1" res="-9.9000000000000000e+01" rms="0.0000000000000000e+00" purity="4.9392059445381165e-01" nType="0">
        <Node pos="l" depth="1" NCoef="0" IVar="1" Cut="6.4265495538711548e-01" cType="1" res="-9.9000000000000000e+01" rms="0.0000000000000000e+00" purity="5.1385045051574707e-01" nType="0">
          <Node pos="l" depth="2" NCoef="0" IVar="3" Cut="2.4405122756958008e+01" cType="1" res="-9.9000000000000000e+01" rms="0.0000000000000000e+00" purity="5.3542816638946533e-01" nType="0">
            <Node pos="l" depth="3" NCoef="0" IVar="0" Cut="4.1341534256935120e-01" cType="1" res="-9.9000000000000000e+01" rms="0.0000000000000000e+00" purity="5.3735673427581787e-01" nType="0">
              <Node pos="l" depth="4" NCoef="0" IVar="3" Cut="1.1268956184387207e+01" cType="0" res="-9.9000000000000000e+01" rms="0.0000000000000000e+00" purity="5.4906171560287476e-01" nType="0">
                <Node pos="l" depth="5" NCoef="0" IVar="6" Cut="3.8847735595703125e+02" cType="1" res="-9.9000000000000000e+01" rms="0.0000000000000000e+00" purity="5.6664246320724487e-01" nType="0">
                  <Node pos="l" depth="6" NCoef="0" IVar="-1" Cut="1.8659368515014648e+01" cType="1" res="-9.9000000000000000e+01" rms="0.0000000000000000e+00" purity="5.6836652755737305e-01" nType="1"/>
                  <Node pos="r" depth="6" NCoef="0" IVar="-1" Cut="0.0000000000000000e+00" cType="1" res="-9.9000000000000000e+01" rms="0.0000000000000000e+00" purity="2.4512699246406555e-01" nType="-1"/>
                </Node>
                <Node pos="r" depth="5" NCoef="0" IVar="0" Cut="-8.8547813892364502e-01" cType="0" res="-9.9000000000000000e+01" rms="0.0000000000000000e+00" purity="5.2941626310348511e-01" nType="0">
                  <Node pos="l" depth="6" NCoef="0" IVar="-1" Cut="2.3721940517425537e+00" cType="0" res="-9.9000000000000000e+01" rms="0.0000000000000000e+00" purity="5.3106117248535156e-01" nType="1"/>
                  <Node pos="r" depth="6" NCoef="0" IVar="-1" Cut="0.0000000000000000e+00" cType="1" res="-9.9000000000000000e+01" rms="0.0000000000000000e+00" purity="1.5062582492828369e-01" nType="-1"/>
                </Node>
              </Node>
              <Node pos="r" depth="4" NCoef="0" IVar="5" Cut="2.2582328319549561e+00" cType="0" res="-9.9000000000000000e+01" rms="0.0000000000000000e+00" purity="5.0668126344680786e-01" nType="0">
                <Node pos="l" depth="5" NCoef="0" IVar="3" Cut="7.4116382598876953e+00" cType="0" res="-9.9000000000000000e+01" rms="0.0000000000000000e+00" purity="5.0997549295425415e-01" nType="0">
                  <Node pos="l" depth="6" NCoef="0" IVar="-1" Cut="1.7893823623657227e+01" cType="1" res="-9.9000000000000000e+01" rms="0.0000000000000000e+00" purity="5.1505053043365479e-01" nType="1"/>
                  <Node pos="r" depth="6" NCoef="0" IVar="-1" Cut="2.6858849525451660e+00" cType="0" res="-9.9000000000000000e+01" rms="0.0000000000000000e+00" purity="3.7002924084663391e-01" nType="-1"/>
                </Node>
                <Node pos="r" depth="5" NCoef="0" IVar="-1" Cut="5.7554435729980469e-01" cType="1" res="-9.9000000000000000e+01" rms="0.0000000000000000e+00" purity="1.9438239932060242e-01" nType="-1"/>
              </Node>
            </Node>
            <Node pos="r" depth="3" NCoef="0" IVar="-1" Cut="5.7760012149810791e-01" cType="0" res="-9.9000000000000000e+01" rms="0.0000000000000000e+00" purity="1.3201799988746643e-01" nType="-1"/>
          </Node>
          <Node pos="r" depth="2" NCoef="0" IVar="0" Cut="7.9913431406021118e-01" cType="1" res="-9.9000000000000000e+01" rms="0.0000000000000000e+00" purity="4.6417883038520813e-01" nType="0">
            <Node pos="l" depth="3" NCoef="0" IVar="6" Cut="7.1090759277343750e+01" cType="0" res="-9.9000000000000000e+01" rms="0.0000000000000000e+00" purity="4.8474556207656860e-01" nType="0">
              <Node pos="l" depth="4" NCoef="0" IVar="3" Cut="3.2579593658447266e+01" cType="1" res="-9.9000000000000000e+01" rms="0.0000000000000000e+00" purity="4.9831873178482056e-01" nType="0">
                <Node pos="l" depth="5" NCoef="0" IVar="3" Cut="5.0498900413513184e+00" cType="0" res="-9.9000000000000000e+01" rms="0.0000000000000000e+00" purity="5.0063681602478027e-01" nType="0">
                  <Node pos="l" depth="6" NCoef="0" IVar="3" Cut="1.0204127311706543e+01" cType="0" res="-9.9000000000000000e+01" rms="0.0000000000000000e+00" purity="5.0750660896301270e-01" nType="0">
                    <Node pos="l" depth="7" NCoef="0" IVar="3" Cut="1.4376276016235352e+01" cType="1" res="-9.9000000000000000e+01" rms="0.0000000000000000e+00" purity="5.2829629182815552e-01" nType="0">
                      <Node pos="l" depth="8" NCoef="0" IVar="4" Cut="-1.0897783041000366e+00" cType="1" res="-9.9000000000000000e+01" rms="0.0000000000000000e+00" purity="5.4564499855041504e-01" nType="0">
                        <Node pos="l" depth="9" NCoef="0" IVar="6" Cut="1.1365638732910156e+02" cType="0" res="-9.9000000000000000e+01" rms="0.0000000000000000e+00" purity="5.9516078233718872e-01" nType="0">
                          <Node pos="l" depth="10" NCoef="0" IVar="2" Cut="-3.0765972137451172e+00" cType="0" res="-9.9000000000000000e+01" rms="0.0000000000000000e+00" purity="6.1302810907363892e-01" nType="0">
                            <Node pos="l" depth="11" NCoef="0" IVar="-1" Cut="6.2372589111328125e-01" cType="1" res="-9.9000000000000000e+01" rms="0.0000000000000000e+00" purity="6.2764227390289307e-01" nType="1"/>
                            <Node pos="r" depth="11" NCoef="0" IVar="-1" Cut="0.0000000000000000e+00" cType="1" res="-9.9000000000000000e+01" rms="0.0000000000000000e+00" purity="2.8459969162940979e-01" nType="-1"/>
                          </Node>
                          <Node pos="r" depth="10" NCoef="0" IVar="-1" Cut="8.9234336853027344e+01" cType="0" res="-9.9000000000000000e+01" rms="0.0000000000000000e+00" purity="3.3654689788818359e-01" nType="-1"/>
                        </Node>
                        <Node pos="r" depth="9" NCoef="0" IVar="-1" Cut="-2.0850751399993896e+00" cType="1" res="-9.9000000000000000e+01" rms="0.0000000000000000e+00" purity="5.2137440443038940e-01" nType="1"/>
                      </Node>
                      <Node pos="r" depth="8" NCoef="0" IVar="-1" Cut="2.7650666236877441e+00" cType="0" res="-9.9000000000000000e+01" rms="0.0000000000000000e+00" purity="4.8021358251571655e-01" nType="-1"/>
                    </Node>
                    <Node pos="r" depth="7" NCoef="0" IVar="-1" Cut="2.3979790210723877e+00" cType="0" res="-9.9000000000000000e+01" rms="0.0000000000000000e+00" purity="4.7660103440284729e-01" nType="-1"/>
                  </Node>
                  <Node pos="r" depth="6" NCoef="0" IVar="-1" Cut="4.7783670425415039e+00" cType="0" res="-9.9000000000000000e+01" rms="0.0000000000000000e+00" purity="8.3295799791812897e-02" nType="-1"/>
                </Node>
                <Node pos="r" depth="5" NCoef="0" IVar="-1" Cut="-7.2619771957397461e-01" cType="1" res="-9.9000000000000000e+01" rms="0.0000000000000000e+00" purity="1.7001204192638397e-01" nType="-1"/>
              </Node>
              <Node pos="r" depth="4" NCoef="0" IVar="4" Cut="-6.8720293045043945e-01" cType="0" res="-9.9000000000000000e+01" rms="0.0000000000000000e+00" purity="4.1618916392326355e-01" nType="0">
                <Node pos="l" depth="5" NCoef="0" IVar="-1" Cut="7.7473157644271851e-01" cType="1" res="-9.9000000000000000e+01" rms="0.0000000000000000e+00" purity="4.5922183990478516e-01" nType="-1"/>
                <Node pos="r" depth="5" NCoef="0" IVar="6" Cut="1.8306205749511719e+01" cType="1" res="-9.9000000000000000e+01" rms="0.0000000000000000e+00" purity="2.3712483048439026e-01" nType="0">
                  <Node pos="l" depth="6" NCoef="0" IVar="-1" Cut="0.0000000000000000e+00" cType="1" res="-9.9000000000000000e+01" rms="0.0000000000000000e+00" purity="6.3815593719482422e-01" nType="1"/>
                  <Node pos="r" depth="6" NCoef="0" IVar="-1" Cut="-5.0327122211456299e-01" cType="1" res="-9.9000000000000000e+01" rms="0.0000000000000000e+00" purity="2.0102068781852722e-01" nType="-1"/>
                </Node>
              </Node>
            </Node>
            <Node pos="r" depth="3" NCoef="0" IVar="-1" Cut="2.4157531261444092e+00" cType="0" res="-9.9000000000000000e+01" rms="0.0000000000000000e+00" purity="3.7681162357330322e-01" nType="-1"/>
          </Node>
        </Node>
        <Node pos="r" depth="1" NCoef="0" IVar="-1" Cut="1.8046108484268188e+00" cType="1" res="-9.9000000000000000e+01" rms="0.0000000000000000e+00" purity="2.9734930396080017e-01" nType="-1"/>
      </Node>
    </BinaryTree>
    <BinaryTree type="DecisionTree" boostWeight="8.0884643484692853e-01" itree="4">
      <Node pos="s" depth="0" NCoef="0" IVar="1" Cut="1.2236337661743164e+00" cType="1" res="-9.9000000000000000e+01" rms="0.0000000000000000e+00" purity="4.9751538038253784e-01" nType="0">
        <Node pos="l" depth="1" NCoef="0" IVar="0" Cut="7.0473158359527588e-01" cType="1" res="-9.9000000000000000e+01" rms="0.0000000000000000e+00" purity="5.1759982109069824e-01" nType="0">
          <Node pos="l" depth="2" NCoef="0" IVar="-1" Cut="-1.0432439297437668e-01" cType="1" res="-9.9000000000000000e+01" rms="0.0000000000000000e+00" purity="5.3038454055786133e-01" nType="1"/>
          <Node pos="r" depth="2" NCoef="0" IVar="-1" Cut="6.7019253969192505e-01" cType="1" res="-9.9000000000000000e+01" rms="0.0000000000000000e+00" purity="4.5988091826438904e-01" nType="-1"/>
        </Node>
        <Node pos="r" depth="1" NCoef="0" IVar="0" Cut="1.2527952194213867e+00" cType="1" res="-9.9000000000000000e+01" rms="0.0000000000000000e+00" purity="3.8727155327796936e-01" nType="0">
          <Node pos="l" depth="2" NCoef="0" IVar="-1" Cut="4.4604244232177734e+00" cType="1" res="-9.9000000000000000e+01" rms="0.0000000000000000e+00" purity="4.3423044681549072e-01" nType="-1"/>
          <Node pos="r" depth="2" NCoef="0" IVar="1" Cut="2.4825024604797363e+00" cType="1" res="-9.9000000000000000e+01" rms="0.0000000000000000e+00" purity="2.3785667121410370e-01" nType="0">
            <Node pos="l" depth="3" NCoef="0" IVar="1" Cut="1.7031911611557007e+00" cType="1" res="-9.9000000000000000e+01" rms="0.0000000000000000e+00" purity="3.0098193883895874e-01" nType="0">
              <Node pos="l" depth="4" NCoef="0" IVar="0" Cut="1.9287649393081665e+00" cType="1" res="-9.9000000000000000e+01" rms="0.0000000000000000e+00" purity="3.6537346243858337e-01" nType="0">
                <Node pos="l" depth="5" NCoef="0" IVar="0" Cut="1.5749081373214722e+00" cType="0" res="-9.9000000000000000e+01" rms="0.0000000000000000e+00" purity="3.9001706242561340e-01" nType="0">
                  <Node pos="l" depth="6" NCoef="0" IVar="5" Cut="2.8621795177459717e+00" cType="0" res="-9.9000000000000000e+01" rms="0.0000000000000000e+00" purity="4.8441520333290100e-01" nType="0">
                    <Node pos="l" depth="7" NCoef="0" IVar="-1" Cut="1.2924442291259766e+00" cType="1" res="-9.9000000000000000e+01" rms="0.0000000000000000e+00" purity="6.1099511384963989e-01" nType="1"/>
                    <Node pos="r" depth="7" NCoef="0" IVar="-1" Cut="1.3493517875671387e+01" cType="1" res="-9.9000000000000000e+01" rms="0.0000000000000000e+00" purity="3.1183165311813354e-01" nType="-1"/>
                  </Node>
                  <Node pos="r" depth="6" NCoef="0" IVar="-1" Cut="6.2411684989929199e+00" cType="1" res="-9.9000000000000000e+01" rms="0.0000000000000000e+00" purity="2.4908125400543213e-01" nType="-1"/>
                </Node>
                <Node pos="r" depth="5" NCoef="0" IVar="-1" Cut="0.0000000000000000e+00" cType="1" res="-9.9000000000000000e+01" rms="0.0000000000000000e+00" purity="0.0000000000000000e+00" nType="-1"/>
              </Node>
              <Node pos="r" depth="4" NCoef="0" IVar="-1" Cut="1.3595603704452515e+00" cType="1" res="-9.9000000000000000e+01" rms="0.0000000000000000e+00" purity="2.2908994555473328e-01" nType="-1"/>
            </Node>
            <Node pos="r" depth="3" NCoef="0" IVar="-1" Cut="1.6117770385742188e+02" cType="0" res="-9.9000000000000000e+01" rms="0.0000000000000000e+00" purity="1.0235281288623810e-01" nType="-1"/>
          </Node>
        </Node>
      </Node>
    </BinaryTree>
    <BinaryTree type="DecisionTree" boostWeight="7.8494941545393149e-01" itree="5">
      <Node pos="s" depth="0" NCoef="0" IVar="0" Cut="1.0659960508346558e+00" cType="1" res="-9.9000000000000000e+01" rms="0.0000000000000000e+00" purity="4.9756649136543274e-01" nType="0">
        <Node pos="l" depth="1" NCoef="0" IVar="0" Cut="3.5437566041946411e-01" cType="1" res="-9.9000000000000000e+01" rms="0.0000000000000000e+00" purity="5.1176244020462036e-01" nType="0">
          <Node pos="l" depth="2" NCoef="0" IVar="1" Cut="1.2236183881759644e+00" cType="1" res="-9.9000000000000000e+01" rms="0.0000000000000000e+00" purity="5.2919697761535645e-01" nType="0">
            <Node pos="l" depth="3" NCoef="0" IVar="3" Cut="2.5147083282470703e+01" cType="1" res="-9.9000000000000000e+01" rms="0.0000000000000000e+00" purity="5.3505927324295044e-01" nType="0">
              <Node pos="l" depth="4" NCoef="0" IVar="3" Cut="4.5174779891967773e+00" cType="0" res="-9.9000000000000000e+01" rms="0.0000000000000000e+00" purity="5.3617399930953979e-01" nType="0">
                <Node pos="l" depth="5" NCoef="0" IVar="-1" Cut="-2.0680992603302002e+00" cType="1" res="-9.9000000000000000e+01" rms="0.0000000000000000e+00" purity="5.3708899021148682e-01" nType="1"/>
                <Node pos="r" depth="5" NCoef="0" IVar="-1" Cut="6.8566930294036865e-01" cType="0" res="-9.9000000000000000e+01" rms="0.0000000000000000e+00" purity="8.5874319076538086e-02" nType="-1"/>
              </Node>
              <Node pos="r" depth="4" NCoef="0" IVar="-1" Cut="5.7760012149810791e-01" cType="0" res="-9.9000000000000000e+01" rms="0.0000000000000000e+00" purity="2.8720068931579590e-01" nType="-1"/>
            </Node>
            <Node pos="r" depth="3" NCoef="0" IVar="-1" Cut="4.4604454040527344e+00" cType="1" res="-9.9000000000000000e+01" rms="0.0000000000000000e+00" purity="4.7264698147773743e-01" nType="-1"/>
          </Node>
          <Node pos="r" depth="2" NCoef="0" IVar="1" Cut="4.2425584793090820e-01" cType="1" res="-9.9000000000000000e+01" rms="0.0000000000000000e+00" purity="4.7846990823745728e-01" nType="0">
            <Node pos="l" depth="3" NCoef="0" IVar="-1" Cut="3.1086093139648438e+02" cType="0" res="-9.9000000000000000e+01" rms="0.0000000000000000e+00" purity="5.0583970546722412e-01" nType="1"/>
            <Node pos="r" depth="3" NCoef="0" IVar="-1" Cut="2.3744609355926514e+00" cType="0" res="-9.9000000000000000e+01" rms="0.0000000000000000e+00" purity="4.4893842935562134e-01" nType="-1"/>
          </Node>
        </Node>
        <Node pos="r" depth="1" NCoef="0" IVar="1" Cut="9.3314522504806519e-01" cType="1" res="-9.9000000000000000e+01" rms="0.0000000000000000e+00" purity="3.8137075304985046e-01" nType="0">
          <Node pos="l" depth="2" NCoef="0" IVar="-1" Cut="-1.5844315290451050e+00" cType="1" res="-9.9000000000000000e+01" rms="0.0000000000000000e+00" purity="4.5296773314476013e-01" nType="-1"/>
          <Node pos="r" depth="2" NCoef="0" IVar="1" Cut="2.2887651920318604e+00" cType="1" res="-9.9000000000000000e+01" rms="0.0000000000000000e+00" purity="3.0745330452919006e-01" nType="0">
            <Node pos="l" depth="3" NCoef="0" IVar="0" Cut="1.3773856163024902e+00" cType="1" res="-9.9000000000000000e+01" rms="0.0000000000000000e+00" purity="3.5084754228591919e-01" nType="0">
              <Node pos="l" depth="4" NCoef="0" IVar="-1" Cut="2.5889449119567871e+00" cType="0" res="-9.9000000000000000e+01" rms="0.0000000000000000e+00" purity="4.2234808206558228e-01" nType="-1"/>
              <Node pos="r" depth="4" NCoef="0" IVar="4" Cut="-6.2090194225311279e-01" cType="0" res="-9.9000000000000000e+01" rms="0.0000000000000000e+00" purity="2.9750937223434448e-01" nType="0">
                <Node pos="l" depth="5" NCoef="0" IVar="4" Cut="7.8057609498500824e-02" cType="1" res="-9.9000000000000000e+01" rms="0.0000000000000000e+00" purity="3.3060693740844727e-01" nType="0">
                  <Node pos="l" depth="6" NCoef="0" IVar="-1" Cut="2.8149607181549072e+00" cType="0" res="-9.9000000000000000e+01" rms="0.0000000000000000e+00" purity="4.0727591514587402e-01" nType="-1"/>
                  <Node pos="r" depth="6" NCoef="0" IVar="1" Cut="2.2239084243774414e+00" cType="0" res="-9.9000000000000000e+01" rms="0.0000000000000000e+00" purity="2.4973277747631073e-01" nType="0">
                    <Node pos="l" depth="7" NCoef="0" IVar="-1" Cut="0.0000000000000000e+00" cType="1" res="-9.9000000000000000e+01" rms="0.0000000000000000e+00" purity="7.1007758378982544e-01" nType="1"/>
