<?xml version="1.0"?>
<MethodSetup Method="BDT::BDT_0">
  <GeneralInfo>
    <Info name="TMVA Release" value="4.2.0 [262656]"/>
    <Info name="ROOT Release" value="5.34/15 [336399]"/>
    <Info name="Creator" value="epuesche"/>
    <Info name="Date" value="Wed Feb  4 06:28:24 2015"/>
    <Info name="Host" value="Linux cvrsvc03 2.6.32-358.18.1.el6.nersc.x86_64 #1 SMP Wed Aug 28 02:17:42 PDT 2013 x86_64 x86_64 x86_64 GNU/Linux"/>
    <Info name="Dir" value="/global/u1/e/epuesche"/>
    <Info name="Training events" value="88600"/>
    <Info name="TrainingTime" value="6.67198298e+01"/>
    <Info name="AnalysisType" value="Classification"/>
  </GeneralInfo>
  <Options>
    <Option name="V" modified="No">False</Option>
    <Option name="VerbosityLevel" modified="No">Default</Option>
    <Option name="VarTransform" modified="No">None</Option>
    <Option name="H" modified="No">False</Option>
    <Option name="CreateMVAPdfs" modified="No">False</Option>
    <Option name="IgnoreNegWeightsInTraining" modified="No">False</Option>
    <Option name="NTrees" modified="Yes">200</Option>
    <Option name="MaxDepth" modified="Yes">50</Option>
    <Option name="MinNodeSize" modified="No">0.1128673.2</Option>
    <Option name="nCuts" modified="Yes">20</Option>
    <Option name="BoostType" modified="Yes">AdaBoost</Option>
    <Option name="AdaBoostR2Loss" modified="No">quadratic</Option>
    <Option name="UseBaggedBoost" modified="No">False</Option>
    <Option name="Shrinkage" modified="No">1.000000e+00</Option>
    <Option name="AdaBoostBeta" modified="Yes">1.000000e+00</Option>
    <Option name="UseRandomisedTrees" modified="No">False</Option>
    <Option name="UseNvars" modified="No">3</Option>
    <Option name="UsePoissonNvars" modified="No">True</Option>
    <Option name="BaggedSampleFraction" modified="No">6.000000e-01</Option>
    <Option name="UseYesNoLeaf" modified="Yes">True</Option>
    <Option name="NegWeightTreatment" modified="No">inverseboostnegweights</Option>
    <Option name="Css" modified="No">1.000000e+00</Option>
    <Option name="Cts_sb" modified="No">1.000000e+00</Option>
    <Option name="Ctb_ss" modified="No">1.000000e+00</Option>
    <Option name="Cbb" modified="No">1.000000e+00</Option>
    <Option name="NodePurityLimit" modified="No">5.000000e-01</Option>
    <Option name="SeparationType" modified="Yes">giniindex</Option>
    <Option name="DoBoostMonitor" modified="No">False</Option>
    <Option name="UseFisherCuts" modified="No">False</Option>
    <Option name="MinLinCorrForFisher" modified="No">8.000000e-01</Option>
    <Option name="UseExclusiveVars" modified="No">False</Option>
    <Option name="DoPreselection" modified="No">False</Option>
    <Option name="SigToBkgFraction" modified="No">1.000000e+00</Option>
    <Option name="PruneMethod" modified="Yes">costcomplexity</Option>
    <Option name="PruneStrength" modified="Yes">-1.000000e+00</Option>
    <Option name="PruningValFraction" modified="No">5.000000e-01</Option>
    <Option name="nEventsMin" modified="Yes">100</Option>
    <Option name="UseBaggedGrad" modified="No">False</Option>
    <Option name="GradBaggingFraction" modified="No">6.000000e-01</Option>
    <Option name="UseNTrainEvents" modified="No">0</Option>
    <Option name="NNodesMax" modified="No">0</Option>
  </Options>
  <Variables NVar="7">
    <Variable VarIndex="0" Expression="MSCW" Label="MSCW" Title="MSCW" Unit="" Internal="MSCW" Type="F" Min="-1.95383477e+00" Max="1.99998856e+00"/>
    <Variable VarIndex="1" Expression="MSCL" Label="MSCL" Title="MSCL" Unit="" Internal="MSCL" Type="F" Min="-1.88284314e+00" Max="4.99906158e+00"/>
    <Variable VarIndex="2" Expression="log10(EChi2S)" Label="log10(EChi2S)" Title="log10(EChi2S)" Unit="" Internal="log10_EChi2S_" Type="F" Min="-5.23881817e+00" Max="2.15551066e+00"/>
    <Variable VarIndex="3" Expression="EmissionHeight" Label="EmissionHeight" Title="EmissionHeight" Unit="" Internal="EmissionHeight" Type="F" Min="2.16501340e-01" Max="1.21539246e+03"/>
    <Variable VarIndex="4" Expression="log10(EmissionHeightChi2)" Label="log10(EmissionHeightChi2)" Title="log10(EmissionHeightChi2)" Unit="" Internal="log10_EmissionHeightChi2_" Type="F" Min="-1.00000000e+01" Max="3.07278442e+00"/>
    <Variable VarIndex="5" Expression="log10(SizeSecondMax)" Label="log10(SizeSecondMax)" Title="log10(SizeSecondMax)" Unit="" Internal="log10_SizeSecondMax_" Type="F" Min="2.00082588e+00" Max="5.00962257e+00"/>
    <Variable VarIndex="6" Expression="sqrt(Xcore*Xcore+Ycore*Ycore)" Label="sqrt(Xcore*Xcore+Ycore*Ycore)" Title="sqrt(Xcore*Xcore+Ycore*Ycore)" Unit="" Internal="sqrt_Xcore_T_Xcore_P_Ycore_T_Ycore_" Type="F" Min="2.46670023e-01" Max="1.32797168e+03"/>
  </Variables>
  <Spectators NSpec="4">
    <Spectator SpecIndex="0" Expression="NImages" Label="NImages" Title="NImages" Unit="" Internal="NImages" Type="F" Min="2.00000000e+00" Max="4.00000000e+00"/>
    <Spectator SpecIndex="1" Expression="Xoff" Label="Xoff" Title="Xoff" Unit="" Internal="Xoff" Type="F" Min="-7.73193836e-01" Max="7.74323285e-01"/>
    <Spectator SpecIndex="2" Expression="Yoff" Label="Yoff" Title="Yoff" Unit="" Internal="Yoff" Type="F" Min="-7.73717761e-01" Max="7.74433136e-01"/>
    <Spectator SpecIndex="3" Expression="ErecS" Label="ErecS" Title="ErecS" Unit="" Internal="ErecS" Type="F" Min="1.00000858e+00" Max="5.00551262e+01"/>
  </Spectators>
  <Classes NClass="2">
    <Class Name="Signal" Index="0"/>
    <Class Name="Background" Index="1"/>
  </Classes>
  <Transformations NTransformations="0"/>
  <MVAPdfs/>
  <Weights NTrees="200" AnalysisType="0">
    <BinaryTree type="DecisionTree" boostWeight="2.6023067023436028e+00" itree="0">
      <Node pos="s" depth="0" NCoef="0" IVar="5" Cut="2.8310532569885254e+00" cType="0" res="-9.9000000000000000e+01" rms="0.0000000000000000e+00" purity="5.0000000000000000e-01" nType="0">
        <Node pos="l" depth="1" NCoef="0" IVar="0" Cut="7.1958571672439575e-01" cType="1" res="-9.9000000000000000e+01" rms="0.0000000000000000e+00" purity="7.5848942995071411e-01" nType="0">
          <Node pos="l" depth="2" NCoef="0" IVar="1" Cut="1.0644971132278442e+00" cType="1" res="-9.9000000000000000e+01" rms="0.0000000000000000e+00" purity="9.0938669443130493e-01" nType="0">
            <Node pos="l" depth="3" NCoef="0" IVar="5" Cut="3.1275990009307861e+00" cType="0" res="-9.9000000000000000e+01" rms="0.0000000000000000e+00" purity="9.3500214815139771e-01" nType="0">
              <Node pos="l" depth="4" NCoef="0" IVar="-1" Cut="3.3818504810333252e+00" cType="0" res="-9.9000000000000000e+01" rms="0.0000000000000000e+00" purity="9.6738922595977783e-01" nType="1"/>
              <Node pos="r" depth="4" NCoef="0" IVar="1" Cut="5.1439088582992554e-01" cType="1" res="-9.9000000000000000e+01" rms="0.0000000000000000e+00" purity="8.8904339075088501e-01" nType="0">
                <Node pos="l" depth="5" NCoef="0" IVar="0" Cut="3.8795548677444458e-01" cType="1" res="-9.9000000000000000e+01" rms="0.0000000000000000e+00" purity="9.1806232929229736e-01" nType="0">
                  <Node pos="l" depth="6" NCoef="0" IVar="3" Cut="1.2234167098999023e+01" cType="0" res="-9.9000000000000000e+01" rms="0.0000000000000000e+00" purity="9.3324595689773560e-01" nType="0">
                    <Node pos="l" depth="7" NCoef="0" IVar="4" Cut="3.0826058983802795e-01" cType="1" res="-9.9000000000000000e+01" rms="0.0000000000000000e+00" purity="9.4137585163116455e-01" nType="0">
                      <Node pos="l" depth="8" NCoef="0" IVar="-1" Cut="3.2649591565132141e-01" cType="1" res="-9.9000000000000000e+01" rms="0.0000000000000000e+00" purity="9.7486847639083862e-01" nType="1"/>
                      <Node pos="r" depth="8" NCoef="0" IVar="6" Cut="5.6714469909667969e+01" cType="0" res="-9.9000000000000000e+01" rms="0.0000000000000000e+00" purity="9.1335302591323853e-01" nType="0">
                        <Node pos="l" depth="9" NCoef="0" IVar="3" Cut="1.7566991806030273e+01" cType="0" res="-9.9000000000000000e+01" rms="0.0000000000000000e+00" purity="9.1891539096832275e-01" nType="0">
                          <Node pos="l" depth="10" NCoef="0" IVar="-1" Cut="5.5372428894042969e-01" cType="1" res="-9.9000000000000000e+01" rms="0.0000000000000000e+00" purity="9.4507783651351929e-01" nType="1"/>
                          <Node pos="r" depth="10" NCoef="0" IVar="3" Cut="1.3780267715454102e+01" cType="0" res="-9.9000000000000000e+01" rms="0.0000000000000000e+00" purity="8.9310067892074585e-01" nType="0">
                            <Node pos="l" depth="11" NCoef="0" IVar="-1" Cut="4.1369944810867310e-01" cType="1" res="-9.9000000000000000e+01" rms="0.0000000000000000e+00" purity="9.1747856140136719e-01" nType="1"/>
                            <Node pos="r" depth="11" NCoef="0" IVar="6" Cut="2.1069886779785156e+02" cType="0" res="-9.9000000000000000e+01" rms="0.0000000000000000e+00" purity="6.5079647302627563e-01" nType="0">
                              <Node pos="l" depth="12" NCoef="0" IVar="-1" Cut="0.0000000000000000e+00" cType="1" res="-9.9000000000000000e+01" rms="0.0000000000000000e+00" purity="7.9439795017242432e-01" nType="1"/>
                              <Node pos="r" depth="12" NCoef="0" IVar="-1" Cut="0.0000000000000000e+00" cType="1" res="-9.9000000000000000e+01" rms="0.0000000000000000e+00" purity="4.7315490245819092e-01" nType="-1"/>
                            </Node>
                          </Node>
                        </Node>
                        <Node pos="r" depth="9" NCoef="0" IVar="-1" Cut="0.0000000000000000e+00" cType="1" res="-9.9000000000000000e+01" rms="0.0000000000000000e+00" purity="7.3204398155212402e-01" nType="1"/>
                      </Node>
                    </Node>
                    <Node pos="r" depth="7" NCoef="0" IVar="-1" Cut="9.9978399276733398e+00" cType="0" res="-9.9000000000000000e+01" rms="0.0000000000000000e+00" purity="8.3782023191452026e-01" nType="1"/>
                  </Node>
                  <Node pos="r" depth="6" NCoef="0" IVar="1" Cut="2.8668007254600525e-01" cType="1" res="-9.9000000000000000e+01" rms="0.0000000000000000e+00" purity="8.0866456031799316e-01" nType="0">
                    <Node pos="l" depth="7" NCoef="0" IVar="-1" Cut="1.9118270277976990e-01" cType="1" res="-9.9000000000000000e+01" rms="0.0000000000000000e+00" purity="8.5325008630752563e-01" nType="1"/>
                    <Node pos="r" depth="7" NCoef="0" IVar="6" Cut="2.4432060241699219e+02" cType="0" res="-9.9000000000000000e+01" rms="0.0000000000000000e+00" purity="6.0335183143615723e-01" nType="0">
                      <Node pos="l" depth="8" NCoef="0" IVar="-1" Cut="0.0000000000000000e+00" cType="1" res="-9.9000000000000000e+01" rms="0.0000000000000000e+00" purity="7.2873431444168091e-01" nType="1"/>
                      <Node pos="r" depth="8" NCoef="0" IVar="-1" Cut="0.0000000000000000e+00" cType="1" res="-9.9000000000000000e+01" rms="0.0000000000000000e+00" purity="4.1859930753707886e-01" nType="-1"/>
                    </Node>
                  </Node>
                </Node>
                <Node pos="r" depth="5" NCoef="0" IVar="6" Cut="1.6432324218750000e+02" cType="0" res="-9.9000000000000000e+01" rms="0.0000000000000000e+00" purity="7.4223774671554565e-01" nType="0">
                  <Node pos="l" depth="6" NCoef="0" IVar="0" Cut="4.1580995917320251e-01" cType="1" res="-9.9000000000000000e+01" rms="0.0000000000000000e+00" purity="8.3155244588851929e-01" nType="0">
                    <Node pos="l" depth="7" NCoef="0" IVar="-1" Cut="-8.4128516912460327e-01" cType="1" res="-9.9000000000000000e+01" rms="0.0000000000000000e+00" purity="8.7773525714874268e-01" nType="1"/>
                    <Node pos="r" depth="7" NCoef="0" IVar="2" Cut="-1.4493625164031982e+00" cType="1" res="-9.9000000000000000e+01" rms="0.0000000000000000e+00" purity="6.3411909341812134e-01" nType="0">
                      <Node pos="l" depth="8" NCoef="0" IVar="-1" Cut="0.0000000000000000e+00" cType="1" res="-9.9000000000000000e+01" rms="0.0000000000000000e+00" purity="7.9814887046813965e-01" nType="1"/>
                      <Node pos="r" depth="8" NCoef="0" IVar="-1" Cut="0.0000000000000000e+00" cType="1" res="-9.9000000000000000e+01" rms="0.0000000000000000e+00" purity="4.3631935119628906e-01" nType="-1"/>
                    </Node>
                  </Node>
                  <Node pos="r" depth="6" NCoef="0" IVar="2" Cut="-1.2036217451095581e+00" cType="1" res="-9.9000000000000000e+01" rms="0.0000000000000000e+00" purity="4.9586957693099976e-01" nType="0">
                    <Node pos="l" depth="7" NCoef="0" IVar="-1" Cut="2.9718456268310547e+00" cType="0" res="-9.9000000000000000e+01" rms="0.0000000000000000e+00" purity="6.8280416727066040e-01" nType="1"/>
                    <Node pos="r" depth="7" NCoef="0" IVar="-1" Cut="2.4396535754203796e-01" cType="1" res="-9.9000000000000000e+01" rms="0.0000000000000000e+00" purity="3.4292793273925781e-01" nType="-1"/>
                  </Node>
                </Node>
              </Node>
            </Node>
            <Node pos="r" depth="3" NCoef="0" IVar="5" Cut="3.1790988445281982e+00" cType="0" res="-9.9000000000000000e+01" rms="0.0000000000000000e+00" purity="5.6245517730712891e-01" nType="0">
              <Node pos="l" depth="4" NCoef="0" IVar="0" Cut="4.1516098380088806e-01" cType="1" res="-9.9000000000000000e+01" rms="0.0000000000000000e+00" purity="8.2761335372924805e-01" nType="0">
                <Node pos="l" depth="5" NCoef="0" IVar="-1" Cut="3.3905127048492432e+00" cType="0" res="-9.9000000000000000e+01" rms="0.0000000000000000e+00" purity="8.9560282230377197e-01" nType="1"/>
                <Node pos="r" depth="5" NCoef="0" IVar="2" Cut="-1.1758673191070557e+00" cType="1" res="-9.9000000000000000e+01" rms="0.0000000000000000e+00" purity="5.7884967327117920e-01" nType="0">
                  <Node pos="l" depth="6" NCoef="0" IVar="-1" Cut="0.0000000000000000e+00" cType="1" res="-9.9000000000000000e+01" rms="0.0000000000000000e+00" purity="8.0419188737869263e-01" nType="1"/>
                  <Node pos="r" depth="6" NCoef="0" IVar="-1" Cut="0.0000000000000000e+00" cType="1" res="-9.9000000000000000e+01" rms="0.0000000000000000e+00" purity="3.5333305597305298e-01" nType="-1"/>
                </Node>
              </Node>
              <Node pos="r" depth="4" NCoef="0" IVar="6" Cut="1.3855943298339844e+02" cType="0" res="-9.9000000000000000e+01" rms="0.0000000000000000e+00" purity="4.1640758514404297e-01" nType="0">
                <Node pos="l" depth="5" NCoef="0" IVar="0" Cut="2.7550607919692993e-01" cType="1" res="-9.9000000000000000e+01" rms="0.0000000000000000e+00" purity="5.7886815071105957e-01" nType="0">
                  <Node pos="l" depth="6" NCoef="0" IVar="-1" Cut="1.7064092159271240e+00" cType="1" res="-9.9000000000000000e+01" rms="0.0000000000000000e+00" purity="7.3510122299194336e-01" nType="1"/>
                  <Node pos="r" depth="6" NCoef="0" IVar="1" Cut="1.5795202255249023e+00" cType="1" res="-9.9000000000000000e+01" rms="0.0000000000000000e+00" purity="4.0441313385963440e-01" nType="0">
                    <Node pos="l" depth="7" NCoef="0" IVar="2" Cut="-1.1909317970275879e+00" cType="1" res="-9.9000000000000000e+01" rms="0.0000000000000000e+00" purity="5.5767512321472168e-01" nType="0">
                      <Node pos="l" depth="8" NCoef="0" IVar="-1" Cut="0.0000000000000000e+00" cType="1" res="-9.9000000000000000e+01" rms="0.0000000000000000e+00" purity="6.7570072412490845e-01" nType="1"/>
                      <Node pos="r" depth="8" NCoef="0" IVar="-1" Cut="0.0000000000000000e+00" cType="1" res="-9.9000000000000000e+01" rms="0.0000000000000000e+00" purity="3.8929668068885803e-01" nType="-1"/>
                    </Node>
                    <Node pos="r" depth="7" NCoef="0" IVar="-1" Cut="2.9613604545593262e+00" cType="0" res="-9.9000000000000000e+01" rms="0.0000000000000000e+00" purity="2.3560294508934021e-01" nType="-1"/>
                  </Node>
                </Node>
                <Node pos="r" depth="5" NCoef="0" IVar="-1" Cut="2.9625427722930908e+00" cType="0" res="-9.9000000000000000e+01" rms="0.0000000000000000e+00" purity="1.5891180932521820e-01" nType="-1"/>
              </Node>
            </Node>
          </Node>
          <Node pos="r" depth="2" NCoef="0" IVar="1" Cut="2.4390438199043274e-01" cType="1" res="-9.9000000000000000e+01" rms="0.0000000000000000e+00" purity="1.6185694932937622e-01" nType="0">
            <Node pos="l" depth="3" NCoef="0" IVar="0" Cut="1.0807893276214600e+00" cType="1" res="-9.9000000000000000e+01" rms="0.0000000000000000e+00" purity="6.2022668123245239e-01" nType="0">
              <Node pos="l" depth="4" NCoef="0" IVar="5" Cut="3.0079836845397949e+00" cType="0" res="-9.9000000000000000e+01" rms="0.0000000000000000e+00" purity="7.6611554622650146e-01" nType="0">
                <Node pos="l" depth="5" NCoef="0" IVar="-1" Cut="3.5688846111297607e+00" cType="0" res="-9.9000000000000000e+01" rms="0.0000000000000000e+00" purity="8.2943540811538696e-01" nType="1"/>
                <Node pos="r" depth="5" NCoef="0" IVar="2" Cut="-1.4801534414291382e+00" cType="1" res="-9.9000000000000000e+01" rms="0.0000000000000000e+00" purity="5.7184869050979614e-01" nType="0">
                  <Node pos="l" depth="6" NCoef="0" IVar="-1" Cut="0.0000000000000000e+00" cType="1" res="-9.9000000000000000e+01" rms="0.0000000000000000e+00" purity="6.6704779863357544e-01" nType="1"/>
                  <Node pos="r" depth="6" NCoef="0" IVar="-1" Cut="0.0000000000000000e+00" cType="1" res="-9.9000000000000000e+01" rms="0.0000000000000000e+00" purity="4.7101566195487976e-01" nType="-1"/>
                </Node>
              </Node>
              <Node pos="r" depth="4" NCoef="0" IVar="5" Cut="3.3276174068450928e+00" cType="0" res="-9.9000000000000000e+01" rms="0.0000000000000000e+00" purity="3.6987766623497009e-01" nType="0">
                <Node pos="l" depth="5" NCoef="0" IVar="-1" Cut="0.0000000000000000e+00" cType="1" res="-9.9000000000000000e+01" rms="0.0000000000000000e+00" purity="5.8066469430923462e-01" nType="1"/>
                <Node pos="r" depth="5" NCoef="0" IVar="-1" Cut="1.4671010017395020e+01" cType="0" res="-9.9000000000000000e+01" rms="0.0000000000000000e+00" purity="2.6819372177124023e-01" nType="-1"/>
              </Node>
            </Node>
            <Node pos="r" depth="3" NCoef="0" IVar="5" Cut="3.4582462310791016e+00" cType="0" res="-9.9000000000000000e+01" rms="0.0000000000000000e+00" purity="8.8865578174591064e-02" nType="0">
              <Node pos="l" depth="4" NCoef="0" IVar="0" Cut="1.2069205045700073e+00" cType="1" res="-9.9000000000000000e+01" rms="0.0000000000000000e+00" purity="4.5598107576370239e-01" nType="0">
                <Node pos="l" depth="5" NCoef="0" IVar="-1" Cut="-1.2671061754226685e+00" cType="1" res="-9.9000000000000000e+01" rms="0.0000000000000000e+00" purity="7.6099592447280884e-01" nType="1"/>
                <Node pos="r" depth="5" NCoef="0" IVar="-1" Cut="9.0843802690505981e-01" cType="1" res="-9.9000000000000000e+01" rms="0.0000000000000000e+00" purity="2.2251889109611511e-01" nType="-1"/>
              </Node>
              <Node pos="r" depth="4" NCoef="0" IVar="0" Cut="9.0298163890838623e-01" cType="1" res="-9.9000000000000000e+01" rms="0.0000000000000000e+00" purity="6.3937738537788391e-02" nType="0">
                <Node pos="l" depth="5" NCoef="0" IVar="2" Cut="-1.3847913742065430e+00" cType="1" res="-9.9000000000000000e+01" rms="0.0000000000000000e+00" purity="2.5084415078163147e-01" nType="0">
                  <Node pos="l" depth="6" NCoef="0" IVar="1" Cut="9.6031481027603149e-01" cType="1" res="-9.9000000000000000e+01" rms="0.0000000000000000e+00" purity="5.1036250591278076e-01" nType="0">
                    <Node pos="l" depth="7" NCoef="0" IVar="-1" Cut="0.0000000000000000e+00" cType="1" res="-9.9000000000000000e+01" rms="0.0000000000000000e+00" purity="6.2666410207748413e-01" nType="1"/>
                    <Node pos="r" depth="7" NCoef="0" IVar="-1" Cut="0.0000000000000000e+00" cType="1" res="-9.9000000000000000e+01" rms="0.0000000000000000e+00" purity="2.8881376981735229e-01" nType="-1"/>
                  </Node>
                  <Node pos="r" depth="6" NCoef="0" IVar="-1" Cut="3.1298067569732666e+00" cType="0" res="-9.9000000000000000e+01" rms="0.0000000000000000e+00" purity="1.3129310309886932e-01" nType="-1"/>
                </Node>
                <Node pos="r" depth="5" NCoef="0" IVar="-1" Cut="9.2334657907485962e-01" cType="1" res="-9.9000000000000000e+01" rms="0.0000000000000000e+00" purity="3.8348928093910217e-02" nType="-1"/>
              </Node>
            </Node>
          </Node>
        </Node>
        <Node pos="r" depth="1" NCoef="0" IVar="6" Cut="1.7250234985351562e+02" cType="0" res="-9.9000000000000000e+01" rms="0.0000000000000000e+00" purity="1.8352584540843964e-01" nType="0">
          <Node pos="l" depth="2" NCoef="0" IVar="1" Cut="8.2677906751632690e-01" cType="1" res="-9.9000000000000000e+01" rms="0.0000000000000000e+00" purity="4.9739667773246765e-01" nType="0">
            <Node pos="l" depth="3" NCoef="0" IVar="0" Cut="6.3171017169952393e-01" cType="1" res="-9.9000000000000000e+01" rms="0.0000000000000000e+00" purity="6.6873347759246826e-01" nType="0">
              <Node pos="l" depth="4" NCoef="0" IVar="5" Cut="2.5174727439880371e+00" cType="0" res="-9.9000000000000000e+01" rms="0.0000000000000000e+00" purity="7.5504994392395020e-01" nType="0">
                <Node pos="l" depth="5" NCoef="0" IVar="0" Cut="3.0209958553314209e-01" cType="1" res="-9.9000000000000000e+01" rms="0.0000000000000000e+00" purity="8.2978028059005737e-01" nType="0">
                  <Node pos="l" depth="6" NCoef="0" IVar="-1" Cut="6.7375469207763672e-01" cType="1" res="-9.9000000000000000e+01" rms="0.0000000000000000e+00" purity="8.6459362506866455e-01" nType="1"/>
                  <Node pos="r" depth="6" NCoef="0" IVar="1" Cut="5.0267869234085083e-01" cType="1" res="-9.9000000000000000e+01" rms="0.0000000000000000e+00" purity="6.8593668937683105e-01" nType="0">
                    <Node pos="l" depth="7" NCoef="0" IVar="-1" Cut="4.2202642560005188e-01" cType="1" res="-9.9000000000000000e+01" rms="0.0000000000000000e+00" purity="7.3705828189849854e-01" nType="1"/>
                    <Node pos="r" depth="7" NCoef="0" IVar="5" Cut="2.6961987018585205e+00" cType="0" res="-9.9000000000000000e+01" rms="0.0000000000000000e+00" purity="5.0812107324600220e-01" nType="0">
                      <Node pos="l" depth="8" NCoef="0" IVar="-1" Cut="0.0000000000000000e+00" cType="1" res="-9.9000000000000000e+01" rms="0.0000000000000000e+00" purity="6.2897187471389771e-01" nType="1"/>
                      <Node pos="r" depth="8" NCoef="0" IVar="-1" Cut="0.0000000000000000e+00" cType="1" res="-9.9000000000000000e+01" rms="0.0000000000000000e+00" purity="3.6706516146659851e-01" nType="-1"/>
                    </Node>
                  </Node>
                </Node>
                <Node pos="r" depth="5" NCoef="0" IVar="5" Cut="2.3476924896240234e+00" cType="0" res="-9.9000000000000000e+01" rms="0.0000000000000000e+00" purity="4.1619825363159180e-01" nType="0">
                  <Node pos="l" depth="6" NCoef="0" IVar="6" Cut="3.0432226562500000e+02" cType="0" res="-9.9000000000000000e+01" rms="0.0000000000000000e+00" purity="5.3458833694458008e-01" nType="0">
                    <Node pos="l" depth="7" NCoef="0" IVar="1" Cut="1.8107464537024498e-02" cType="1" res="-9.9000000000000000e+01" rms="0.0000000000000000e+00" purity="6.3625150918960571e-01" nType="0">
                      <Node pos="l" depth="8" NCoef="0" IVar="-1" Cut="1.8302549362182617e+01" cType="1" res="-9.9000000000000000e+01" rms="0.0000000000000000e+00" purity="7.7502453327178955e-01" nType="1"/>
                      <Node pos="r" depth="8" NCoef="0" IVar="4" Cut="-1.1104563623666763e-01" cType="1" res="-9.9000000000000000e+01" rms="0.0000000000000000e+00" purity="4.9185732007026672e-01" nType="0">
                        <Node pos="l" depth="9" NCoef="0" IVar="-1" Cut="0.0000000000000000e+00" cType="1" res="-9.9000000000000000e+01" rms="0.0000000000000000e+00" purity="6.3895004987716675e-01" nType="1"/>
                        <Node pos="r" depth="9" NCoef="0" IVar="-1" Cut="0.0000000000000000e+00" cType="1" res="-9.9000000000000000e+01" rms="0.0000000000000000e+00" purity="3.5909038782119751e-01" nType="-1"/>
                      </Node>
                    </Node>
                    <Node pos="r" depth="7" NCoef="0" IVar="-1" Cut="2.4629752635955811e+00" cType="0" res="-9.9000000000000000e+01" rms="0.0000000000000000e+00" purity="2.4635013937950134e-01" nType="-1"/>
                  </Node>
                  <Node pos="r" depth="6" NCoef="0" IVar="-1" Cut="4.5690545654296875e+02" cType="0" res="-9.9000000000000000e+01" rms="0.0000000000000000e+00" purity="9.1050975024700165e-02" nType="-1"/>
                </Node>
              </Node>
              <Node pos="r" depth="4" NCoef="0" IVar="1" Cut="2.4285638332366943e-01" cType="1" res="-9.9000000000000000e+01" rms="0.0000000000000000e+00" purity="2.2077864408493042e-01" nType="0">
                <Node pos="l" depth="5" NCoef="0" IVar="0" Cut="1.1341656446456909e+00" cType="1" res="-9.9000000000000000e+01" rms="0.0000000000000000e+00" purity="3.6491364240646362e-01" nType="0">
                  <Node pos="l" depth="6" NCoef="0" IVar="5" Cut="2.4454002380371094e+00" cType="0" res="-9.9000000000000000e+01" rms="0.0000000000000000e+00" purity="4.7619885206222534e-01" nType="0">
                    <Node pos="l" depth="7" NCoef="0" IVar="6" Cut="3.8338500976562500e+02" cType="1" res="-9.9000000000000000e+01" rms="0.0000000000000000e+00" purity="5.9105801582336426e-01" nType="0">
                      <Node pos="l" depth="8" NCoef="0" IVar="-1" Cut="0.0000000000000000e+00" cType="1" res="-9.9000000000000000e+01" rms="0.0000000000000000e+00" purity="6.7428994178771973e-01" nType="1"/>
                      <Node pos="r" depth="8" NCoef="0" IVar="-1" Cut="0.0000000000000000e+00" cType="1" res="-9.9000000000000000e+01" rms="0.0000000000000000e+00" purity="4.9409970641136169e-01" nType="-1"/>
                    </Node>
                    <Node pos="r" depth="7" NCoef="0" IVar="-1" Cut="0.0000000000000000e+00" cType="1" res="-9.9000000000000000e+01" rms="0.0000000000000000e+00" purity="1.2518776953220367e-01" nType="-1"/>
                  </Node>
                  <Node pos="r" depth="6" NCoef="0" IVar="-1" Cut="0.0000000000000000e+00" cType="1" res="-9.9000000000000000e+01" rms="0.0000000000000000e+00" purity="6.0338154435157776e-02" nType="-1"/>
                </Node>
                <Node pos="r" depth="5" NCoef="0" IVar="-1" Cut="1.2190966606140137e+00" cType="1" res="-9.9000000000000000e+01" rms="0.0000000000000000e+00" purity="1.0703408718109131e-01" nType="-1"/>
              </Node>
            </Node>
            <Node pos="r" depth="3" NCoef="0" IVar="0" Cut="2.3161387443542480e-01" cType="1" res="-9.9000000000000000e+01" rms="0.0000000000000000e+00" purity="1.3942800462245941e-01" nType="0">
              <Node pos="l" depth="4" NCoef="0" IVar="5" Cut="2.5809214115142822e+00" cType="0" res="-9.9000000000000000e+01" rms="0.0000000000000000e+00" purity="3.5613098740577698e-01" nType="0">
                <Node pos="l" depth="5" NCoef="0" IVar="1" Cut="1.3670965433120728e+00" cType="1" res="-9.9000000000000000e+01" rms="0.0000000000000000e+00" purity="5.5225348472595215e-01" nType="0">
                  <Node pos="l" depth="6" NCoef="0" IVar="-1" Cut="5.3373223543167114e-01" cType="1" res="-9.9000000000000000e+01" rms="0.0000000000000000e+00" purity="7.1003079414367676e-01" nType="1"/>
                  <Node pos="r" depth="6" NCoef="0" IVar="-1" Cut="-3.1103923916816711e-02" cType="1" res="-9.9000000000000000e+01" rms="0.0000000000000000e+00" purity="2.4355918169021606e-01" nType="-1"/>
                </Node>
                <Node pos="r" depth="5" NCoef="0" IVar="-1" Cut="4.1268716430664062e+02" cType="0" res="-9.9000000000000000e+01" rms="0.0000000000000000e+00" purity="1.2785074114799500e-01" nType="-1"/>
              </Node>
              <Node pos="r" depth="4" NCoef="0" IVar="-1" Cut="4.8478406667709351e-01" cType="1" res="-9.9000000000000000e+01" rms="0.0000000000000000e+00" purity="4.9639597535133362e-02" nType="-1"/>
            </Node>
          </Node>
          <Node pos="r" depth="2" NCoef="0" IVar="5" Cut="2.7519679069519043e+00" cType="0" res="-9.9000000000000000e+01" rms="0.0000000000000000e+00" purity="3.3843837678432465e-02" nType="0">
            <Node pos="l" depth="3" NCoef="0" IVar="1" Cut="3.3833530545234680e-01" cType="1" res="-9.9000000000000000e+01" rms="0.0000000000000000e+00" purity="2.0850579440593719e-01" nType="0">
              <Node pos="l" depth="4" NCoef="0" IVar="1" Cut="7.8571557998657227e-02" cType="1" res="-9.9000000000000000e+01" rms="0.0000000000000000e+00" purity="7.5541913509368896e-01" nType="0">
                <Node pos="l" depth="5" NCoef="0" IVar="-1" Cut="-1.2521476745605469e+00" cType="1" res="-9.9000000000000000e+01" rms="0.0000000000000000e+00" purity="8.6495465040206909e-01" nType="1"/>
                <Node pos="r" depth="5" NCoef="0" IVar="-1" Cut="0.0000000000000000e+00" cType="1" res="-9.9000000000000000e+01" rms="0.0000000000000000e+00" purity="4.8527702689170837e-01" nType="-1"/>
              </Node>
              <Node pos="r" depth="4" NCoef="0" IVar="-1" Cut="5.7127398252487183e-01" cType="1" res="-9.9000000000000000e+01" rms="0.0000000000000000e+00" purity="4.7287527471780777e-02" nType="-1"/>
            </Node>
            <Node pos="r" depth="3" NCoef="0" IVar="5" Cut="2.6803267002105713e+00" cType="0" res="-9.9000000000000000e+01" rms="0.0000000000000000e+00" purity="1.1865275911986828e-02" nType="0">
              <Node pos="l" depth="4" NCoef="0" IVar="1" Cut="2.1728262305259705e-01" cType="1" res="-9.9000000000000000e+01" rms="0.0000000000000000e+00" purity="6.7499205470085144e-02" nType="0">
                <Node pos="l" depth="5" NCoef="0" IVar="1" Cut="-8.5271494463086128e-03" cType="1" res="-9.9000000000000000e+01" rms="0.0000000000000000e+00" purity="4.4870021939277649e-01" nType="0">
                  <Node pos="l" depth="6" NCoef="0" IVar="-1" Cut="0.0000000000000000e+00" cType="1" res="-9.9000000000000000e+01" rms="0.0000000000000000e+00" purity="6.9679111242294312e-01" nType="1"/>
                  <Node pos="r" depth="6" NCoef="0" IVar="-1" Cut="0.0000000000000000e+00" cType="1" res="-9.9000000000000000e+01" rms="0.0000000000000000e+00" purity="2.1695798635482788e-01" nType="-1"/>
                </Node>
                <Node pos="r" depth="5" NCoef="0" IVar="-1" Cut="1.3966653442382812e+02" cType="0" res="-9.9000000000000000e+01" rms="0.0000000000000000e+00" purity="3.2490596175193787e-02" nType="-1"/>
              </Node>
              <Node pos="r" depth="4" NCoef="0" IVar="-1" Cut="1.1488995361328125e+02" cType="0" res="-9.9000000000000000e+01" rms="0.0000000000000000e+00" purity="4.6270503662526608e-03" nType="-1"/>
            </Node>
          </Node>
        </Node>
      </Node>
    </BinaryTree>
    <BinaryTree type="DecisionTree" boostWeight="1.4454200142958340e+00" itree="1">
      <Node pos="s" depth="0" NCoef="0" IVar="5" Cut="2.6926820278167725e+00" cType="0" res="-9.9000000000000000e+01" rms="0.0000000000000000e+00" purity="4.3483686447143555e-01" nType="0">
        <Node pos="l" depth="1" NCoef="0" IVar="4" Cut="5.5260545015335083e-01" cType="1" res="-9.9000000000000000e+01" rms="0.0000000000000000e+00" purity="5.1613438129425049e-01" nType="0">
          <Node pos="l" depth="2" NCoef="0" IVar="3" Cut="1.1979780197143555e+01" cType="0" res="-9.9000000000000000e+01" rms="0.0000000000000000e+00" purity="5.7114934921264648e-01" nType="0">
            <Node pos="l" depth="3" NCoef="0" IVar="5" Cut="3.4307024478912354e+00" cType="0" res="-9.9000000000000000e+01" rms="0.0000000000000000e+00" purity="6.2660068273544312e-01" nType="0">
              <Node pos="l" depth="4" NCoef="0" IVar="0" Cut="8.7865644693374634e-01" cType="1" res="-9.9000000000000000e+01" rms="0.0000000000000000e+00" purity="8.3226120471954346e-01" nType="0">
                <Node pos="l" depth="5" NCoef="0" IVar="-1" Cut="3.7120647430419922e+00" cType="0" res="-9.9000000000000000e+01" rms="0.0000000000000000e+00" purity="8.9129382371902466e-01" nType="1"/>
                <Node pos="r" depth="5" NCoef="0" IVar="-1" Cut="2.8938716650009155e-01" cType="0" res="-9.9000000000000000e+01" rms="0.0000000000000000e+00" purity="4.7397652268409729e-01" nType="-1"/>
              </Node>
              <Node pos="r" depth="4" NCoef="0" IVar="3" Cut="1.5273398399353027e+01" cType="0" res="-9.9000000000000000e+01" rms="0.0000000000000000e+00" purity="5.9222155809402466e-01" nType="0">
                <Node pos="l" depth="5" NCoef="0" IVar="1" Cut="2.1236104965209961e+00" cType="1" res="-9.9000000000000000e+01" rms="0.0000000000000000e+00" purity="6.6643029451370239e-01" nType="0">
                  <Node pos="l" depth="6" NCoef="0" IVar="0" Cut="1.7799881100654602e-01" cType="1" res="-9.9000000000000000e+01" rms="0.0000000000000000e+00" purity="6.7885899543762207e-01" nType="0">
                    <Node pos="l" depth="7" NCoef="0" IVar="-1" Cut="1.6352237701416016e+01" cType="0" res="-9.9000000000000000e+01" rms="0.0000000000000000e+00" purity="7.4786144495010376e-01" nType="1"/>
                    <Node pos="r" depth="7" NCoef="0" IVar="0" Cut="1.6521508693695068e+00" cType="1" res="-9.9000000000000000e+01" rms="0.0000000000000000e+00" purity="6.1776024103164673e-01" nType="0">
                      <Node pos="l" depth="8" NCoef="0" IVar="-1" Cut="-4.5259797573089600e-01" cType="1" res="-9.9000000000000000e+01" rms="0.0000000000000000e+00" purity="6.3329970836639404e-01" nType="1"/>
                      <Node pos="r" depth="8" NCoef="0" IVar="-1" Cut="2.9032096862792969e+00" cType="0" res="-9.9000000000000000e+01" rms="0.0000000000000000e+00" purity="3.0103445053100586e-01" nType="-1"/>
                    </Node>
                  </Node>
                  <Node pos="r" depth="6" NCoef="0" IVar="-1" Cut="9.0222650766372681e-01" cType="1" res="-9.9000000000000000e+01" rms="0.0000000000000000e+00" purity="2.0993696153163910e-01" nType="-1"/>
                </Node>
                <Node pos="r" depth="5" NCoef="0" IVar="4" Cut="4.9965836107730865e-02" cType="1" res="-9.9000000000000000e+01" rms="0.0000000000000000e+00" purity="5.1287096738815308e-01" nType="0">
                  <Node pos="l" depth="6" NCoef="0" IVar="-1" Cut="-4.2866834998130798e-01" cType="0" res="-9.9000000000000000e+01" rms="0.0000000000000000e+00" purity="7.4708908796310425e-01" nType="1"/>
                  <Node pos="r" depth="6" NCoef="0" IVar="4" Cut="3.3726078271865845e-01" cType="1" res="-9.9000000000000000e+01" rms="0.0000000000000000e+00" purity="4.8456212878227234e-01" nType="0">
                    <Node pos="l" depth="7" NCoef="0" IVar="-1" Cut="2.0061799883842468e-01" cType="1" res="-9.9000000000000000e+01" rms="0.0000000000000000e+00" purity="6.1440402269363403e-01" nType="1"/>
                    <Node pos="r" depth="7" NCoef="0" IVar="-1" Cut="4.0900525450706482e-01" cType="1" res="-9.9000000000000000e+01" rms="0.0000000000000000e+00" purity="2.9029220342636108e-01" nType="-1"/>
                  </Node>
                </Node>
              </Node>
            </Node>
            <Node pos="r" depth="3" NCoef="0" IVar="5" Cut="3.7193894386291504e+00" cType="0" res="-9.9000000000000000e+01" rms="0.0000000000000000e+00" purity="3.6120980978012085e-01" nType="0">
              <Node pos="l" depth="4" NCoef="0" IVar="-1" Cut="-5.8935439586639404e-01" cType="1" res="-9.9000000000000000e+01" rms="0.0000000000000000e+00" purity="8.1914621591567993e-01" nType="1"/>
              <Node pos="r" depth="4" NCoef="0" IVar="2" Cut="-1.4906061887741089e+00" cType="1" res="-9.9000000000000000e+01" rms="0.0000000000000000e+00" purity="3.0113559961318970e-01" nType="0">
                <Node pos="l" depth="5" NCoef="0" IVar="3" Cut="6.5190672874450684e+00" cType="0" res="-9.9000000000000000e+01" rms="0.0000000000000000e+00" purity="4.5396748185157776e-01" nType="0">
                  <Node pos="l" depth="6" NCoef="0" IVar="4" Cut="4.9948066473007202e-02" cType="1" res="-9.9000000000000000e+01" rms="0.0000000000000000e+00" purity="5.1400357484817505e-01" nType="0">
                    <Node pos="l" depth="7" NCoef="0" IVar="-1" Cut="1.6277848815917969e+02" cType="1" res="-9.9000000000000000e+01" rms="0.0000000000000000e+00" purity="7.0870000123977661e-01" nType="1"/>
                    <Node pos="r" depth="7" NCoef="0" IVar="-1" Cut="3.2298021316528320e+00" cType="0" res="-9.9000000000000000e+01" rms="0.0000000000000000e+00" purity="4.0126821398735046e-01" nType="-1"/>
                  </Node>
                  <Node pos="r" depth="6" NCoef="0" IVar="-1" Cut="2.2152390480041504e+00" cType="0" res="-9.9000000000000000e+01" rms="0.0000000000000000e+00" purity="3.6395546048879623e-02" nType="-1"/>
                </Node>
                <Node pos="r" depth="5" NCoef="0" IVar="-1" Cut="2.3714704895019531e+02" cType="0" res="-9.9000000000000000e+01" rms="0.0000000000000000e+00" purity="2.1533630788326263e-01" nType="-1"/>
              </Node>
            </Node>
          </Node>
          <Node pos="r" depth="2" NCoef="0" IVar="0" Cut="1.0784622430801392e+00" cType="1" res="-9.9000000000000000e+01" rms="0.0000000000000000e+00" purity="3.0438765883445740e-01" nType="0">
            <Node pos="l" depth="3" NCoef="0" IVar="5" Cut="3.5139093399047852e+00" cType="0" res="-9.9000000000000000e+01" rms="0.0000000000000000e+00" purity="3.4507679939270020e-01" nType="0">
              <Node pos="l" depth="4" NCoef="0" IVar="-1" Cut="2.1454034423828125e+02" cType="0" res="-9.9000000000000000e+01" rms="0.0000000000000000e+00" purity="7.0170789957046509e-01" nType="1"/>
              <Node pos="r" depth="4" NCoef="0" IVar="-1" Cut="1.7164524078369141e+01" cType="0" res="-9.9000000000000000e+01" rms="0.0000000000000000e+00" purity="3.2481044530868530e-01" nType="-1"/>
            </Node>
            <Node pos="r" depth="3" NCoef="0" IVar="-1" Cut="6.2203431129455566e-01" cType="1" res="-9.9000000000000000e+01" rms="0.0000000000000000e+00" purity="1.1494652181863785e-01" nType="-1"/>
          </Node>
        </Node>
        <Node pos="r" depth="1" NCoef="0" IVar="-1" Cut="1.1510883331298828e+02" cType="0" res="-9.9000000000000000e+01" rms="0.0000000000000000e+00" purity="2.1588476002216339e-01" nType="-1"/>
      </Node>
    </BinaryTree>
    <BinaryTree type="DecisionTree" boostWeight="1.1970757900889921e+00" itree="2">
      <Node pos="s" depth="0" NCoef="0" IVar="6" Cut="6.3471672058105469e+01" cType="0" res="-9.9000000000000000e+01" rms="0.0000000000000000e+00" purity="4.6755489706993103e-01" nType="0">
        <Node pos="l" depth="1" NCoef="0" IVar="0" Cut="5.2420359849929810e-01" cType="1" res="-9.9000000000000000e+01" rms="0.0000000000000000e+00" purity="5.0533068180084229e-01" nType="0">
          <Node pos="l" depth="2" NCoef="0" IVar="5" Cut="3.3883938789367676e+00" cType="0" res="-9.9000000000000000e+01" rms="0.0000000000000000e+00" purity="5.4062968492507935e-01" nType="0">
            <Node pos="l" depth="3" NCoef="0" IVar="2" Cut="-4.5154961943626404e-01" cType="1" res="-9.9000000000000000e+01" rms="0.0000000000000000e+00" purity="6.9312489032745361e-01" nType="0">
              <Node pos="l" depth="4" NCoef="0" IVar="-1" Cut="3.8752648830413818e+00" cType="0" res="-9.9000000000000000e+01" rms="0.0000000000000000e+00" purity="7.3801052570343018e-01" nType="1"/>
              <Node pos="r" depth="4" NCoef="0" IVar="-1" Cut="1.0570029169321060e-01" cType="1" res="-9.9000000000000000e+01" rms="0.0000000000000000e+00" purity="3.5579997301101685e-01" nType="-1"/>
            </Node>
            <Node pos="r" depth="3" NCoef="0" IVar="5" Cut="2.4025304317474365e+00" cType="0" res="-9.9000000000000000e+01" rms="0.0000000000000000e+00" purity="5.2016425132751465e-01" nType="0">
              <Node pos="l" depth="4" NCoef="0" IVar="4" Cut="3.9675161242485046e-01" cType="1" res="-9.9000000000000000e+01" rms="0.0000000000000000e+00" purity="5.2878564596176147e-01" nType="0">
                <Node pos="l" depth="5" NCoef="0" IVar="3" Cut="1.1241312980651855e+01" cType="0" res="-9.9000000000000000e+01" rms="0.0000000000000000e+00" purity="5.6942278146743774e-01" nType="0">
                  <Node pos="l" depth="6" NCoef="0" IVar="-1" Cut="1.8606242537498474e-01" cType="1" res="-9.9000000000000000e+01" rms="0.0000000000000000e+00" purity="6.0067713260650635e-01" nType="1"/>
                  <Node pos="r" depth="6" NCoef="0" IVar="-1" Cut="7.0643739700317383e+00" cType="0" res="-9.9000000000000000e+01" rms="0.0000000000000000e+00" purity="4.1254130005836487e-01" nType="-1"/>
                </Node>
                <Node pos="r" depth="5" NCoef="0" IVar="4" Cut="7.2687554359436035e-01" cType="1" res="-9.9000000000000000e+01" rms="0.0000000000000000e+00" purity="4.8165890574455261e-01" nType="0">
                  <Node pos="l" depth="6" NCoef="0" IVar="-1" Cut="-4.8533630371093750e-01" cType="0" res="-9.9000000000000000e+01" rms="0.0000000000000000e+00" purity="5.0654405355453491e-01" nType="1"/>
                  <Node pos="r" depth="6" NCoef="0" IVar="-1" Cut="-2.2847959399223328e-01" cType="1" res="-9.9000000000000000e+01" rms="0.0000000000000000e+00" purity="3.8349071145057678e-01" nType="-1"/>
                </Node>
              </Node>
              <Node pos="r" depth="4" NCoef="0" IVar="-1" Cut="1.1257160186767578e+02" cType="0" res="-9.9000000000000000e+01" rms="0.0000000000000000e+00" purity="2.9581862688064575e-01" nType="-1"/>
            </Node>
          </Node>
          <Node pos="r" depth="2" NCoef="0" IVar="1" Cut="1.1332522630691528e+00" cType="1" res="-9.9000000000000000e+01" rms="0.0000000000000000e+00" purity="4.1782888770103455e-01" nType="0">
            <Node pos="l" depth="3" NCoef="0" IVar="2" Cut="-1.7517529726028442e+00" cType="1" res="-9.9000000000000000e+01" rms="0.0000000000000000e+00" purity="4.7020614147186279e-01" nType="0">
              <Node pos="l" depth="4" NCoef="0" IVar="-1" Cut="2.5514056682586670e+00" cType="0" res="-9.9000000000000000e+01" rms="0.0000000000000000e+00" purity="5.7681953907012939e-01" nType="1"/>
              <Node pos="r" depth="4" NCoef="0" IVar="-1" Cut="1.5869750976562500e+02" cType="0" res="-9.9000000000000000e+01" rms="0.0000000000000000e+00" purity="4.3131643533706665e-01" nType="-1"/>
            </Node>
            <Node pos="r" depth="3" NCoef="0" IVar="5" Cut="2.9848740100860596e+00" cType="0" res="-9.9000000000000000e+01" rms="0.0000000000000000e+00" purity="2.7676865458488464e-01" nType="0">
              <Node pos="l" depth="4" NCoef="0" IVar="-1" Cut="3.1309323310852051e+00" cType="0" res="-9.9000000000000000e+01" rms="0.0000000000000000e+00" purity="5.0334417819976807e-01" nType="1"/>
              <Node pos="r" depth="4" NCoef="0" IVar="-1" Cut="2.8501038551330566e+00" cType="0" res="-9.9000000000000000e+01" rms="0.0000000000000000e+00" purity="1.1639437824487686e-01" nType="-1"/>
            </Node>
          </Node>
        </Node>
        <Node pos="r" depth="1" NCoef="0" IVar="5" Cut="2.6757881641387939e+00" cType="0" res="-9.9000000000000000e+01" rms="0.0000000000000000e+00" purity="2.1046936511993408e-01" nType="0">
          <Node pos="l" depth="2" NCoef="0" IVar="0" Cut="7.1417647600173950e-01" cType="1" res="-9.9000000000000000e+01" rms="0.0000000000000000e+00" purity="3.4702894091606140e-01" nType="0">
            <Node pos="l" depth="3" NCoef="0" IVar="-1" Cut="-9.4155464172363281e+00" cType="0" res="-9.9000000000000000e+01" rms="0.0000000000000000e+00" purity="4.3964353203773499e-01" nType="-1"/>
            <Node pos="r" depth="3" NCoef="0" IVar="5" Cut="3.2499117851257324e+00" cType="0" res="-9.9000000000000000e+01" rms="0.0000000000000000e+00" purity="1.9164927303791046e-01" nType="0">
              <Node pos="l" depth="4" NCoef="0" IVar="-1" Cut="3.4480445861816406e+01" cType="0" res="-9.9000000000000000e+01" rms="0.0000000000000000e+00" purity="5.3076153993606567e-01" nType="1"/>
              <Node pos="r" depth="4" NCoef="0" IVar="-1" Cut="-1.1348705291748047e+00" cType="1" res="-9.9000000000000000e+01" rms="0.0000000000000000e+00" purity="1.2695221602916718e-01" nType="-1"/>
            </Node>
          </Node>
          <Node pos="r" depth="2" NCoef="0" IVar="-1" Cut="-1.3297596573829651e-01" cType="1" res="-9.9000000000000000e+01" rms="0.0000000000000000e+00" purity="3.5931270569562912e-02" nType="-1"/>
        </Node>
      </Node>
    </BinaryTree>
    <BinaryTree type="DecisionTree" boostWeight="1.1091793366561364e+00" itree="3">
      <Node pos="s" depth="0" NCoef="0" IVar="6" Cut="6.3471672058105469e+01" cType="0" res="-9.9000000000000000e+01" rms="0.0000000000000000e+00" purity="4.9448689818382263e-01" nType="0">
        <Node pos="l" depth="1" NCoef="0" IVar="0" Cut="8.9313095808029175e-01" cType="1" res="-9.9000000000000000e+01" rms="0.0000000000000000e+00" purity="5.1915347576141357e-01" nType="0">
          <Node pos="l" depth="2" NCoef="0" IVar="5" Cut="4.0784974098205566e+00" cType="0" res="-9.9000000000000000e+01" rms="0.0000000000000000e+00" purity="5.3577858209609985e-01" nType="0">
            <Node pos="l" depth="3" NCoef="0" IVar="-1" Cut="4.7789716720581055e-01" cType="1" res="-9.9000000000000000e+01" rms="0.0000000000000000e+00" purity="9.3472594022750854e-01" nType="1"/>
            <Node pos="r" depth="3" NCoef="0" IVar="5" Cut="2.5996651649475098e+00" cType="0" res="-9.9000000000000000e+01" rms="0.0000000000000000e+00" purity="5.3183346986770630e-01" nType="0">
              <Node pos="l" depth="4" NCoef="0" IVar="6" Cut="6.4747259521484375e+02" cType="1" res="-9.9000000000000000e+01" rms="0.0000000000000000e+00" purity="5.4527521133422852e-01" nType="0">
                <Node pos="l" depth="5" NCoef="0" IVar="-1" Cut="3.3198242187500000e+00" cType="1" res="-9.9000000000000000e+01" rms="0.0000000000000000e+00" purity="5.4816871881484985e-01" nType="1"/>
                <Node pos="r" depth="5" NCoef="0" IVar="-1" Cut="2.8640723228454590e+00" cType="0" res="-9.9000000000000000e+01" rms="0.0000000000000000e+00" purity="2.5999134778976440e-01" nType="-1"/>
              </Node>
              <Node pos="r" depth="4" NCoef="0" IVar="-1" Cut="2.1043154907226562e+02" cType="0" res="-9.9000000000000000e+01" rms="0.0000000000000000e+00" purity="4.4444003701210022e-01" nType="-1"/>
            </Node>
          </Node>
          <Node pos="r" depth="2" NCoef="0" IVar="2" Cut="-1.5057913064956665e+00" cType="1" res="-9.9000000000000000e+01" rms="0.0000000000000000e+00" purity="4.0810382366180420e-01" nType="0">
            <Node pos="l" depth="3" NCoef="0" IVar="5" Cut="2.6774492263793945e+00" cType="0" res="-9.9000000000000000e+01" rms="0.0000000000000000e+00" purity="5.4571688175201416e-01" nType="0">
              <Node pos="l" depth="4" NCoef="0" IVar="-1" Cut="1.0708819627761841e+00" cType="1" res="-9.9000000000000000e+01" rms="0.0000000000000000e+00" purity="5.9860593080520630e-01" nType="1"/>
              <Node pos="r" depth="4" NCoef="0" IVar="-1" Cut="5.4946899414062500e-01" cType="1" res="-9.9000000000000000e+01" rms="0.0000000000000000e+00" purity="2.2571571171283722e-01" nType="-1"/>
            </Node>
            <Node pos="r" depth="3" NCoef="0" IVar="-1" Cut="2.9242563247680664e+00" cType="0" res="-9.9000000000000000e+01" rms="0.0000000000000000e+00" purity="3.3880791068077087e-01" nType="-1"/>
          </Node>
        </Node>
        <Node pos="r" depth="1" NCoef="0" IVar="-1" Cut="2.6757881641387939e+00" cType="0" res="-9.9000000000000000e+01" rms="0.0000000000000000e+00" purity="2.8780725598335266e-01" nType="-1"/>
      </Node>
    </BinaryTree>
    <BinaryTree type="DecisionTree" boostWeight="1.0277892768478676e+00" itree="4">
      <Node pos="s" depth="0" NCoef="0" IVar="6" Cut="1.2669667053222656e+02" cType="0" res="-9.9000000000000000e+01" rms="0.0000000000000000e+00" purity="5.1273310184478760e-01" nType="0">
        <Node pos="l" depth="1" NCoef="0" IVar="5" Cut="4.2165184020996094e+00" cType="0" res="-9.9000000000000000e+01" rms="0.0000000000000000e+00" purity="5.4401618242263794e-01" nType="0">
          <Node pos="l" depth="2" NCoef="0" IVar="-1" Cut="0.0000000000000000e+00" cType="1" res="-9.9000000000000000e+01" rms="0.0000000000000000e+00" purity="1.0000000000000000e+00" nType="1"/>
          <Node pos="r" depth="2" NCoef="0" IVar="0" Cut="1.1985394358634949e-01" cType="1" res="-9.9000000000000000e+01" rms="0.0000000000000000e+00" purity="5.4197770357131958e-01" nType="0">
            <Node pos="l" depth="3" NCoef="0" IVar="5" Cut="3.2689120769500732e+00" cType="0" res="-9.9000000000000000e+01" rms="0.0000000000000000e+00" purity="5.7726675271987915e-01" nType="0">
              <Node pos="l" depth="4" NCoef="0" IVar="6" Cut="4.1256445312500000e+02" cType="0" res="-9.9000000000000000e+01" rms="0.0000000000000000e+00" purity="6.4528995752334595e-01" nType="0">
                <Node pos="l" depth="5" NCoef="0" IVar="-1" Cut="1.4273736953735352e+01" cType="0" res="-9.9000000000000000e+01" rms="0.0000000000000000e+00" purity="9.3395507335662842e-01" nType="1"/>
                <Node pos="r" depth="5" NCoef="0" IVar="4" Cut="4.7789716720581055e-01" cType="1" res="-9.9000000000000000e+01" rms="0.0000000000000000e+00" purity="6.2365990877151489e-01" nType="0">
                  <Node pos="l" depth="6" NCoef="0" IVar="-1" Cut="1.2550854682922363e+01" cType="0" res="-9.9000000000000000e+01" rms="0.0000000000000000e+00" purity="6.5902358293533325e-01" nType="1"/>
                  <Node pos="r" depth="6" NCoef="0" IVar="-1" Cut="6.4436858892440796e-01" cType="1" res="-9.9000000000000000e+01" rms="0.0000000000000000e+00" purity="4.7165429592132568e-01" nType="-1"/>
                </Node>
              </Node>
              <Node pos="r" depth="4" NCoef="0" IVar="1" Cut="8.6867558956146240e-01" cType="1" res="-9.9000000000000000e+01" rms="0.0000000000000000e+00" purity="5.6521511077880859e-01" nType="0">
                <Node pos="l" depth="5" NCoef="0" IVar="2" Cut="-1.5785206556320190e+00" cType="0" res="-9.9000000000000000e+01" rms="0.0000000000000000e+00" purity="5.8106881380081177e-01" nType="0">
                  <Node pos="l" depth="6" NCoef="0" IVar="-1" Cut="-7.6828956604003906e-02" cType="1" res="-9.9000000000000000e+01" rms="0.0000000000000000e+00" purity="6.0994160175323486e-01" nType="1"/>
                  <Node pos="r" depth="6" NCoef="0" IVar="1" Cut="-1.0476833581924438e-01" cType="0" res="-9.9000000000000000e+01" rms="0.0000000000000000e+00" purity="5.3854197263717651e-01" nType="0">
                    <Node pos="l" depth="7" NCoef="0" IVar="-1" Cut="3.4734350585937500e+02" cType="0" res="-9.9000000000000000e+01" rms="0.0000000000000000e+00" purity="5.6757873296737671e-01" nType="1"/>
                    <Node pos="r" depth="7" NCoef="0" IVar="2" Cut="-1.8262579441070557e+00" cType="1" res="-9.9000000000000000e+01" rms="0.0000000000000000e+00" purity="4.8292475938796997e-01" nType="0">
                      <Node pos="l" depth="8" NCoef="0" IVar="-1" Cut="1.8447541809082031e+02" cType="0" res="-9.9000000000000000e+01" rms="0.0000000000000000e+00" purity="6.1787128448486328e-01" nType="1"/>
                      <Node pos="r" depth="8" NCoef="0" IVar="-1" Cut="-1.6375037431716919e+00" cType="1" res="-9.9000000000000000e+01" rms="0.0000000000000000e+00" purity="3.0663168430328369e-01" nType="-1"/>
                    </Node>
                  </Node>
                </Node>
                <Node pos="r" depth="5" NCoef="0" IVar="-1" Cut="-7.8032858669757843e-02" cType="1" res="-9.9000000000000000e+01" rms="0.0000000000000000e+00" purity="4.7957363724708557e-01" nType="-1"/>
              </Node>
            </Node>
            <Node pos="r" depth="3" NCoef="0" IVar="4" Cut="7.0677000284194946e-01" cType="1" res="-9.9000000000000000e+01" rms="0.0000000000000000e+00" purity="5.1624870300292969e-01" nType="0">
              <Node pos="l" depth="4" NCoef="0" IVar="1" Cut="2.7485952377319336e+00" cType="1" res="-9.9000000000000000e+01" rms="0.0000000000000000e+00" purity="5.2876830101013184e-01" nType="0">
                <Node pos="l" depth="5" NCoef="0" IVar="1" Cut="-1.8893766403198242e-01" cType="1" res="-9.9000000000000000e+01" rms="0.0000000000000000e+00" purity="5.3291457891464233e-01" nType="0">
                  <Node pos="l" depth="6" NCoef="0" IVar="3" Cut="1.1669130325317383e+01" cType="0" res="-9.9000000000000000e+01" rms="0.0000000000000000e+00" purity="5.9367495775222778e-01" nType="0">
                    <Node pos="l" depth="7" NCoef="0" IVar="-1" Cut="3.4960601329803467e+00" cType="0" res="-9.9000000000000000e+01" rms="0.0000000000000000e+00" purity="6.2582266330718994e-01" nType="1"/>
                    <Node pos="r" depth="7" NCoef="0" IVar="-1" Cut="9.8706045150756836e+00" cType="0" res="-9.9000000000000000e+01" rms="0.0000000000000000e+00" purity="3.5732343792915344e-01" nType="-1"/>
                  </Node>
                  <Node pos="r" depth="6" NCoef="0" IVar="2" Cut="-2.8250138759613037e+00" cType="1" res="-9.9000000000000000e+01" rms="0.0000000000000000e+00" purity="5.2273178100585938e-01" nType="0">
                    <Node pos="l" depth="7" NCoef="0" IVar="-1" Cut="3.7649822998046875e+02" cType="1" res="-9.9000000000000000e+01" rms="0.0000000000000000e+00" purity="7.1938127279281616e-01" nType="1"/>
                    <Node pos="r" depth="7" NCoef="0" IVar="6" Cut="5.2715307617187500e+02" cType="1" res="-9.9000000000000000e+01" rms="0.0000000000000000e+00" purity="5.1767915487289429e-01" nType="0">
                      <Node pos="l" depth="8" NCoef="0" IVar="4" Cut="-8.2285910844802856e-01" cType="1" res="-9.9000000000000000e+01" rms="0.0000000000000000e+00" purity="5.2417993545532227e-01" nType="0">
                        <Node pos="l" depth="9" NCoef="0" IVar="0" Cut="2.9846221208572388e-01" cType="1" res="-9.9000000000000000e+01" rms="0.0000000000000000e+00" purity="6.1846560239791870e-01" nType="0">
                          <Node pos="l" depth="10" NCoef="0" IVar="-1" Cut="2.4815509319305420e+00" cType="0" res="-9.9000000000000000e+01" rms="0.0000000000000000e+00" purity="8.2236206531524658e-01" nType="1"/>
                          <Node pos="r" depth="10" NCoef="0" IVar="6" Cut="1.8365007019042969e+02" cType="0" res="-9.9000000000000000e+01" rms="0.0000000000000000e+00" purity="5.5695945024490356e-01" nType="0">
                            <Node pos="l" depth="11" NCoef="0" IVar="-1" Cut="6.2299102544784546e-01" cType="0" res="-9.9000000000000000e+01" rms="0.0000000000000000e+00" purity="6.0381436347961426e-01" nType="1"/>
                            <Node pos="r" depth="11" NCoef="0" IVar="-1" Cut="0.0000000000000000e+00" cType="1" res="-9.9000000000000000e+01" rms="0.0000000000000000e+00" purity="1.7102092504501343e-01" nType="-1"/>
                          </Node>
                        </Node>
                        <Node pos="r" depth="9" NCoef="0" IVar="3" Cut="1.2667715072631836e+01" cType="0" res="-9.9000000000000000e+01" rms="0.0000000000000000e+00" purity="5.1580041646957397e-01" nType="0">
                          <Node pos="l" depth="10" NCoef="0" IVar="5" Cut="2.6586394309997559e+00" cType="0" res="-9.9000000000000000e+01" rms="0.0000000000000000e+00" purity="5.3934669494628906e-01" nType="0">
                            <Node pos="l" depth="11" NCoef="0" IVar="1" Cut="2.3004521429538727e-01" cType="0" res="-9.9000000000000000e+01" rms="0.0000000000000000e+00" purity="5.5017739534378052e-01" nType="0">
                              <Node pos="l" depth="12" NCoef="0" IVar="0" Cut="9.2449867725372314e-01" cType="1" res="-9.9000000000000000e+01" rms="0.0000000000000000e+00" purity="5.6920319795608521e-01" nType="0">
                                <Node pos="l" depth="13" NCoef="0" IVar="6" Cut="3.9267144775390625e+02" cType="1" res="-9.9000000000000000e+01" rms="0.0000000000000000e+00" purity="5.9452348947525024e-01" nType="0">
                                  <Node pos="l" depth="14" NCoef="0" IVar="-1" Cut="3.1171882152557373e-01" cType="0" res="-9.9000000000000000e+01" rms="0.0000000000000000e+00" purity="6.1759519577026367e-01" nType="1"/>
                                  <Node pos="r" depth="14" NCoef="0" IVar="2" Cut="-1.2997359037399292e+00" cType="0" res="-9.9000000000000000e+01" rms="0.0000000000000000e+00" purity="4.6752327680587769e-01" nType="0">
                                    <Node pos="l" depth="15" NCoef="0" IVar="-1" Cut="0.0000000000000000e+00" cType="1" res="-9.9000000000000000e+01" rms="0.0000000000000000e+00" purity="6.9502711296081543e-01" nType="1"/>
                                    <Node pos="r" depth="15" NCoef="0" IVar="-1" Cut="-1.8024104833602905e+00" cType="1" res="-9.9000000000000000e+01" rms="0.0000000000000000e+00" purity="3.6356961727142334e-01" nType="-1"/>
                                  </Node>
                                </Node>
                                <Node pos="r" depth="13" NCoef="0" IVar="5" Cut="3.2445311546325684e+00" cType="0" res="-9.9000000000000000e+01" rms="0.0000000000000000e+00" purity="4.8622179031372070e-01" nType="0">
                                  <Node pos="l" depth="14" NCoef="0" IVar="-1" Cut="3.4717595577239990e+00" cType="1" res="-9.9000000000000000e+01" rms="0.0000000000000000e+00" purity="6.3123333454132080e-01" nType="1"/>
                                  <Node pos="r" depth="14" NCoef="0" IVar="2" Cut="-4.6184077858924866e-01" cType="0" res="-9.9000000000000000e+01" rms="0.0000000000000000e+00" purity="4.1214057803153992e-01" nType="0">
                                    <Node pos="l" depth="15" NCoef="0" IVar="-1" Cut="2.9665758609771729e+00" cType="1" res="-9.9000000000000000e+01" rms="0.0000000000000000e+00" purity="6.8439841270446777e-01" nType="1"/>
                                    <Node pos="r" depth="15" NCoef="0" IVar="-1" Cut="3.8733929443359375e+02" cType="1" res="-9.9000000000000000e+01" rms="0.0000000000000000e+00" purity="3.4816706180572510e-01" nType="-1"/>
                                  </Node>
                                </Node>
                              </Node>
                              <Node pos="r" depth="12" NCoef="0" IVar="-1" Cut="-6.0719758272171021e-01" cType="1" res="-9.9000000000000000e+01" rms="0.0000000000000000e+00" purity="5.1214444637298584e-01" nType="1"/>
                            </Node>
                            <Node pos="r" depth="11" NCoef="0" IVar="4" Cut="5.2976137399673462e-01" cType="1" res="-9.9000000000000000e+01" rms="0.0000000000000000e+00" purity="4.2022293806076050e-01" nType="0">
                              <Node pos="l" depth="12" NCoef="0" IVar="1" Cut="3.4497734904289246e-01" cType="1" res="-9.9000000000000000e+01" rms="0.0000000000000000e+00" purity="5.1033079624176025e-01" nType="0">
                                <Node pos="l" depth="13" NCoef="0" IVar="-1" Cut="0.0000000000000000e+00" cType="1" res="-9.9000000000000000e+01" rms="0.0000000000000000e+00" purity="7.0313131809234619e-01" nType="1"/>
                                <Node pos="r" depth="13" NCoef="0" IVar="-1" Cut="5.6879103183746338e-01" cType="1" res="-9.9000000000000000e+01" rms="0.0000000000000000e+00" purity="3.5815176367759705e-01" nType="-1"/>
                              </Node>
                              <Node pos="r" depth="12" NCoef="0" IVar="-1" Cut="7.9305630922317505e-01" cType="1" res="-9.9000000000000000e+01" rms="0.0000000000000000e+00" purity="2.5140666961669922e-01" nType="-1"/>
                            </Node>
                          </Node>
                          <Node pos="r" depth="10" NCoef="0" IVar="5" Cut="3.5347449779510498e+00" cType="0" res="-9.9000000000000000e+01" rms="0.0000000000000000e+00" purity="4.0079396963119507e-01" nType="0">
                            <Node pos="l" depth="11" NCoef="0" IVar="4" Cut="1.8397258222103119e-01" cType="1" res="-9.9000000000000000e+01" rms="0.0000000000000000e+00" purity="6.2637263536453247e-01" nType="0">
                              <Node pos="l" depth="12" NCoef="0" IVar="-1" Cut="1.0852236747741699e+01" cType="0" res="-9.9000000000000000e+01" rms="0.0000000000000000e+00" purity="8.2487201690673828e-01" nType="1"/>
                              <Node pos="r" depth="12" NCoef="0" IVar="-1" Cut="0.0000000000000000e+00" cType="1" res="-9.9000000000000000e+01" rms="0.0000000000000000e+00" purity="3.6797511577606201e-01" nType="-1"/>
                            </Node>
                            <Node pos="r" depth="11" NCoef="0" IVar="-1" Cut="1.0714623451232910e+01" cType="0" res="-9.9000000000000000e+01" rms="0.0000000000000000e+00" purity="3.5651606321334839e-01" nType="-1"/>
                          </Node>
                        </Node>
                      </Node>
                      <Node pos="r" depth="8" NCoef="0" IVar="6" Cut="6.8003411865234375e+02" cType="0" res="-9.9000000000000000e+01" rms="0.0000000000000000e+00" purity="3.9375299215316772e-01" nType="0">
                        <Node pos="l" depth="9" NCoef="0" IVar="-1" Cut="0.0000000000000000e+00" cType="1" res="-9.9000000000000000e+01" rms="0.0000000000000000e+00" purity="6.9801467657089233e-01" nType="1"/>
                        <Node pos="r" depth="9" NCoef="0" IVar="-1" Cut="7.3935198783874512e-01" cType="1" res="-9.9000000000000000e+01" rms="0.0000000000000000e+00" purity="3.2835090160369873e-01" nType="-1"/>
                      </Node>
                    </Node>
                  </Node>
                </Node>
                <Node pos="r" depth="5" NCoef="0" IVar="-1" Cut="4.7929307818412781e-01" cType="1" res="-9.9000000000000000e+01" rms="0.0000000000000000e+00" purity="3.0369001626968384e-01" nType="-1"/>
              </Node>
              <Node pos="r" depth="4" NCoef="0" IVar="-1" Cut="1.2832940816879272e+00" cType="1" res="-9.9000000000000000e+01" rms="0.0000000000000000e+00" purity="4.2278271913528442e-01" nType="-1"/>
            </Node>
          </Node>
        </Node>
        <Node pos="r" depth="1" NCoef="0" IVar="5" Cut="2.6757881641387939e+00" cType="0" res="-9.9000000000000000e+01" rms="0.0000000000000000e+00" purity="3.9639067649841309e-01" nType="0">
          <Node pos="l" depth="2" NCoef="0" IVar="0" Cut="8.7494117021560669e-01" cType="1" res="-9.9000000000000000e+01" rms="0.0000000000000000e+00" purity="4.5331290364265442e-01" nType="0">
            <Node pos="l" depth="3" NCoef="0" IVar="2" Cut="-1.0360456705093384e+00" cType="1" res="-9.9000000000000000e+01" rms="0.0000000000000000e+00" purity="4.9202665686607361e-01" nType="0">
              <Node pos="l" depth="4" NCoef="0" IVar="3" Cut="4.5889229774475098e+00" cType="0" res="-9.9000000000000000e+01" rms="0.0000000000000000e+00" purity="5.4035139083862305e-01" nType="0">
                <Node pos="l" depth="5" NCoef="0" IVar="1" Cut="5.0539255142211914e-01" cType="1" res="-9.9000000000000000e+01" rms="0.0000000000000000e+00" purity="5.5075645446777344e-01" nType="0">
                  <Node pos="l" depth="6" NCoef="0" IVar="3" Cut="1.0192468643188477e+01" cType="0" res="-9.9000000000000000e+01" rms="0.0000000000000000e+00" purity="5.8782404661178589e-01" nType="0">
                    <Node pos="l" depth="7" NCoef="0" IVar="-1" Cut="3.7153035402297974e-01" cType="0" res="-9.9000000000000000e+01" rms="0.0000000000000000e+00" purity="6.2185901403427124e-01" nType="1"/>
                    <Node pos="r" depth="7" NCoef="0" IVar="-1" Cut="3.4732172489166260e+00" cType="0" res="-9.9000000000000000e+01" rms="0.0000000000000000e+00" purity="2.6013299822807312e-01" nType="-1"/>
                  </Node>
                  <Node pos="r" depth="6" NCoef="0" IVar="-1" Cut="1.3545671701431274e+00" cType="0" res="-9.9000000000000000e+01" rms="0.0000000000000000e+00" purity="4.5873928070068359e-01" nType="-1"/>
                </Node>
                <Node pos="r" depth="5" NCoef="0" IVar="-1" Cut="0.0000000000000000e+00" cType="1" res="-9.9000000000000000e+01" rms="0.0000000000000000e+00" purity="0.0000000000000000e+00" nType="-1"/>
              </Node>
              <Node pos="r" depth="4" NCoef="0" IVar="1" Cut="4.7995138168334961e-01" cType="0" res="-9.9000000000000000e+01" rms="0.0000000000000000e+00" purity="4.0416848659515381e-01" nType="0">
                <Node pos="l" depth="5" NCoef="0" IVar="3" Cut="1.1625264167785645e+01" cType="0" res="-9.9000000000000000e+01" rms="0.0000000000000000e+00" purity="4.7772225737571716e-01" nType="0">
                  <Node pos="l" depth="6" NCoef="0" IVar="0" Cut="9.5064468681812286e-02" cType="1" res="-9.9000000000000000e+01" rms="0.0000000000000000e+00" purity="5.4469871520996094e-01" nType="0">
                    <Node pos="l" depth="7" NCoef="0" IVar="-1" Cut="6.1506050109863281e+01" cType="1" res="-9.9000000000000000e+01" rms="0.0000000000000000e+00" purity="7.2181242704391479e-01" nType="1"/>
                    <Node pos="r" depth="7" NCoef="0" IVar="5" Cut="2.8344621658325195e+00" cType="0" res="-9.9000000000000000e+01" rms="0.0000000000000000e+00" purity="4.6682581305503845e-01" nType="0">
                      <Node pos="l" depth="8" NCoef="0" IVar="-1" Cut="3.9257031679153442e-01" cType="0" res="-9.9000000000000000e+01" rms="0.0000000000000000e+00" purity="5.5784684419631958e-01" nType="1"/>
                      <Node pos="r" depth="8" NCoef="0" IVar="-1" Cut="-4.7295823693275452e-01" cType="0" res="-9.9000000000000000e+01" rms="0.0000000000000000e+00" purity="2.2880278527736664e-01" nType="-1"/>
                    </Node>
                  </Node>
                  <Node pos="r" depth="6" NCoef="0" IVar="6" Cut="3.2201953887939453e+01" cType="1" res="-9.9000000000000000e+01" rms="0.0000000000000000e+00" purity="2.4738961458206177e-01" nType="0">
                    <Node pos="l" depth="7" NCoef="0" IVar="-1" Cut="0.0000000000000000e+00" cType="1" res="-9.9000000000000000e+01" rms="0.0000000000000000e+00" purity="5.9283351898193359e-01" nType="1"/>
                    <Node pos="r" depth="7" NCoef="0" IVar="-1" Cut="7.9103865623474121e+00" cType="0" res="-9.9000000000000000e+01" rms="0.0000000000000000e+00" purity="1.0573470592498779e-01" nType="-1"/>
                  </Node>
                </Node>
                <Node pos="r" depth="5" NCoef="0" IVar="-1" Cut="6.7532970570027828e-03" cType="1" res="-9.9000000000000000e+01" rms="0.0000000000000000e+00" purity="2.6419365406036377e-01" nType="-1"/>
              </Node>
            </Node>
            <Node pos="r" depth="3" NCoef="0" IVar="-1" Cut="2.8602895736694336e+00" cType="0" res="-9.9000000000000000e+01" rms="0.0000000000000000e+00" purity="3.0800366401672363e-01" nType="-1"/>
          </Node>
          <Node pos="r" depth="2" NCoef="0" IVar="1" Cut="9.8157948255538940e-01" cType="1" res="-9.9000000000000000e+01" rms="0.0000000000000000e+00" purity="1.9498117268085480e-01" nType="0">
            <Node pos="l" depth="3" NCoef="0" IVar="6" Cut="9.6570137023925781e+01" cType="0" res="-9.9000000000000000e+01" rms="0.0000000000000000e+00" purity="2.9874333739280701e-01" nType="0">
              <Node pos="l" depth="4" NCoef="0" IVar="6" Cut="1.0240337371826172e+02" cType="1" res="-9.9000000000000000e+01" rms="0.0000000000000000e+00" purity="5.9446424245834351e-01" nType="0">
                <Node pos="l" depth="5" NCoef="0" IVar="-1" Cut="0.0000000000000000e+00" cType="1" res="-9.9000000000000000e+01" rms="0.0000000000000000e+00" purity="8.7463712692260742e-01" nType="1"/>
                <Node pos="r" depth="5" NCoef="0" IVar="-1" Cut="1.2088069152832031e+02" cType="0" res="-9.9000000000000000e+01" rms="0.0000000000000000e+00" purity="3.2341897487640381e-01" nType="-1"/>
              </Node>
              <Node pos="r" depth="4" NCoef="0" IVar="2" Cut="3.4605649113655090e-01" cType="0" res="-9.9000000000000000e+01" rms="0.0000000000000000e+00" purity="2.3206923902034760e-01" nType="0">
                <Node pos="l" depth="5" NCoef="0" IVar="2" Cut="3.8940283656120300e-01" cType="1" res="-9.9000000000000000e+01" rms="0.0000000000000000e+00" purity="5.4559135437011719e-01" nType="0">
                  <Node pos="l" depth="6" NCoef="0" IVar="-1" Cut="0.0000000000000000e+00" cType="1" res="-9.9000000000000000e+01" rms="0.0000000000000000e+00" purity="8.6738103628158569e-01" nType="1"/>
                  <Node pos="r" depth="6" NCoef="0" IVar="-1" Cut="0.0000000000000000e+00" cType="1" res="-9.9000000000000000e+01" rms="0.0000000000000000e+00" purity="0.0000000000000000e+00" nType="-1"/>
                </Node>
                <Node pos="r" depth="5" NCoef="0" IVar="-1" Cut="9.9226474761962891e-02" cType="0" res="-9.9000000000000000e+01" rms="0.0000000000000000e+00" purity="1.7752279341220856e-01" nType="-1"/>
              </Node>
            </Node>
            <Node pos="r" depth="3" NCoef="0" IVar="-1" Cut="3.5868511199951172e+01" cType="0" res="-9.9000000000000000e+01" rms="0.0000000000000000e+00" purity="3.5768251866102219e-02" nType="-1"/>
          </Node>
        </Node>
      </Node>
    </BinaryTree>
    <BinaryTree type="DecisionTree" boostWeight="9.7814254303744164e-01" itree="5">
      <Node pos="s" depth="0" NCoef="0" IVar="6" Cut="1.2669667053222656e+02" cType="0" res="-9.9000000000000000e+01" rms="0.0000000000000000e+00" purity="5.0094705820083618e-01" nType="0">
        <Node pos="l" depth="1" NCoef="0" IVar="0" Cut="9.7421467304229736e-01" cType="1" res="-9.9000000000000000e+01" rms="0.0000000000000000e+00" purity="5.2388942241668701e-01" nType="0">
          <Node pos="l" depth="2" NCoef="0" IVar="5" Cut="3.3883938789367676e+00" cType="0" res="-9.9000000000000000e+01" rms="0.0000000000000000e+00" purity="5.3387761116027832e-01" nType="0">
            <Node pos="l" depth="3" NCoef="0" IVar="1" Cut="1.3674329519271851e+00" cType="0" res="-9.9000000000000000e+01" rms="0.0000000000000000e+00" purity="6.4167356491088867e-01" nType="0">
              <Node pos="l" depth="4" NCoef="0" IVar="-1" Cut="0.0000000000000000e+00" cType="1" res="-9.9000000000000000e+01" rms="0.0000000000000000e+00" purity="9.0130865573883057e-01" nType="1"/>
              <Node pos="r" depth="4" NCoef="0" IVar="6" Cut="2.3390580749511719e+02" cType="0" res="-9.9000000000000000e+01" rms="0.0000000000000000e+00" purity="6.1851310729980469e-01" nType="0">
                <Node pos="l" depth="5" NCoef="0" IVar="-1" Cut="3.6621141433715820e+00" cType="0" res="-9.9000000000000000e+01" rms="0.0000000000000000e+00" purity="7.0587325096130371e-01" nType="1"/>
                <Node pos="r" depth="5" NCoef="0" IVar="6" Cut="1.5224035644531250e+02" cType="1" res="-9.9000000000000000e+01" rms="0.0000000000000000e+00" purity="5.3281778097152710e-01" nType="0">
                  <Node pos="l" depth="6" NCoef="0" IVar="-1" Cut="-1.0814487934112549e+00" cType="1" res="-9.9000000000000000e+01" rms="0.0000000000000000e+00" purity="7.7814018726348877e-01" nType="1"/>
                  <Node pos="r" depth="6" NCoef="0" IVar="3" Cut="1.6335670471191406e+01" cType="0" res="-9.9000000000000000e+01" rms="0.0000000000000000e+00" purity="4.8921820521354675e-01" nType="0">
                    <Node pos="l" depth="7" NCoef="0" IVar="-1" Cut="2.0359462738037109e+01" cType="1" res="-9.9000000000000000e+01" rms="0.0000000000000000e+00" purity="7.8652411699295044e-01" nType="1"/>
                    <Node pos="r" depth="7" NCoef="0" IVar="-1" Cut="6.2817734479904175e-01" cType="1" res="-9.9000000000000000e+01" rms="0.0000000000000000e+00" purity="4.2194592952728271e-01" nType="-1"/>
                  </Node>
                </Node>
              </Node>
            </Node>
            <Node pos="r" depth="3" NCoef="0" IVar="5" Cut="2.6654262542724609e+00" cType="0" res="-9.9000000000000000e+01" rms="0.0000000000000000e+00" purity="5.2326506376266479e-01" nType="0">
              <Node pos="l" depth="4" NCoef="0" IVar="-1" Cut="-2.8719980716705322e+00" cType="1" res="-9.9000000000000000e+01" rms="0.0000000000000000e+00" purity="5.3814017772674561e-01" nType="1"/>
              <Node pos="r" depth="4" NCoef="0" IVar="-1" Cut="8.9147543907165527e-01" cType="1" res="-9.9000000000000000e+01" rms="0.0000000000000000e+00" purity="4.7093823552131653e-01" nType="-1"/>
            </Node>
          </Node>
          <Node pos="r" depth="2" NCoef="0" IVar="4" Cut="1.1194945871829987e-01" cType="1" res="-9.9000000000000000e+01" rms="0.0000000000000000e+00" purity="4.2903453111648560e-01" nType="0">
            <Node pos="l" depth="3" NCoef="0" IVar="3" Cut="1.0095084190368652e+01" cType="0" res="-9.9000000000000000e+01" rms="0.0000000000000000e+00" purity="5.7102572917938232e-01" nType="0">
              <Node pos="l" depth="4" NCoef="0" IVar="-1" Cut="1.8401962280273438e+02" cType="0" res="-9.9000000000000000e+01" rms="0.0000000000000000e+00" purity="6.4228773117065430e-01" nType="1"/>
              <Node pos="r" depth="4" NCoef="0" IVar="-1" Cut="0.0000000000000000e+00" cType="1" res="-9.9000000000000000e+01" rms="0.0000000000000000e+00" purity="1.0078937560319901e-01" nType="-1"/>
            </Node>
            <Node pos="r" depth="3" NCoef="0" IVar="-1" Cut="2.8379418849945068e+00" cType="0" res="-9.9000000000000000e+01" rms="0.0000000000000000e+00" purity="3.8732802867889404e-01" nType="-1"/>
          </Node>
        </Node>
        <Node pos="r" depth="1" NCoef="0" IVar="5" Cut="2.6757881641387939e+00" cType="0" res="-9.9000000000000000e+01" rms="0.0000000000000000e+00" purity="4.0839076042175293e-01" nType="0">
          <Node pos="l" depth="2" NCoef="0" IVar="2" Cut="-1.7670409679412842e+00" cType="1" res="-9.9000000000000000e+01" rms="0.0000000000000000e+00" purity="4.4995924830436707e-01" nType="0">
            <Node pos="l" depth="3" NCoef="0" IVar="-1" Cut="3.6763057708740234e+00" cType="0" res="-9.9000000000000000e+01" rms="0.0000000000000000e+00" purity="5.6756496429443359e-01" nType="1"/>
            <Node pos="r" depth="3" NCoef="0" IVar="1" Cut="3.0388972759246826e+00" cType="1" res="-9.9000000000000000e+01" rms="0.0000000000000000e+00" purity="4.2560917139053345e-01" nType="0">
              <Node pos="l" depth="4" NCoef="0" IVar="3" Cut="1.1594996452331543e+01" cType="0" res="-9.9000000000000000e+01" rms="0.0000000000000000e+00" purity="4.3473145365715027e-01" nType="0">
                <Node pos="l" depth="5" NCoef="0" IVar="4" Cut="-3.3650431782007217e-02" cType="1" res="-9.9000000000000000e+01" rms="0.0000000000000000e+00" purity="4.6307271718978882e-01" nType="0">
                  <Node pos="l" depth="6" NCoef="0" IVar="-1" Cut="0.0000000000000000e+00" cType="1" res="-9.9000000000000000e+01" rms="0.0000000000000000e+00" purity="9.1775602102279663e-01" nType="1"/>
                  <Node pos="r" depth="6" NCoef="0" IVar="-1" Cut="9.7278082370758057e-01" cType="1" res="-9.9000000000000000e+01" rms="0.0000000000000000e+00" purity="4.5034641027450562e-01" nType="-1"/>
                </Node>
                <Node pos="r" depth="5" NCoef="0" IVar="-1" Cut="7.8814463615417480e+00" cType="0" res="-9.9000000000000000e+01" rms="0.0000000000000000e+00" purity="3.3200952410697937e-01" nType="-1"/>
              </Node>
              <Node pos="r" depth="4" NCoef="0" IVar="-1" Cut="3.5064480304718018e+00" cType="1" res="-9.9000000000000000e+01" rms="0.0000000000000000e+00" purity="5.4889660328626633e-02" nType="-1"/>
            </Node>
          </Node>
          <Node pos="r" depth="2" NCoef="0" IVar="3" Cut="5.3531341552734375e+01" cType="0" res="-9.9000000000000000e+01" rms="0.0000000000000000e+00" purity="2.2662875056266785e-01" nType="0">
            <Node pos="l" depth="3" NCoef="0" IVar="-1" Cut="0.0000000000000000e+00" cType="1" res="-9.9000000000000000e+01" rms="0.0000000000000000e+00" purity="8.2226538658142090e-01" nType="1"/>
            <Node pos="r" depth="3" NCoef="0" IVar="-1" Cut="6.9493043422698975e-01" cType="1" res="-9.9000000000000000e+01" rms="0.0000000000000000e+00" purity="2.0284530520439148e-01" nType="-1"/>
          </Node>
        </Node>
      </Node>
    </BinaryTree>
    <BinaryTree type="DecisionTree" boostWeight="9.6000483431387806e-01" itree="6">
      <Node pos="s" depth="0" NCoef="0" IVar="6" Cut="1.2669667053222656e+02" cType="0" res="-9.9000000000000000e+01" rms="0.0000000000000000e+00" purity="5.0257998704910278e-01" nType="0">
        <Node pos="l" depth="1" NCoef="0" IVar="0" Cut="9.7421467304229736e-01" cType="1" res="-9.9000000000000000e+01" rms="0.0000000000000000e+00" purity="5.2038419246673584e-01" nType="0">
          <Node pos="l" depth="2" NCoef="0" IVar="5" Cut="3.6644353866577148e+00" cType="0" res="-9.9000000000000000e+01" rms="0.0000000000000000e+00" purity="5.2891188859939575e-01" nType="0">
            <Node pos="l" depth="3" NCoef="0" IVar="-1" Cut="2.6192010498046875e+02" cType="0" res="-9.9000000000000000e+01" rms="0.0000000000000000e+00" purity="6.7794573307037354e-01" nType="1"/>
            <Node pos="r" depth="3" NCoef="0" IVar="5" Cut="2.5602319240570068e+00" cType="0" res="-9.9000000000000000e+01" rms="0.0000000000000000e+00" purity="5.2458715438842773e-01" nType="0">
              <Node pos="l" depth="4" NCoef="0" IVar="-1" Cut="7.2765026855468750e+02" cType="1" res="-9.9000000000000000e+01" rms="0.0000000000000000e+00" purity="5.3240954875946045e-01" nType="1"/>
              <Node pos="r" depth="4" NCoef="0" IVar="-1" Cut="-1.2537181377410889e-01" cType="1" res="-9.9000000000000000e+01" rms="0.0000000000000000e+00" purity="4.5810437202453613e-01" nType="-1"/>
            </Node>
          </Node>
          <Node pos="r" depth="2" NCoef="0" IVar="-1" Cut="2.8046259880065918e+00" cType="0" res="-9.9000000000000000e+01" rms="0.0000000000000000e+00" purity="4.3741068243980408e-01" nType="-1"/>
        </Node>
        <Node pos="r" depth="1" NCoef="0" IVar="5" Cut="2.5407955646514893e+00" cType="0" res="-9.9000000000000000e+01" rms="0.0000000000000000e+00" purity="4.2478996515274048e-01" nType="0">
          <Node pos="l" depth="2" NCoef="0" IVar="5" Cut="2.9779281616210938e+00" cType="0" res="-9.9000000000000000e+01" rms="0.0000000000000000e+00" purity="4.4934123754501343e-01" nType="0">
            <Node pos="l" depth="3" NCoef="0" IVar="2" Cut="-1.7920824289321899e+00" cType="1" res="-9.9000000000000000e+01" rms="0.0000000000000000e+00" purity="5.1048463582992554e-01" nType="0">
              <Node pos="l" depth="4" NCoef="0" IVar="-1" Cut="9.6681785583496094e+01" cType="0" res="-9.9000000000000000e+01" rms="0.0000000000000000e+00" purity="6.5310293436050415e-01" nType="1"/>
              <Node pos="r" depth="4" NCoef="0" IVar="-1" Cut="3.9510974884033203e+00" cType="0" res="-9.9000000000000000e+01" rms="0.0000000000000000e+00" purity="4.7907277941703796e-01" nType="-1"/>
            </Node>
            <Node pos="r" depth="3" NCoef="0" IVar="1" Cut="1.1802135705947876e+00" cType="1" res="-9.9000000000000000e+01" rms="0.0000000000000000e+00" purity="3.9822900295257568e-01" nType="0">
              <Node pos="l" depth="4" NCoef="0" IVar="3" Cut="4.1163783073425293e+00" cType="0" res="-9.9000000000000000e+01" rms="0.0000000000000000e+00" purity="4.4251403212547302e-01" nType="0">
                <Node pos="l" depth="5" NCoef="0" IVar="5" Cut="2.9153285026550293e+00" cType="1" res="-9.9000000000000000e+01" rms="0.0000000000000000e+00" purity="4.6835389733314514e-01" nType="0">
                  <Node pos="l" depth="6" NCoef="0" IVar="-1" Cut="-8.6249762773513794e-01" cType="0" res="-9.9000000000000000e+01" rms="0.0000000000000000e+00" purity="5.0564801692962646e-01" nType="1"/>
                  <Node pos="r" depth="6" NCoef="0" IVar="-1" Cut="1.8157005310058594e-01" cType="1" res="-9.9000000000000000e+01" rms="0.0000000000000000e+00" purity="3.3775079250335693e-01" nType="-1"/>
                </Node>
                <Node pos="r" depth="5" NCoef="0" IVar="-1" Cut="0.0000000000000000e+00" cType="1" res="-9.9000000000000000e+01" rms="0.0000000000000000e+00" purity="0.0000000000000000e+00" nType="-1"/>
              </Node>
              <Node pos="r" depth="4" NCoef="0" IVar="-1" Cut="3.3815704345703125e+01" cType="0" res="-9.9000000000000000e+01" rms="0.0000000000000000e+00" purity="2.4300296604633331e-01" nType="-1"/>
            </Node>
          </Node>
          <Node pos="r" depth="2" NCoef="0" IVar="-1" Cut="9.6570137023925781e+01" cType="0" res="-9.9000000000000000e+01" rms="0.0000000000000000e+00" purity="1.7300663888454437e-01" nType="-1"/>
        </Node>
      </Node>
    </BinaryTree>
    <BinaryTree type="DecisionTree" boostWeight="9.3689234371884345e-01" itree="7">
      <Node pos="s" depth="0" NCoef="0" IVar="5" Cut="2.5543107986450195e+00" cType="0" res="-9.9000000000000000e+01" rms="0.0000000000000000e+00" purity="5.0322580337524414e-01" nType="0">
        <Node pos="l" depth="1" NCoef="0" IVar="0" Cut="8.7553453445434570e-01" cType="1" res="-9.9000000000000000e+01" rms="0.0000000000000000e+00" purity="5.1397645473480225e-01" nType="0">
          <Node pos="l" depth="2" NCoef="0" IVar="5" Cut="2.8904373645782471e+00" cType="0" res="-9.9000000000000000e+01" rms="0.0000000000000000e+00" purity="5.2556562423706055e-01" nType="0">
            <Node pos="l" depth="3" NCoef="0" IVar="-1" Cut="4.2345609664916992e+00" cType="0" res="-9.9000000000000000e+01" rms="0.0000000000000000e+00" purity="5.4652518033981323e-01" nType="1"/>
            <Node pos="r" depth="3" NCoef="0" IVar="1" Cut="2.0371768474578857e+00" cType="1" res="-9.9000000000000000e+01" rms="0.0000000000000000e+00" purity="4.9887686967849731e-01" nType="0">
              <Node pos="l" depth="4" NCoef="0" IVar="1" Cut="-1.3165974617004395e-01" cType="0" res="-9.9000000000000000e+01" rms="0.0000000000000000e+00" purity="5.0643819570541382e-01" nType="0">
                <Node pos="l" depth="5" NCoef="0" IVar="6" Cut="1.1348603820800781e+02" cType="0" res="-9.9000000000000000e+01" rms="0.0000000000000000e+00" purity="5.2083235979080200e-01" nType="0">
                  <Node pos="l" depth="6" NCoef="0" IVar="0" Cut="7.8008168935775757e-01" cType="1" res="-9.9000000000000000e+01" rms="0.0000000000000000e+00" purity="5.3677004575729370e-01" nType="0">
                    <Node pos="l" depth="7" NCoef="0" IVar="6" Cut="4.1793353271484375e+02" cType="0" res="-9.9000000000000000e+01" rms="0.0000000000000000e+00" purity="5.4598867893218994e-01" nType="0">
                      <Node pos="l" depth="8" NCoef="0" IVar="-1" Cut="1.7804386138916016e+01" cType="1" res="-9.9000000000000000e+01" rms="0.0000000000000000e+00" purity="6.4953166246414185e-01" nType="1"/>
                      <Node pos="r" depth="8" NCoef="0" IVar="0" Cut="6.9947290420532227e-01" cType="0" res="-9.9000000000000000e+01" rms="0.0000000000000000e+00" purity="5.2315396070480347e-01" nType="0">
                        <Node pos="l" depth="9" NCoef="0" IVar="-1" Cut="7.3756790161132812e-01" cType="1" res="-9.9000000000000000e+01" rms="0.0000000000000000e+00" purity="7.3400461673736572e-01" nType="1"/>
                        <Node pos="r" depth="9" NCoef="0" IVar="4" Cut="7.5921058654785156e-01" cType="1" res="-9.9000000000000000e+01" rms="0.0000000000000000e+00" purity="5.1368892192840576e-01" nType="0">
                          <Node pos="l" depth="10" NCoef="0" IVar="-1" Cut="-5.3820514678955078e-01" cType="0" res="-9.9000000000000000e+01" rms="0.0000000000000000e+00" purity="5.3149712085723877e-01" nType="1"/>
                          <Node pos="r" depth="10" NCoef="0" IVar="-1" Cut="2.4334884643554688e+02" cType="0" res="-9.9000000000000000e+01" rms="0.0000000000000000e+00" purity="3.7234881520271301e-01" nType="-1"/>
                        </Node>
                      </Node>
                    </Node>
                    <Node pos="r" depth="7" NCoef="0" IVar="-1" Cut="6.9429910182952881e-01" cType="1" res="-9.9000000000000000e+01" rms="0.0000000000000000e+00" purity="2.4801675975322723e-01" nType="-1"/>
                  </Node>
                  <Node pos="r" depth="6" NCoef="0" IVar="3" Cut="1.1426018714904785e+01" cType="0" res="-9.9000000000000000e+01" rms="0.0000000000000000e+00" purity="4.3437311053276062e-01" nType="0">
                    <Node pos="l" depth="7" NCoef="0" IVar="-1" Cut="4.4071411132812500e+01" cType="0" res="-9.9000000000000000e+01" rms="0.0000000000000000e+00" purity="4.7284704446792603e-01" nType="-1"/>
                    <Node pos="r" depth="7" NCoef="0" IVar="3" Cut="9.7924070358276367e+00" cType="0" res="-9.9000000000000000e+01" rms="0.0000000000000000e+00" purity="2.0071126520633698e-01" nType="0">
                      <Node pos="l" depth="8" NCoef="0" IVar="-1" Cut="0.0000000000000000e+00" cType="1" res="-9.9000000000000000e+01" rms="0.0000000000000000e+00" purity="5.3416472673416138e-01" nType="1"/>
                      <Node pos="r" depth="8" NCoef="0" IVar="-1" Cut="4.4202339649200439e-01" cType="0" res="-9.9000000000000000e+01" rms="0.0000000000000000e+00" purity="4.9446821212768555e-02" nType="-1"/>
                    </Node>
                  </Node>
                </Node>
                <Node pos="r" depth="5" NCoef="0" IVar="0" Cut="4.4511151313781738e-01" cType="1" res="-9.9000000000000000e+01" rms="0.0000000000000000e+00" purity="4.4743537902832031e-01" nType="0">
                  <Node pos="l" depth="6" NCoef="0" IVar="1" Cut="-5.4469305276870728e-01" cType="1" res="-9.9000000000000000e+01" rms="0.0000000000000000e+00" purity="4.8928451538085938e-01" nType="0">
                    <Node pos="l" depth="7" NCoef="0" IVar="-1" Cut="-1.3459253311157227e+00" cType="1" res="-9.9000000000000000e+01" rms="0.0000000000000000e+00" purity="7.1816927194595337e-01" nType="1"/>
                    <Node pos="r" depth="7" NCoef="0" IVar="-1" Cut="-5.3784728050231934e-01" cType="1" res="-9.9000000000000000e+01" rms="0.0000000000000000e+00" purity="4.6467778086662292e-01" nType="-1"/>
                  </Node>
                  <Node pos="r" depth="6" NCoef="0" IVar="-1" Cut="4.2202642560005188e-01" cType="1" res="-9.9000000000000000e+01" rms="0.0000000000000000e+00" purity="2.7009779214859009e-01" nType="-1"/>
                </Node>
              </Node>
              <Node pos="r" depth="4" NCoef="0" IVar="6" Cut="3.5981909179687500e+02" cType="0" res="-9.9000000000000000e+01" rms="0.0000000000000000e+00" purity="3.3062842488288879e-01" nType="0">
                <Node pos="l" depth="5" NCoef="0" IVar="-1" Cut="0.0000000000000000e+00" cType="1" res="-9.9000000000000000e+01" rms="0.0000000000000000e+00" purity="6.2778776884078979e-01" nType="1"/>
                <Node pos="r" depth="5" NCoef="0" IVar="-1" Cut="3.8684928417205811e+00" cType="0" res="-9.9000000000000000e+01" rms="0.0000000000000000e+00" purity="2.1770100295543671e-01" nType="-1"/>
              </Node>
            </Node>
          </Node>
          <Node pos="r" depth="2" NCoef="0" IVar="5" Cut="3.0681154727935791e+00" cType="0" res="-9.9000000000000000e+01" rms="0.0000000000000000e+00" purity="4.3925669789314270e-01" nType="0">
            <Node pos="l" depth="3" NCoef="0" IVar="-1" Cut="-2.1429805755615234e+00" cType="1" res="-9.9000000000000000e+01" rms="0.0000000000000000e+00" purity="5.2100467681884766e-01" nType="1"/>
            <Node pos="r" depth="3" NCoef="0" IVar="-1" Cut="8.3306252956390381e-01" cType="1" res="-9.9000000000000000e+01" rms="0.0000000000000000e+00" purity="3.6035773158073425e-01" nType="-1"/>
          </Node>
        </Node>
        <Node pos="r" depth="1" NCoef="0" IVar="6" Cut="5.7715320587158203e+01" cType="0" res="-9.9000000000000000e+01" rms="0.0000000000000000e+00" purity="3.9956837892532349e-01" nType="0">
          <Node pos="l" depth="2" NCoef="0" IVar="1" Cut="-2.4609837681055069e-02" cType="1" res="-9.9000000000000000e+01" rms="0.0000000000000000e+00" purity="4.2356771230697632e-01" nType="0">
            <Node pos="l" depth="3" NCoef="0" IVar="-1" Cut="-5.8695161342620850e-01" cType="0" res="-9.9000000000000000e+01" rms="0.0000000000000000e+00" purity="5.3423702716827393e-01" nType="1"/>
            <Node pos="r" depth="3" NCoef="0" IVar="-1" Cut="7.0871776342391968e-01" cType="1" res="-9.9000000000000000e+01" rms="0.0000000000000000e+00" purity="3.7414833903312683e-01" nType="-1"/>
          </Node>
          <Node pos="r" depth="2" NCoef="0" IVar="-1" Cut="2.8705757856369019e-01" cType="0" res="-9.9000000000000000e+01" rms="0.0000000000000000e+00" purity="8.9290894567966461e-02" nType="-1"/>
        </Node>
      </Node>
    </BinaryTree>
    <BinaryTree type="DecisionTree" boostWeight="9.4320160650045226e-01" itree="8">
      <Node pos="s" depth="0" NCoef="0" IVar="0" Cut="8.7558859586715698e-01" cType="1" res="-9.9000000000000000e+01" rms="0.0000000000000000e+00" purity="5.0561547279357910e-01" nType="0">
        <Node pos="l" depth="1" NCoef="0" IVar="1" Cut="1.3919793367385864e+00" cType="1" res="-9.9000000000000000e+01" rms="0.0000000000000000e+00" purity="5.2180087566375732e-01" nType="0">
          <Node pos="l" depth="2" NCoef="0" IVar="1" Cut="6.1194717884063721e-01" cType="1" res="-9.9000000000000000e+01" rms="0.0000000000000000e+00" purity="5.3023153543472290e-01" nType="0">
            <Node pos="l" depth="3" NCoef="0" IVar="2" Cut="-3.5164871215820312e+00" cType="1" res="-9.9000000000000000e+01" rms="0.0000000000000000e+00" purity="5.4081016778945923e-01" nType="0">
              <Node pos="l" depth="4" NCoef="0" IVar="-1" Cut="0.0000000000000000e+00" cType="1" res="-9.9000000000000000e+01" rms="0.0000000000000000e+00" purity="8.7258082628250122e-01" nType="1"/>
              <Node pos="r" depth="4" NCoef="0" IVar="2" Cut="-2.8306765556335449e+00" cType="0" res="-9.9000000000000000e+01" rms="0.0000000000000000e+00" purity="5.3978884220123291e-01" nType="0">
                <Node pos="l" depth="5" NCoef="0" IVar="6" Cut="5.3016761779785156e+01" cType="0" res="-9.9000000000000000e+01" rms="0.0000000000000000e+00" purity="5.4190480709075928e-01" nType="0">
                  <Node pos="l" depth="6" NCoef="0" IVar="2" Cut="1.2358593940734863e-01" cType="1" res="-9.9000000000000000e+01" rms="0.0000000000000000e+00" purity="5.4527556896209717e-01" nType="0">
                    <Node pos="l" depth="7" NCoef="0" IVar="3" Cut="1.1091761589050293e+01" cType="0" res="-9.9000000000000000e+01" rms="0.0000000000000000e+00" purity="5.4676210880279541e-01" nType="0">
                      <Node pos="l" depth="8" NCoef="0" IVar="-1" Cut="-2.9956173896789551e-01" cType="0" res="-9.9000000000000000e+01" rms="0.0000000000000000e+00" purity="5.5316466093063354e-01" nType="1"/>
                      <Node pos="r" depth="8" NCoef="0" IVar="3" Cut="6.4566140174865723e+00" cType="0" res="-9.9000000000000000e+01" rms="0.0000000000000000e+00" purity="4.7889822721481323e-01" nType="0">
                        <Node pos="l" depth="9" NCoef="0" IVar="4" Cut="-3.4258747100830078e-01" cType="1" res="-9.9000000000000000e+01" rms="0.0000000000000000e+00" purity="5.0976884365081787e-01" nType="0">
                          <Node pos="l" depth="10" NCoef="0" IVar="-1" Cut="3.4995492553710938e+02" cType="0" res="-9.9000000000000000e+01" rms="0.0000000000000000e+00" purity="6.9126367568969727e-01" nType="1"/>
                          <Node pos="r" depth="10" NCoef="0" IVar="4" Cut="4.5988142490386963e-02" cType="1" res="-9.9000000000000000e+01" rms="0.0000000000000000e+00" purity="4.4226872920989990e-01" nType="0">
                            <Node pos="l" depth="11" NCoef="0" IVar="-1" Cut="3.2378013134002686e+00" cType="0" res="-9.9000000000000000e+01" rms="0.0000000000000000e+00" purity="6.5854591131210327e-01" nType="1"/>
                            <Node pos="r" depth="11" NCoef="0" IVar="3" Cut="1.0006052970886230e+01" cType="0" res="-9.9000000000000000e+01" rms="0.0000000000000000e+00" purity="3.6587187647819519e-01" nType="0">
                              <Node pos="l" depth="12" NCoef="0" IVar="6" Cut="9.1872749328613281e+01" cType="1" res="-9.9000000000000000e+01" rms="0.0000000000000000e+00" purity="4.4644260406494141e-01" nType="0">
                                <Node pos="l" depth="13" NCoef="0" IVar="-1" Cut="0.0000000000000000e+00" cType="1" res="-9.9000000000000000e+01" rms="0.0000000000000000e+00" purity="8.5401004552841187e-01" nType="1"/>
                                <Node pos="r" depth="13" NCoef="0" IVar="-1" Cut="1.0437943041324615e-01" cType="1" res="-9.9000000000000000e+01" rms="0.0000000000000000e+00" purity="3.9910244941711426e-01" nType="-1"/>
                              </Node>
                              <Node pos="r" depth="12" NCoef="0" IVar="-1" Cut="2.2534821927547455e-01" cType="1" res="-9.9000000000000000e+01" rms="0.0000000000000000e+00" purity="2.0285841822624207e-01" nType="-1"/>
                            </Node>
                          </Node>
                        </Node>
                        <Node pos="r" depth="9" NCoef="0" IVar="-1" Cut="4.3535757064819336e+00" cType="0" res="-9.9000000000000000e+01" rms="0.0000000000000000e+00" purity="3.4464341588318348e-03" nType="-1"/>
                      </Node>
                    </Node>
                    <Node pos="r" depth="7" NCoef="0" IVar="-1" Cut="6.9117657840251923e-03" cType="0" res="-9.9000000000000000e+01" rms="0.0000000000000000e+00" purity="3.0262202024459839e-01" nType="-1"/>
                  </Node>
                  <Node pos="r" depth="6" NCoef="0" IVar="0" Cut="-8.0377504229545593e-02" cType="0" res="-9.9000000000000000e+01" rms="0.0000000000000000e+00" purity="4.7620123624801636e-01" nType="0">
                    <Node pos="l" depth="7" NCoef="0" IVar="-1" Cut="4.2974330902099609e+01" cType="1" res="-9.9000000000000000e+01" rms="0.0000000000000000e+00" purity="5.4210555553436279e-01" nType="1"/>
                    <Node pos="r" depth="7" NCoef="0" IVar="3" Cut="9.7754869461059570e+00" cType="0" res="-9.9000000000000000e+01" rms="0.0000000000000000e+00" purity="3.3599105477333069e-01" nType="0">
                      <Node pos="l" depth="8" NCoef="0" IVar="4" Cut="3.0703991651535034e-01" cType="1" res="-9.9000000000000000e+01" rms="0.0000000000000000e+00" purity="4.4046834111213684e-01" nType="0">
                        <Node pos="l" depth="9" NCoef="0" IVar="-1" Cut="0.0000000000000000e+00" cType="1" res="-9.9000000000000000e+01" rms="0.0000000000000000e+00" purity="8.5082006454467773e-01" nType="1"/>
                        <Node pos="r" depth="9" NCoef="0" IVar="-1" Cut="-1.5975522994995117e+00" cType="1" res="-9.9000000000000000e+01" rms="0.0000000000000000e+00" purity="3.1790220737457275e-01" nType="-1"/>
                      </Node>
                      <Node pos="r" depth="8" NCoef="0" IVar="-1" Cut="0.0000000000000000e+00" cType="1" res="-9.9000000000000000e+01" rms="0.0000000000000000e+00" purity="3.4428589046001434e-02" nType="-1"/>
                    </Node>
                  </Node>
                </Node>
                <Node pos="r" depth="5" NCoef="0" IVar="-1" Cut="-2.9284901618957520e+00" cType="1" res="-9.9000000000000000e+01" rms="0.0000000000000000e+00" purity="4.3748292326927185e-01" nType="-1"/>
              </Node>
            </Node>
            <Node pos="r" depth="3" NCoef="0" IVar="1" Cut="1.2431049346923828e+00" cType="0" res="-9.9000000000000000e+01" rms="0.0000000000000000e+00" purity="4.9883723258972168e-01" nType="0">
              <Node pos="l" depth="4" NCoef="0" IVar="5" Cut="2.6862390041351318e+00" cType="0" res="-9.9000000000000000e+01" rms="0.0000000000000000e+00" purity="6.0495769977569580e-01" nType="0">
                <Node pos="l" depth="5" NCoef="0" IVar="-1" Cut="1.6203130722045898e+01" cType="0" res="-9.9000000000000000e+01" rms="0.0000000000000000e+00" purity="6.5808624029159546e-01" nType="1"/>
                <Node pos="r" depth="5" NCoef="0" IVar="-1" Cut="-8.6339376866817474e-02" cType="1" res="-9.9000000000000000e+01" rms="0.0000000000000000e+00" purity="3.2249921560287476e-01" nType="-1"/>
              </Node>
              <Node pos="r" depth="4" NCoef="0" IVar="5" Cut="3.7643022537231445e+00" cType="0" res="-9.9000000000000000e+01" rms="0.0000000000000000e+00" purity="4.8666065931320190e-01" nType="0">
                <Node pos="l" depth="5" NCoef="0" IVar="-1" Cut="0.0000000000000000e+00" cType="1" res="-9.9000000000000000e+01" rms="0.0000000000000000e+00" purity="8.5066366195678711e-01" nType="1"/>
                <Node pos="r" depth="5" NCoef="0" IVar="6" Cut="1.9449014282226562e+02" cType="0" res="-9.9000000000000000e+01" rms="0.0000000000000000e+00" purity="4.8341220617294312e-01" nType="0">
                  <Node pos="l" depth="6" NCoef="0" IVar="2" Cut="-4.8486661911010742e-01" cType="1" res="-9.9000000000000000e+01" rms="0.0000000000000000e+00" purity="5.0909304618835449e-01" nType="0">
                    <Node pos="l" depth="7" NCoef="0" IVar="-1" Cut="7.8470933437347412e-01" cType="1" res="-9.9000000000000000e+01" rms="0.0000000000000000e+00" purity="5.2721393108367920e-01" nType="1"/>
                    <Node pos="r" depth="7" NCoef="0" IVar="-1" Cut="9.0417885780334473e-01" cType="1" res="-9.9000000000000000e+01" rms="0.0000000000000000e+00" purity="2.8719833493232727e-01" nType="-1"/>
                  </Node>
                  <Node pos="r" depth="6" NCoef="0" IVar="2" Cut="-4.5730143785476685e-01" cType="0" res="-9.9000000000000000e+01" rms="0.0000000000000000e+00" purity="4.3330779671669006e-01" nType="0">
                    <Node pos="l" depth="7" NCoef="0" IVar="5" Cut="2.6532168388366699e+00" cType="0" res="-9.9000000000000000e+01" rms="0.0000000000000000e+00" purity="5.9181046485900879e-01" nType="0">
                      <Node pos="l" depth="8" NCoef="0" IVar="-1" Cut="4.0778316497802734e+01" cType="1" res="-9.9000000000000000e+01" rms="0.0000000000000000e+00" purity="6.4830690622329712e-01" nType="1"/>
                      <Node pos="r" depth="8" NCoef="0" IVar="-1" Cut="0.0000000000000000e+00" cType="1" res="-9.9000000000000000e+01" rms="0.0000000000000000e+00" purity="0.0000000000000000e+00" nType="-1"/>
                    </Node>
                    <Node pos="r" depth="7" NCoef="0" IVar="-1" Cut="6.3292355537414551e+00" cType="0" res="-9.9000000000000000e+01" rms="0.0000000000000000e+00" purity="3.8257384300231934e-01" nType="-1"/>
                  </Node>
                </Node>
              </Node>
            </Node>
          </Node>
          <Node pos="r" depth="2" NCoef="0" IVar="-1" Cut="3.9651880264282227e+00" cType="1" res="-9.9000000000000000e+01" rms="0.0000000000000000e+00" purity="4.3657320737838745e-01" nType="-1"/>
        </Node>
        <Node pos="r" depth="1" NCoef="0" IVar="5" Cut="3.5502278804779053e+00" cType="0" res="-9.9000000000000000e+01" rms="0.0000000000000000e+00" purity="3.9457103610038757e-01" nType="0">
          <Node pos="l" depth="2" NCoef="0" IVar="-1" Cut="-1.0126676559448242e+00" cType="1" res="-9.9000000000000000e+01" rms="0.0000000000000000e+00" purity="6.0811364650726318e-01" nType="1"/>
          <Node pos="r" depth="2" NCoef="0" IVar="-1" Cut="7.0677000284194946e-01" cType="1" res="-9.9000000000000000e+01" rms="0.0000000000000000e+00" purity="3.6935275793075562e-01" nType="-1"/>
        </Node>
      </Node>
    </BinaryTree>
    <BinaryTree type="DecisionTree" boostWeight="8.5829247199624736e-01" itree="9">
      <Node pos="s" depth="0" NCoef="0" IVar="0" Cut="3.1338861584663391e-01" cType="1" res="-9.9000000000000000e+01" rms="0.0000000000000000e+00" purity="4.9674296379089355e-01" nType="0">
