<?xml version="1.0"?>
<MethodSetup Method="BDT::BDT_0">
  <GeneralInfo>
    <Info name="TMVA Release" value="4.2.0 [262656]"/>
    <Info name="ROOT Release" value="5.34/15 [336399]"/>
    <Info name="Creator" value="epuesche"/>
    <Info name="Date" value="Wed Feb  4 04:48:56 2015"/>
    <Info name="Host" value="Linux cvrsvc03 2.6.32-358.18.1.el6.nersc.x86_64 #1 SMP Wed Aug 28 02:17:42 PDT 2013 x86_64 x86_64 x86_64 GNU/Linux"/>
    <Info name="Dir" value="/global/u1/e/epuesche"/>
    <Info name="Training events" value="200000"/>
    <Info name="TrainingTime" value="2.08840454e+02"/>
    <Info name="AnalysisType" value="Classification"/>
  </GeneralInfo>
  <Options>
    <Option name="V" modified="No">False</Option>
    <Option name="VerbosityLevel" modified="No">Default</Option>
    <Option name="VarTransform" modified="No">None</Option>
    <Option name="H" modified="No">False</Option>
    <Option name="CreateMVAPdfs" modified="No">False</Option>
    <Option name="IgnoreNegWeightsInTraining" modified="No">False</Option>
    <Option name="NTrees" modified="Yes">200</Option>
    <Option name="MaxDepth" modified="Yes">50</Option>
    <Option name="MinNodeSize" modified="No">0.0500003.2</Option>
    <Option name="nCuts" modified="Yes">20</Option>
    <Option name="BoostType" modified="Yes">AdaBoost</Option>
    <Option name="AdaBoostR2Loss" modified="No">quadratic</Option>
    <Option name="UseBaggedBoost" modified="No">False</Option>
    <Option name="Shrinkage" modified="No">1.000000e+00</Option>
    <Option name="AdaBoostBeta" modified="Yes">1.000000e+00</Option>
    <Option name="UseRandomisedTrees" modified="No">False</Option>
    <Option name="UseNvars" modified="No">3</Option>
    <Option name="UsePoissonNvars" modified="No">True</Option>
    <Option name="BaggedSampleFraction" modified="No">6.000000e-01</Option>
    <Option name="UseYesNoLeaf" modified="Yes">True</Option>
    <Option name="NegWeightTreatment" modified="No">inverseboostnegweights</Option>
    <Option name="Css" modified="No">1.000000e+00</Option>
    <Option name="Cts_sb" modified="No">1.000000e+00</Option>
    <Option name="Ctb_ss" modified="No">1.000000e+00</Option>
    <Option name="Cbb" modified="No">1.000000e+00</Option>
    <Option name="NodePurityLimit" modified="No">5.000000e-01</Option>
    <Option name="SeparationType" modified="Yes">giniindex</Option>
    <Option name="DoBoostMonitor" modified="No">False</Option>
    <Option name="UseFisherCuts" modified="No">False</Option>
    <Option name="MinLinCorrForFisher" modified="No">8.000000e-01</Option>
    <Option name="UseExclusiveVars" modified="No">False</Option>
    <Option name="DoPreselection" modified="No">False</Option>
    <Option name="SigToBkgFraction" modified="No">1.000000e+00</Option>
    <Option name="PruneMethod" modified="Yes">costcomplexity</Option>
    <Option name="PruneStrength" modified="Yes">-1.000000e+00</Option>
    <Option name="PruningValFraction" modified="No">5.000000e-01</Option>
    <Option name="nEventsMin" modified="Yes">100</Option>
    <Option name="UseBaggedGrad" modified="No">False</Option>
    <Option name="GradBaggingFraction" modified="No">6.000000e-01</Option>
    <Option name="UseNTrainEvents" modified="No">0</Option>
    <Option name="NNodesMax" modified="No">0</Option>
  </Options>
  <Variables NVar="7">
    <Variable VarIndex="0" Expression="MSCW" Label="MSCW" Title="MSCW" Unit="" Internal="MSCW" Type="F" Min="-1.98922157e+00" Max="1.99999583e+00"/>
    <Variable VarIndex="1" Expression="MSCL" Label="MSCL" Title="MSCL" Unit="" Internal="MSCL" Type="F" Min="-1.93833852e+00" Max="4.99964571e+00"/>
    <Variable VarIndex="2" Expression="log10(EChi2S)" Label="log10(EChi2S)" Title="log10(EChi2S)" Unit="" Internal="log10_EChi2S_" Type="F" Min="-5.78166485e+00" Max="1.29014897e+00"/>
    <Variable VarIndex="3" Expression="EmissionHeight" Label="EmissionHeight" Title="EmissionHeight" Unit="" Internal="EmissionHeight" Type="F" Min="7.76334524e-01" Max="1.11520154e+03"/>
    <Variable VarIndex="4" Expression="log10(EmissionHeightChi2)" Label="log10(EmissionHeightChi2)" Title="log10(EmissionHeightChi2)" Unit="" Internal="log10_EmissionHeightChi2_" Type="F" Min="-1.00000000e+01" Max="2.64916849e+00"/>
    <Variable VarIndex="5" Expression="log10(SizeSecondMax)" Label="log10(SizeSecondMax)" Title="log10(SizeSecondMax)" Unit="" Internal="log10_SizeSecondMax_" Type="F" Min="2.00045109e+00" Max="4.54027271e+00"/>
    <Variable VarIndex="6" Expression="sqrt(Xcore*Xcore+Ycore*Ycore)" Label="sqrt(Xcore*Xcore+Ycore*Ycore)" Title="sqrt(Xcore*Xcore+Ycore*Ycore)" Unit="" Internal="sqrt_Xcore_T_Xcore_P_Ycore_T_Ycore_" Type="F" Min="2.31265649e-01" Max="6.16508911e+02"/>
  </Variables>
  <Spectators NSpec="4">
    <Spectator SpecIndex="0" Expression="NImages" Label="NImages" Title="NImages" Unit="" Internal="NImages" Type="F" Min="2.00000000e+00" Max="4.00000000e+00"/>
    <Spectator SpecIndex="1" Expression="Xoff" Label="Xoff" Title="Xoff" Unit="" Internal="Xoff" Type="F" Min="-7.73713470e-01" Max="7.74251819e-01"/>
    <Spectator SpecIndex="2" Expression="Yoff" Label="Yoff" Title="Yoff" Unit="" Internal="Yoff" Type="F" Min="-7.74367452e-01" Max="7.74127603e-01"/>
    <Spectator SpecIndex="3" Expression="ErecS" Label="ErecS" Title="ErecS" Unit="" Internal="ErecS" Type="F" Min="3.16229314e-01" Max="5.01186252e-01"/>
  </Spectators>
  <Classes NClass="2">
    <Class Name="Signal" Index="0"/>
    <Class Name="Background" Index="1"/>
  </Classes>
  <Transformations NTransformations="0"/>
  <MVAPdfs/>
  <Weights NTrees="200" AnalysisType="0">
    <BinaryTree type="DecisionTree" boostWeight="1.8348826371591138e+00" itree="0">
      <Node pos="s" depth="0" NCoef="0" IVar="0" Cut="6.7015314102172852e-01" cType="1" res="-9.9000000000000000e+01" rms="0.0000000000000000e+00" purity="5.0000000000000000e-01" nType="0">
        <Node pos="l" depth="1" NCoef="0" IVar="1" Cut="9.5911216735839844e-01" cType="1" res="-9.9000000000000000e+01" rms="0.0000000000000000e+00" purity="7.1926671266555786e-01" nType="0">
          <Node pos="l" depth="2" NCoef="0" IVar="6" Cut="2.3383738708496094e+02" cType="1" res="-9.9000000000000000e+01" rms="0.0000000000000000e+00" purity="7.7532011270523071e-01" nType="0">
            <Node pos="l" depth="3" NCoef="0" IVar="2" Cut="-8.0775266885757446e-01" cType="1" res="-9.9000000000000000e+01" rms="0.0000000000000000e+00" purity="7.9919844865798950e-01" nType="0">
              <Node pos="l" depth="4" NCoef="0" IVar="0" Cut="3.5413876175880432e-01" cType="1" res="-9.9000000000000000e+01" rms="0.0000000000000000e+00" purity="8.4053981304168701e-01" nType="0">
                <Node pos="l" depth="5" NCoef="0" IVar="1" Cut="4.7950521111488342e-01" cType="1" res="-9.9000000000000000e+01" rms="0.0000000000000000e+00" purity="8.6192840337753296e-01" nType="0">
                  <Node pos="l" depth="6" NCoef="0" IVar="5" Cut="2.3571002483367920e+00" cType="0" res="-9.9000000000000000e+01" rms="0.0000000000000000e+00" purity="8.7364441156387329e-01" nType="0">
                    <Node pos="l" depth="7" NCoef="0" IVar="2" Cut="-1.2741860151290894e+00" cType="1" res="-9.9000000000000000e+01" rms="0.0000000000000000e+00" purity="8.7586766481399536e-01" nType="0">
                      <Node pos="l" depth="8" NCoef="0" IVar="6" Cut="2.1162030029296875e+02" cType="1" res="-9.9000000000000000e+01" rms="0.0000000000000000e+00" purity="8.9380425214767456e-01" nType="0">
                        <Node pos="l" depth="9" NCoef="0" IVar="4" Cut="-9.4144706726074219e+00" cType="0" res="-9.9000000000000000e+01" rms="0.0000000000000000e+00" purity="8.9888799190521240e-01" nType="0">
                          <Node pos="l" depth="10" NCoef="0" IVar="-1" Cut="-5.5353635549545288e-01" cType="1" res="-9.9000000000000000e+01" rms="0.0000000000000000e+00" purity="9.0496265888214111e-01" nType="1"/>
                          <Node pos="r" depth="10" NCoef="0" IVar="6" Cut="1.1296886444091797e+02" cType="0" res="-9.9000000000000000e+01" rms="0.0000000000000000e+00" purity="8.6295419931411743e-01" nType="0">
                            <Node pos="l" depth="11" NCoef="0" IVar="-1" Cut="7.9204101562500000e+00" cType="0" res="-9.9000000000000000e+01" rms="0.0000000000000000e+00" purity="8.8707035779953003e-01" nType="1"/>
                            <Node pos="r" depth="11" NCoef="0" IVar="6" Cut="9.2176712036132812e+01" cType="0" res="-9.9000000000000000e+01" rms="0.0000000000000000e+00" purity="4.6008881926536560e-01" nType="0">
                              <Node pos="l" depth="12" NCoef="0" IVar="-1" Cut="1.0505101776123047e+02" cType="0" res="-9.9000000000000000e+01" rms="0.0000000000000000e+00" purity="6.0520809888839722e-01" nType="1"/>
                              <Node pos="r" depth="12" NCoef="0" IVar="-1" Cut="0.0000000000000000e+00" cType="1" res="-9.9000000000000000e+01" rms="0.0000000000000000e+00" purity="1.5765792131423950e-01" nType="-1"/>
                            </Node>
                          </Node>
                        </Node>
                        <Node pos="r" depth="9" NCoef="0" IVar="-1" Cut="2.2749470520019531e+02" cType="1" res="-9.9000000000000000e+01" rms="0.0000000000000000e+00" purity="8.1497275829315186e-01" nType="1"/>
                      </Node>
                      <Node pos="r" depth="8" NCoef="0" IVar="3" Cut="5.4777798652648926e+00" cType="0" res="-9.9000000000000000e+01" rms="0.0000000000000000e+00" purity="8.4468251466751099e-01" nType="0">
                        <Node pos="l" depth="9" NCoef="0" IVar="3" Cut="9.7472696304321289e+00" cType="0" res="-9.9000000000000000e+01" rms="0.0000000000000000e+00" purity="8.4866917133331299e-01" nType="0">
                          <Node pos="l" depth="10" NCoef="0" IVar="6" Cut="2.0118707275390625e+02" cType="1" res="-9.9000000000000000e+01" rms="0.0000000000000000e+00" purity="8.7628084421157837e-01" nType="0">
                            <Node pos="l" depth="11" NCoef="0" IVar="-1" Cut="-3.3752334117889404e-01" cType="1" res="-9.9000000000000000e+01" rms="0.0000000000000000e+00" purity="8.8959515094757080e-01" nType="1"/>
                            <Node pos="r" depth="11" NCoef="0" IVar="3" Cut="1.4169981956481934e+01" cType="1" res="-9.9000000000000000e+01" rms="0.0000000000000000e+00" purity="7.4692714214324951e-01" nType="0">
                              <Node pos="l" depth="12" NCoef="0" IVar="-1" Cut="-2.4118982255458832e-01" cType="1" res="-9.9000000000000000e+01" rms="0.0000000000000000e+00" purity="7.8321748971939087e-01" nType="1"/>
                              <Node pos="r" depth="12" NCoef="0" IVar="-1" Cut="0.0000000000000000e+00" cType="1" res="-9.9000000000000000e+01" rms="0.0000000000000000e+00" purity="4.5603349804878235e-01" nType="-1"/>
                            </Node>
                          </Node>
                          <Node pos="r" depth="10" NCoef="0" IVar="3" Cut="7.3161568641662598e+00" cType="0" res="-9.9000000000000000e+01" rms="0.0000000000000000e+00" purity="8.1546038389205933e-01" nType="0">
                            <Node pos="l" depth="11" NCoef="0" IVar="-1" Cut="8.8210725784301758e+00" cType="0" res="-9.9000000000000000e+01" rms="0.0000000000000000e+00" purity="8.3554565906524658e-01" nType="1"/>
                            <Node pos="r" depth="11" NCoef="0" IVar="2" Cut="-9.4250667095184326e-01" cType="1" res="-9.9000000000000000e+01" rms="0.0000000000000000e+00" purity="6.5858834981918335e-01" nType="0">
                              <Node pos="l" depth="12" NCoef="0" IVar="-1" Cut="6.6202535629272461e+00" cType="0" res="-9.9000000000000000e+01" rms="0.0000000000000000e+00" purity="7.0083039999008179e-01" nType="1"/>
                              <Node pos="r" depth="12" NCoef="0" IVar="5" Cut="2.9315700531005859e+00" cType="0" res="-9.9000000000000000e+01" rms="0.0000000000000000e+00" purity="5.1261025667190552e-01" nType="0">
                                <Node pos="l" depth="13" NCoef="0" IVar="-1" Cut="0.0000000000000000e+00" cType="1" res="-9.9000000000000000e+01" rms="0.0000000000000000e+00" purity="6.1392313241958618e-01" nType="1"/>
                                <Node pos="r" depth="13" NCoef="0" IVar="-1" Cut="0.0000000000000000e+00" cType="1" res="-9.9000000000000000e+01" rms="0.0000000000000000e+00" purity="3.6502593755722046e-01" nType="-1"/>
                              </Node>
                            </Node>
                          </Node>
                        </Node>
                        <Node pos="r" depth="9" NCoef="0" IVar="-1" Cut="0.0000000000000000e+00" cType="1" res="-9.9000000000000000e+01" rms="0.0000000000000000e+00" purity="3.3829835057258606e-01" nType="-1"/>
                      </Node>
                    </Node>
                    <Node pos="r" depth="7" NCoef="0" IVar="5" Cut="2.2862424850463867e+00" cType="0" res="-9.9000000000000000e+01" rms="0.0000000000000000e+00" purity="5.5103439092636108e-01" nType="0">
                      <Node pos="l" depth="8" NCoef="0" IVar="-1" Cut="2.1152668762207031e+02" cType="1" res="-9.9000000000000000e+01" rms="0.0000000000000000e+00" purity="6.4423352479934692e-01" nType="1"/>
                      <Node pos="r" depth="8" NCoef="0" IVar="-1" Cut="0.0000000000000000e+00" cType="1" res="-9.9000000000000000e+01" rms="0.0000000000000000e+00" purity="3.9167258143424988e-01" nType="-1"/>
                    </Node>
                  </Node>
                  <Node pos="r" depth="6" NCoef="0" IVar="3" Cut="4.8227319717407227e+00" cType="0" res="-9.9000000000000000e+01" rms="0.0000000000000000e+00" purity="7.8225404024124146e-01" nType="0">
                    <Node pos="l" depth="7" NCoef="0" IVar="2" Cut="-1.0019462108612061e+00" cType="1" res="-9.9000000000000000e+01" rms="0.0000000000000000e+00" purity="7.9777723550796509e-01" nType="0">
                      <Node pos="l" depth="8" NCoef="0" IVar="6" Cut="7.9363456726074219e+01" cType="0" res="-9.9000000000000000e+01" rms="0.0000000000000000e+00" purity="8.2122671604156494e-01" nType="0">
                        <Node pos="l" depth="9" NCoef="0" IVar="6" Cut="2.1160040283203125e+02" cType="1" res="-9.9000000000000000e+01" rms="0.0000000000000000e+00" purity="8.4093922376632690e-01" nType="0">
                          <Node pos="l" depth="10" NCoef="0" IVar="3" Cut="7.4509215354919434e+00" cType="0" res="-9.9000000000000000e+01" rms="0.0000000000000000e+00" purity="8.5414874553680420e-01" nType="0">
                            <Node pos="l" depth="11" NCoef="0" IVar="-1" Cut="-1.1877764463424683e+00" cType="1" res="-9.9000000000000000e+01" rms="0.0000000000000000e+00" purity="8.6863160133361816e-01" nType="1"/>
                            <Node pos="r" depth="11" NCoef="0" IVar="3" Cut="6.0745501518249512e+00" cType="0" res="-9.9000000000000000e+01" rms="0.0000000000000000e+00" purity="7.2488242387771606e-01" nType="0">
                              <Node pos="l" depth="12" NCoef="0" IVar="-1" Cut="1.2345763397216797e+02" cType="0" res="-9.9000000000000000e+01" rms="0.0000000000000000e+00" purity="7.8900057077407837e-01" nType="1"/>
                              <Node pos="r" depth="12" NCoef="0" IVar="-1" Cut="0.0000000000000000e+00" cType="1" res="-9.9000000000000000e+01" rms="0.0000000000000000e+00" purity="4.2739367485046387e-01" nType="-1"/>
                            </Node>
                          </Node>
                          <Node pos="r" depth="10" NCoef="0" IVar="-1" Cut="2.5206253528594971e+00" cType="0" res="-9.9000000000000000e+01" rms="0.0000000000000000e+00" purity="6.7754179239273071e-01" nType="1"/>
                        </Node>
                        <Node pos="r" depth="9" NCoef="0" IVar="-1" Cut="5.9305920600891113e+00" cType="0" res="-9.9000000000000000e+01" rms="0.0000000000000000e+00" purity="7.2846120595932007e-01" nType="1"/>
                      </Node>
                      <Node pos="r" depth="8" NCoef="0" IVar="0" Cut="1.4462877810001373e-01" cType="1" res="-9.9000000000000000e+01" rms="0.0000000000000000e+00" purity="6.6216224431991577e-01" nType="0">
                        <Node pos="l" depth="9" NCoef="0" IVar="-1" Cut="1.8979026794433594e+02" cType="1" res="-9.9000000000000000e+01" rms="0.0000000000000000e+00" purity="7.2629398107528687e-01" nType="1"/>
                        <Node pos="r" depth="9" NCoef="0" IVar="0" Cut="3.0175668001174927e-01" cType="1" res="-9.9000000000000000e+01" rms="0.0000000000000000e+00" purity="4.8501497507095337e-01" nType="0">
                          <Node pos="l" depth="10" NCoef="0" IVar="-1" Cut="-9.2765229940414429e-01" cType="1" res="-9.9000000000000000e+01" rms="0.0000000000000000e+00" purity="5.6635963916778564e-01" nType="1"/>
                          <Node pos="r" depth="10" NCoef="0" IVar="-1" Cut="0.0000000000000000e+00" cType="1" res="-9.9000000000000000e+01" rms="0.0000000000000000e+00" purity="2.7570635080337524e-01" nType="-1"/>
                        </Node>
                      </Node>
                    </Node>
                    <Node pos="r" depth="7" NCoef="0" IVar="-1" Cut="2.9393465518951416e+00" cType="0" res="-9.9000000000000000e+01" rms="0.0000000000000000e+00" purity="2.1360455453395844e-01" nType="-1"/>
                  </Node>
                </Node>
                <Node pos="r" depth="5" NCoef="0" IVar="1" Cut="2.3986798524856567e-01" cType="1" res="-9.9000000000000000e+01" rms="0.0000000000000000e+00" purity="7.1162688732147217e-01" nType="0">
                  <Node pos="l" depth="6" NCoef="0" IVar="2" Cut="-1.2035087347030640e+00" cType="1" res="-9.9000000000000000e+01" rms="0.0000000000000000e+00" purity="7.8168725967407227e-01" nType="0">
                    <Node pos="l" depth="7" NCoef="0" IVar="3" Cut="9.9327783584594727e+00" cType="0" res="-9.9000000000000000e+01" rms="0.0000000000000000e+00" purity="8.1382346153259277e-01" nType="0">
                      <Node pos="l" depth="8" NCoef="0" IVar="-1" Cut="1.9076718139648438e+02" cType="1" res="-9.9000000000000000e+01" rms="0.0000000000000000e+00" purity="8.5237938165664673e-01" nType="1"/>
                      <Node pos="r" depth="8" NCoef="0" IVar="3" Cut="5.7687387466430664e+00" cType="0" res="-9.9000000000000000e+01" rms="0.0000000000000000e+00" purity="7.7896773815155029e-01" nType="0">
                        <Node pos="l" depth="9" NCoef="0" IVar="-1" Cut="9.5366220474243164e+00" cType="0" res="-9.9000000000000000e+01" rms="0.0000000000000000e+00" purity="7.9633045196533203e-01" nType="1"/>
                        <Node pos="r" depth="9" NCoef="0" IVar="-1" Cut="0.0000000000000000e+00" cType="1" res="-9.9000000000000000e+01" rms="0.0000000000000000e+00" purity="3.3466801047325134e-01" nType="-1"/>
                      </Node>
                    </Node>
                    <Node pos="r" depth="7" NCoef="0" IVar="3" Cut="8.7115726470947266e+00" cType="0" res="-9.9000000000000000e+01" rms="0.0000000000000000e+00" purity="7.0888096094131470e-01" nType="0">
                      <Node pos="l" depth="8" NCoef="0" IVar="-1" Cut="2.0165974426269531e+02" cType="1" res="-9.9000000000000000e+01" rms="0.0000000000000000e+00" purity="7.5270414352416992e-01" nType="1"/>
                      <Node pos="r" depth="8" NCoef="0" IVar="1" Cut="-7.3539870791137218e-03" cType="1" res="-9.9000000000000000e+01" rms="0.0000000000000000e+00" purity="5.4799824953079224e-01" nType="0">
                        <Node pos="l" depth="9" NCoef="0" IVar="-1" Cut="-9.7673237323760986e-01" cType="1" res="-9.9000000000000000e+01" rms="0.0000000000000000e+00" purity="6.6007769107818604e-01" nType="1"/>
                        <Node pos="r" depth="9" NCoef="0" IVar="3" Cut="7.5228538513183594e+00" cType="0" res="-9.9000000000000000e+01" rms="0.0000000000000000e+00" purity="4.4087243080139160e-01" nType="0">
                          <Node pos="l" depth="10" NCoef="0" IVar="-1" Cut="0.0000000000000000e+00" cType="1" res="-9.9000000000000000e+01" rms="0.0000000000000000e+00" purity="5.6312048435211182e-01" nType="1"/>
                          <Node pos="r" depth="10" NCoef="0" IVar="-1" Cut="0.0000000000000000e+00" cType="1" res="-9.9000000000000000e+01" rms="0.0000000000000000e+00" purity="2.8936785459518433e-01" nType="-1"/>
                        </Node>
                      </Node>
                    </Node>
                  </Node>
                  <Node pos="r" depth="6" NCoef="0" IVar="2" Cut="-1.1886197328567505e+00" cType="1" res="-9.9000000000000000e+01" rms="0.0000000000000000e+00" purity="5.8840072154998779e-01" nType="0">
                    <Node pos="l" depth="7" NCoef="0" IVar="6" Cut="1.1296077728271484e+02" cType="0" res="-9.9000000000000000e+01" rms="0.0000000000000000e+00" purity="6.4728546142578125e-01" nType="0">
                      <Node pos="l" depth="8" NCoef="0" IVar="-1" Cut="-1.7043286561965942e+00" cType="1" res="-9.9000000000000000e+01" rms="0.0000000000000000e+00" purity="7.1196645498275757e-01" nType="1"/>
                      <Node pos="r" depth="8" NCoef="0" IVar="4" Cut="-1.5454055070877075e+00" cType="0" res="-9.9000000000000000e+01" rms="0.0000000000000000e+00" purity="5.6007856130599976e-01" nType="0">
                        <Node pos="l" depth="9" NCoef="0" IVar="4" Cut="-7.0966845750808716e-01" cType="1" res="-9.9000000000000000e+01" rms="0.0000000000000000e+00" purity="6.1448764801025391e-01" nType="0">
                          <Node pos="l" depth="10" NCoef="0" IVar="-1" Cut="3.9117038726806641e+01" cType="0" res="-9.9000000000000000e+01" rms="0.0000000000000000e+00" purity="7.6742774248123169e-01" nType="1"/>
                          <Node pos="r" depth="10" NCoef="0" IVar="3" Cut="6.2821836471557617e+00" cType="0" res="-9.9000000000000000e+01" rms="0.0000000000000000e+00" purity="5.8105313777923584e-01" nType="0">
                            <Node pos="l" depth="11" NCoef="0" IVar="6" Cut="3.4483871459960938e+01" cType="0" res="-9.9000000000000000e+01" rms="0.0000000000000000e+00" purity="6.1214804649353027e-01" nType="0">
                              <Node pos="l" depth="12" NCoef="0" IVar="0" Cut="5.3476482629776001e-01" cType="1" res="-9.9000000000000000e+01" rms="0.0000000000000000e+00" purity="6.4951521158218384e-01" nType="0">
                                <Node pos="l" depth="13" NCoef="0" IVar="-1" Cut="3.1139650940895081e-01" cType="1" res="-9.9000000000000000e+01" rms="0.0000000000000000e+00" purity="7.0450264215469360e-01" nType="1"/>
                                <Node pos="r" depth="13" NCoef="0" IVar="4" Cut="-2.4412287771701813e-01" cType="1" res="-9.9000000000000000e+01" rms="0.0000000000000000e+00" purity="5.4694175720214844e-01" nType="0">
                                  <Node pos="l" depth="14" NCoef="0" IVar="-1" Cut="0.0000000000000000e+00" cType="1" res="-9.9000000000000000e+01" rms="0.0000000000000000e+00" purity="6.5001481771469116e-01" nType="1"/>
                                  <Node pos="r" depth="14" NCoef="0" IVar="-1" Cut="0.0000000000000000e+00" cType="1" res="-9.9000000000000000e+01" rms="0.0000000000000000e+00" purity="4.1524925827980042e-01" nType="-1"/>
                                </Node>
                              </Node>
                              <Node pos="r" depth="12" NCoef="0" IVar="-1" Cut="0.0000000000000000e+00" cType="1" res="-9.9000000000000000e+01" rms="0.0000000000000000e+00" purity="3.3466801047325134e-01" nType="-1"/>
                            </Node>
                            <Node pos="r" depth="11" NCoef="0" IVar="-1" Cut="0.0000000000000000e+00" cType="1" res="-9.9000000000000000e+01" rms="0.0000000000000000e+00" purity="3.6204040050506592e-01" nType="-1"/>
                          </Node>
                        </Node>
                        <Node pos="r" depth="9" NCoef="0" IVar="-1" Cut="0.0000000000000000e+00" cType="1" res="-9.9000000000000000e+01" rms="0.0000000000000000e+00" purity="1.6765287145972252e-02" nType="-1"/>
                      </Node>
                    </Node>
                    <Node pos="r" depth="7" NCoef="0" IVar="3" Cut="7.0025324821472168e+00" cType="0" res="-9.9000000000000000e+01" rms="0.0000000000000000e+00" purity="4.5760393142700195e-01" nType="0">
                      <Node pos="l" depth="8" NCoef="0" IVar="0" Cut="5.3472363948822021e-01" cType="1" res="-9.9000000000000000e+01" rms="0.0000000000000000e+00" purity="4.9974557757377625e-01" nType="0">
                        <Node pos="l" depth="9" NCoef="0" IVar="4" Cut="-2.0381654798984528e-01" cType="1" res="-9.9000000000000000e+01" rms="0.0000000000000000e+00" purity="5.7289731502532959e-01" nType="0">
                          <Node pos="l" depth="10" NCoef="0" IVar="-1" Cut="-1.0263915061950684e+00" cType="1" res="-9.9000000000000000e+01" rms="0.0000000000000000e+00" purity="6.8157571554183960e-01" nType="1"/>
                          <Node pos="r" depth="10" NCoef="0" IVar="-1" Cut="5.7473927736282349e-01" cType="1" res="-9.9000000000000000e+01" rms="0.0000000000000000e+00" purity="4.9129536747932434e-01" nType="-1"/>
                        </Node>
                        <Node pos="r" depth="9" NCoef="0" IVar="-1" Cut="1.6777142333984375e+02" cType="1" res="-9.9000000000000000e+01" rms="0.0000000000000000e+00" purity="3.8909044861793518e-01" nType="-1"/>
                      </Node>
                      <Node pos="r" depth="8" NCoef="0" IVar="-1" Cut="5.3742656707763672e+00" cType="0" res="-9.9000000000000000e+01" rms="0.0000000000000000e+00" purity="2.6516747474670410e-01" nType="-1"/>
                    </Node>
                  </Node>
                </Node>
              </Node>
              <Node pos="r" depth="4" NCoef="0" IVar="0" Cut="3.0055615305900574e-01" cType="1" res="-9.9000000000000000e+01" rms="0.0000000000000000e+00" purity="6.3867753744125366e-01" nType="0">
                <Node pos="l" depth="5" NCoef="0" IVar="3" Cut="5.7157540321350098e+00" cType="0" res="-9.9000000000000000e+01" rms="0.0000000000000000e+00" purity="7.0637571811676025e-01" nType="0">
                  <Node pos="l" depth="6" NCoef="0" IVar="2" Cut="-1.7375555634498596e-01" cType="1" res="-9.9000000000000000e+01" rms="0.0000000000000000e+00" purity="7.2709035873413086e-01" nType="0">
                    <Node pos="l" depth="7" NCoef="0" IVar="6" Cut="1.7916311645507812e+02" cType="1" res="-9.9000000000000000e+01" rms="0.0000000000000000e+00" purity="7.5282531976699829e-01" nType="0">
                      <Node pos="l" depth="8" NCoef="0" IVar="1" Cut="1.2686382234096527e-01" cType="1" res="-9.9000000000000000e+01" rms="0.0000000000000000e+00" purity="7.7528637647628784e-01" nType="0">
                        <Node pos="l" depth="9" NCoef="0" IVar="-1" Cut="7.5502572059631348e+00" cType="0" res="-9.9000000000000000e+01" rms="0.0000000000000000e+00" purity="8.3905208110809326e-01" nType="1"/>
                        <Node pos="r" depth="9" NCoef="0" IVar="6" Cut="7.9181663513183594e+01" cType="0" res="-9.9000000000000000e+01" rms="0.0000000000000000e+00" purity="7.1718245744705200e-01" nType="0">
                          <Node pos="l" depth="10" NCoef="0" IVar="3" Cut="8.1341533660888672e+00" cType="0" res="-9.9000000000000000e+01" rms="0.0000000000000000e+00" purity="7.3664116859436035e-01" nType="0">
                            <Node pos="l" depth="11" NCoef="0" IVar="-1" Cut="2.8912532329559326e+00" cType="1" res="-9.9000000000000000e+01" rms="0.0000000000000000e+00" purity="7.5992703437805176e-01" nType="1"/>
                            <Node pos="r" depth="11" NCoef="0" IVar="0" Cut="-1.7843820154666901e-01" cType="1" res="-9.9000000000000000e+01" rms="0.0000000000000000e+00" purity="6.4377200603485107e-01" nType="0">
                              <Node pos="l" depth="12" NCoef="0" IVar="-1" Cut="-4.5192301273345947e-01" cType="1" res="-9.9000000000000000e+01" rms="0.0000000000000000e+00" purity="7.5112330913543701e-01" nType="1"/>
                              <Node pos="r" depth="12" NCoef="0" IVar="5" Cut="3.1438810825347900e+00" cType="0" res="-9.9000000000000000e+01" rms="0.0000000000000000e+00" purity="5.8603340387344360e-01" nType="0">
                                <Node pos="l" depth="13" NCoef="0" IVar="-1" Cut="0.0000000000000000e+00" cType="1" res="-9.9000000000000000e+01" rms="0.0000000000000000e+00" purity="7.8562760353088379e-01" nType="1"/>
                                <Node pos="r" depth="13" NCoef="0" IVar="2" Cut="-6.5621668100357056e-01" cType="1" res="-9.9000000000000000e+01" rms="0.0000000000000000e+00" purity="5.4748094081878662e-01" nType="0">
                                  <Node pos="l" depth="14" NCoef="0" IVar="-1" Cut="0.0000000000000000e+00" cType="1" res="-9.9000000000000000e+01" rms="0.0000000000000000e+00" purity="7.1550863981246948e-01" nType="1"/>
                                  <Node pos="r" depth="14" NCoef="0" IVar="-1" Cut="-6.0820299386978149e-01" cType="1" res="-9.9000000000000000e+01" rms="0.0000000000000000e+00" purity="4.9161809682846069e-01" nType="-1"/>
                                </Node>
                              </Node>
                            </Node>
                          </Node>
                          <Node pos="r" depth="10" NCoef="0" IVar="6" Cut="6.4805435180664062e+01" cType="0" res="-9.9000000000000000e+01" rms="0.0000000000000000e+00" purity="4.6592786908149719e-01" nType="0">
                            <Node pos="l" depth="11" NCoef="0" IVar="-1" Cut="7.4345062255859375e+01" cType="0" res="-9.9000000000000000e+01" rms="0.0000000000000000e+00" purity="5.4836136102676392e-01" nType="1"/>
                            <Node pos="r" depth="11" NCoef="0" IVar="-1" Cut="8.9203931391239166e-02" cType="1" res="-9.9000000000000000e+01" rms="0.0000000000000000e+00" purity="3.7076807022094727e-01" nType="-1"/>
                          </Node>
                        </Node>
                      </Node>
                      <Node pos="r" depth="8" NCoef="0" IVar="5" Cut="2.3346045017242432e+00" cType="0" res="-9.9000000000000000e+01" rms="0.0000000000000000e+00" purity="6.0715216398239136e-01" nType="0">
                        <Node pos="l" depth="9" NCoef="0" IVar="1" Cut="-3.5925334692001343e-01" cType="1" res="-9.9000000000000000e+01" rms="0.0000000000000000e+00" purity="6.2897998094558716e-01" nType="0">
                          <Node pos="l" depth="10" NCoef="0" IVar="5" Cut="2.6054627895355225e+00" cType="0" res="-9.9000000000000000e+01" rms="0.0000000000000000e+00" purity="7.7029412984848022e-01" nType="0">
                            <Node pos="l" depth="11" NCoef="0" IVar="-1" Cut="2.8862793445587158e+00" cType="1" res="-9.9000000000000000e+01" rms="0.0000000000000000e+00" purity="8.5415214300155640e-01" nType="1"/>
                            <Node pos="r" depth="11" NCoef="0" IVar="-1" Cut="0.0000000000000000e+00" cType="1" res="-9.9000000000000000e+01" rms="0.0000000000000000e+00" purity="4.8364111781120300e-01" nType="-1"/>
                          </Node>
                          <Node pos="r" depth="10" NCoef="0" IVar="2" Cut="-4.7744974493980408e-01" cType="1" res="-9.9000000000000000e+01" rms="0.0000000000000000e+00" purity="5.7713264226913452e-01" nType="0">
                            <Node pos="l" depth="11" NCoef="0" IVar="6" Cut="2.0771311950683594e+02" cType="1" res="-9.9000000000000000e+01" rms="0.0000000000000000e+00" purity="6.1497473716735840e-01" nType="0">
                              <Node pos="l" depth="12" NCoef="0" IVar="-1" Cut="-7.7858173847198486e-01" cType="1" res="-9.9000000000000000e+01" rms="0.0000000000000000e+00" purity="6.6426080465316772e-01" nType="1"/>
                              <Node pos="r" depth="12" NCoef="0" IVar="2" Cut="-7.2895634174346924e-01" cType="1" res="-9.9000000000000000e+01" rms="0.0000000000000000e+00" purity="5.2254980802536011e-01" nType="0">
                                <Node pos="l" depth="13" NCoef="0" IVar="-1" Cut="0.0000000000000000e+00" cType="1" res="-9.9000000000000000e+01" rms="0.0000000000000000e+00" purity="6.5888404846191406e-01" nType="1"/>
                                <Node pos="r" depth="13" NCoef="0" IVar="-1" Cut="-3.6661109328269958e-01" cType="1" res="-9.9000000000000000e+01" rms="0.0000000000000000e+00" purity="4.3737334012985229e-01" nType="-1"/>
                              </Node>
                            </Node>
                            <Node pos="r" depth="11" NCoef="0" IVar="-1" Cut="2.0000549316406250e+02" cType="1" res="-9.9000000000000000e+01" rms="0.0000000000000000e+00" purity="4.1551893949508667e-01" nType="-1"/>
                          </Node>
                        </Node>
                        <Node pos="r" depth="9" NCoef="0" IVar="-1" Cut="0.0000000000000000e+00" cType="1" res="-9.9000000000000000e+01" rms="0.0000000000000000e+00" purity="2.5977277755737305e-01" nType="-1"/>
                      </Node>
                    </Node>
                    <Node pos="r" depth="7" NCoef="0" IVar="6" Cut="7.7814170837402344e+01" cType="0" res="-9.9000000000000000e+01" rms="0.0000000000000000e+00" purity="5.2742165327072144e-01" nType="0">
                      <Node pos="l" depth="8" NCoef="0" IVar="0" Cut="8.7869592010974884e-02" cType="1" res="-9.9000000000000000e+01" rms="0.0000000000000000e+00" purity="5.7137531042098999e-01" nType="0">
                        <Node pos="l" depth="9" NCoef="0" IVar="6" Cut="1.5950799560546875e+02" cType="1" res="-9.9000000000000000e+01" rms="0.0000000000000000e+00" purity="6.3542723655700684e-01" nType="0">
                          <Node pos="l" depth="10" NCoef="0" IVar="3" Cut="7.3862447738647461e+00" cType="0" res="-9.9000000000000000e+01" rms="0.0000000000000000e+00" purity="6.8158775568008423e-01" nType="0">
                            <Node pos="l" depth="11" NCoef="0" IVar="5" Cut="3.1074798107147217e+00" cType="1" res="-9.9000000000000000e+01" rms="0.0000000000000000e+00" purity="7.4204951524734497e-01" nType="0">
                              <Node pos="l" depth="12" NCoef="0" IVar="-1" Cut="-5.6398246437311172e-02" cType="1" res="-9.9000000000000000e+01" rms="0.0000000000000000e+00" purity="7.8073185682296753e-01" nType="1"/>
                              <Node pos="r" depth="12" NCoef="0" IVar="-1" Cut="0.0000000000000000e+00" cType="1" res="-9.9000000000000000e+01" rms="0.0000000000000000e+00" purity="4.9356320500373840e-01" nType="-1"/>
                            </Node>
                            <Node pos="r" depth="11" NCoef="0" IVar="-1" Cut="0.0000000000000000e+00" cType="1" res="-9.9000000000000000e+01" rms="0.0000000000000000e+00" purity="3.8683891296386719e-01" nType="-1"/>
                          </Node>
                          <Node pos="r" depth="10" NCoef="0" IVar="-1" Cut="0.0000000000000000e+00" cType="1" res="-9.9000000000000000e+01" rms="0.0000000000000000e+00" purity="3.7764677405357361e-01" nType="-1"/>
                        </Node>
                        <Node pos="r" depth="9" NCoef="0" IVar="-1" Cut="2.9449206590652466e-01" cType="1" res="-9.9000000000000000e+01" rms="0.0000000000000000e+00" purity="3.3466798067092896e-01" nType="-1"/>
                      </Node>
                      <Node pos="r" depth="8" NCoef="0" IVar="-1" Cut="0.0000000000000000e+00" cType="1" res="-9.9000000000000000e+01" rms="0.0000000000000000e+00" purity="1.5921740233898163e-01" nType="-1"/>
                    </Node>
                  </Node>
                  <Node pos="r" depth="6" NCoef="0" IVar="-1" Cut="5.2524070739746094e+00" cType="0" res="-9.9000000000000000e+01" rms="0.0000000000000000e+00" purity="1.8575426936149597e-01" nType="-1"/>
                </Node>
                <Node pos="r" depth="5" NCoef="0" IVar="1" Cut="2.9026314616203308e-01" cType="1" res="-9.9000000000000000e+01" rms="0.0000000000000000e+00" purity="4.1172885894775391e-01" nType="0">
                  <Node pos="l" depth="6" NCoef="0" IVar="3" Cut="6.2675657272338867e+00" cType="0" res="-9.9000000000000000e+01" rms="0.0000000000000000e+00" purity="5.6362986564636230e-01" nType="0">
                    <Node pos="l" depth="7" NCoef="0" IVar="2" Cut="-1.5609870851039886e-01" cType="1" res="-9.9000000000000000e+01" rms="0.0000000000000000e+00" purity="5.8924567699432373e-01" nType="0">
                      <Node pos="l" depth="8" NCoef="0" IVar="1" Cut="-1.5596014261245728e-01" cType="1" res="-9.9000000000000000e+01" rms="0.0000000000000000e+00" purity="6.2219536304473877e-01" nType="0">
                        <Node pos="l" depth="9" NCoef="0" IVar="6" Cut="1.9656074523925781e+02" cType="1" res="-9.9000000000000000e+01" rms="0.0000000000000000e+00" purity="7.4566513299942017e-01" nType="0">
                          <Node pos="l" depth="10" NCoef="0" IVar="-1" Cut="-5.0139969587326050e-01" cType="1" res="-9.9000000000000000e+01" rms="0.0000000000000000e+00" purity="7.8957009315490723e-01" nType="1"/>
                          <Node pos="r" depth="10" NCoef="0" IVar="-1" Cut="0.0000000000000000e+00" cType="1" res="-9.9000000000000000e+01" rms="0.0000000000000000e+00" purity="4.9330294132232666e-01" nType="-1"/>
                        </Node>
                        <Node pos="r" depth="9" NCoef="0" IVar="0" Cut="4.7618737816810608e-01" cType="1" res="-9.9000000000000000e+01" rms="0.0000000000000000e+00" purity="5.4813373088836670e-01" nType="0">
                          <Node pos="l" depth="10" NCoef="0" IVar="6" Cut="1.5886305236816406e+02" cType="1" res="-9.9000000000000000e+01" rms="0.0000000000000000e+00" purity="6.3112092018127441e-01" nType="0">
                            <Node pos="l" depth="11" NCoef="0" IVar="-1" Cut="2.8698835372924805e+00" cType="1" res="-9.9000000000000000e+01" rms="0.0000000000000000e+00" purity="6.7452126741409302e-01" nType="1"/>
                            <Node pos="r" depth="11" NCoef="0" IVar="-1" Cut="0.0000000000000000e+00" cType="1" res="-9.9000000000000000e+01" rms="0.0000000000000000e+00" purity="4.8501497507095337e-01" nType="-1"/>
                          </Node>
                          <Node pos="r" depth="10" NCoef="0" IVar="2" Cut="-6.2483704090118408e-01" cType="1" res="-9.9000000000000000e+01" rms="0.0000000000000000e+00" purity="4.3399921059608459e-01" nType="0">
                            <Node pos="l" depth="11" NCoef="0" IVar="1" Cut="3.6027293652296066e-02" cType="1" res="-9.9000000000000000e+01" rms="0.0000000000000000e+00" purity="5.2821302413940430e-01" nType="0">
                              <Node pos="l" depth="12" NCoef="0" IVar="-1" Cut="0.0000000000000000e+00" cType="1" res="-9.9000000000000000e+01" rms="0.0000000000000000e+00" purity="6.6799867153167725e-01" nType="1"/>
                              <Node pos="r" depth="12" NCoef="0" IVar="-1" Cut="0.0000000000000000e+00" cType="1" res="-9.9000000000000000e+01" rms="0.0000000000000000e+00" purity="4.3004143238067627e-01" nType="-1"/>
                            </Node>
                            <Node pos="r" depth="11" NCoef="0" IVar="-1" Cut="9.7957839965820312e+00" cType="0" res="-9.9000000000000000e+01" rms="0.0000000000000000e+00" purity="3.5580444335937500e-01" nType="-1"/>
                          </Node>
                        </Node>
                      </Node>
                      <Node pos="r" depth="8" NCoef="0" IVar="-1" Cut="0.0000000000000000e+00" cType="1" res="-9.9000000000000000e+01" rms="0.0000000000000000e+00" purity="2.2326098382472992e-01" nType="-1"/>
                    </Node>
                    <Node pos="r" depth="7" NCoef="0" IVar="-1" Cut="0.0000000000000000e+00" cType="1" res="-9.9000000000000000e+01" rms="0.0000000000000000e+00" purity="1.0504032671451569e-01" nType="-1"/>
                  </Node>
                  <Node pos="r" depth="6" NCoef="0" IVar="6" Cut="8.1072692871093750e+01" cType="0" res="-9.9000000000000000e+01" rms="0.0000000000000000e+00" purity="2.6456546783447266e-01" nType="0">
                    <Node pos="l" depth="7" NCoef="0" IVar="2" Cut="-3.3372458815574646e-01" cType="1" res="-9.9000000000000000e+01" rms="0.0000000000000000e+00" purity="3.2170695066452026e-01" nType="0">
                      <Node pos="l" depth="8" NCoef="0" IVar="3" Cut="9.5121679306030273e+00" cType="0" res="-9.9000000000000000e+01" rms="0.0000000000000000e+00" purity="4.0109142661094666e-01" nType="0">
                        <Node pos="l" depth="9" NCoef="0" IVar="6" Cut="1.6097309875488281e+02" cType="1" res="-9.9000000000000000e+01" rms="0.0000000000000000e+00" purity="4.8494219779968262e-01" nType="0">
                          <Node pos="l" depth="10" NCoef="0" IVar="0" Cut="5.4686594009399414e-01" cType="1" res="-9.9000000000000000e+01" rms="0.0000000000000000e+00" purity="5.3828805685043335e-01" nType="0">
                            <Node pos="l" depth="11" NCoef="0" IVar="2" Cut="-5.6008636951446533e-01" cType="1" res="-9.9000000000000000e+01" rms="0.0000000000000000e+00" purity="5.8968782424926758e-01" nType="0">
                              <Node pos="l" depth="12" NCoef="0" IVar="-1" Cut="5.3552019596099854e-01" cType="0" res="-9.9000000000000000e+01" rms="0.0000000000000000e+00" purity="6.7439585924148560e-01" nType="1"/>
                              <Node pos="r" depth="12" NCoef="0" IVar="-1" Cut="0.0000000000000000e+00" cType="1" res="-9.9000000000000000e+01" rms="0.0000000000000000e+00" purity="4.5603349804878235e-01" nType="-1"/>
                            </Node>
                            <Node pos="r" depth="11" NCoef="0" IVar="-1" Cut="0.0000000000000000e+00" cType="1" res="-9.9000000000000000e+01" rms="0.0000000000000000e+00" purity="3.9487540721893311e-01" nType="-1"/>
                          </Node>
                          <Node pos="r" depth="10" NCoef="0" IVar="-1" Cut="0.0000000000000000e+00" cType="1" res="-9.9000000000000000e+01" rms="0.0000000000000000e+00" purity="3.1114369630813599e-01" nType="-1"/>
                        </Node>
                        <Node pos="r" depth="9" NCoef="0" IVar="-1" Cut="3.7356799840927124e-01" cType="1" res="-9.9000000000000000e+01" rms="0.0000000000000000e+00" purity="3.0754935741424561e-01" nType="-1"/>
                      </Node>
                      <Node pos="r" depth="8" NCoef="0" IVar="-1" Cut="1.1879677772521973e+01" cType="0" res="-9.9000000000000000e+01" rms="0.0000000000000000e+00" purity="1.8326720595359802e-01" nType="-1"/>
                    </Node>
                    <Node pos="r" depth="7" NCoef="0" IVar="-1" Cut="-8.4170913696289062e-01" cType="0" res="-9.9000000000000000e+01" rms="0.0000000000000000e+00" purity="1.3684578239917755e-01" nType="-1"/>
                  </Node>
                </Node>
              </Node>
            </Node>
            <Node pos="r" depth="3" NCoef="0" IVar="5" Cut="2.3404994010925293e+00" cType="0" res="-9.9000000000000000e+01" rms="0.0000000000000000e+00" purity="3.9453983306884766e-01" nType="0">
              <Node pos="l" depth="4" NCoef="0" IVar="6" Cut="2.8799020385742188e+02" cType="1" res="-9.9000000000000000e+01" rms="0.0000000000000000e+00" purity="4.7689339518547058e-01" nType="0">
                <Node pos="l" depth="5" NCoef="0" IVar="2" Cut="-8.9271306991577148e-01" cType="1" res="-9.9000000000000000e+01" rms="0.0000000000000000e+00" purity="5.2993434667587280e-01" nType="0">
                  <Node pos="l" depth="6" NCoef="0" IVar="0" Cut="4.1730314493179321e-01" cType="1" res="-9.9000000000000000e+01" rms="0.0000000000000000e+00" purity="5.8080661296844482e-01" nType="0">
                    <Node pos="l" depth="7" NCoef="0" IVar="4" Cut="1.6896565258502960e-01" cType="1" res="-9.9000000000000000e+01" rms="0.0000000000000000e+00" purity="6.1540502309799194e-01" nType="0">
                      <Node pos="l" depth="8" NCoef="0" IVar="5" Cut="2.4864706993103027e+00" cType="0" res="-9.9000000000000000e+01" rms="0.0000000000000000e+00" purity="6.4328122138977051e-01" nType="0">
                        <Node pos="l" depth="9" NCoef="0" IVar="-1" Cut="-8.0111002922058105e-01" cType="0" res="-9.9000000000000000e+01" rms="0.0000000000000000e+00" purity="7.1197575330734253e-01" nType="1"/>
                        <Node pos="r" depth="9" NCoef="0" IVar="1" Cut="-5.1497232913970947e-01" cType="0" res="-9.9000000000000000e+01" rms="0.0000000000000000e+00" purity="5.7313805818557739e-01" nType="0">
                          <Node pos="l" depth="10" NCoef="0" IVar="3" Cut="9.8288497924804688e+00" cType="0" res="-9.9000000000000000e+01" rms="0.0000000000000000e+00" purity="6.0104513168334961e-01" nType="0">
                            <Node pos="l" depth="11" NCoef="0" IVar="-1" Cut="1.2048374176025391e+01" cType="1" res="-9.9000000000000000e+01" rms="0.0000000000000000e+00" purity="6.5079009532928467e-01" nType="1"/>
                            <Node pos="r" depth="11" NCoef="0" IVar="3" Cut="9.0887708663940430e+00" cType="0" res="-9.9000000000000000e+01" rms="0.0000000000000000e+00" purity="4.9206557869911194e-01" nType="0">
                              <Node pos="l" depth="12" NCoef="0" IVar="-1" Cut="0.0000000000000000e+00" cType="1" res="-9.9000000000000000e+01" rms="0.0000000000000000e+00" purity="7.1996128559112549e-01" nType="1"/>
                              <Node pos="r" depth="12" NCoef="0" IVar="-1" Cut="0.0000000000000000e+00" cType="1" res="-9.9000000000000000e+01" rms="0.0000000000000000e+00" purity="3.3818373084068298e-01" nType="-1"/>
                            </Node>
                          </Node>
                          <Node pos="r" depth="10" NCoef="0" IVar="-1" Cut="0.0000000000000000e+00" cType="1" res="-9.9000000000000000e+01" rms="0.0000000000000000e+00" purity="4.0842562913894653e-01" nType="-1"/>
                        </Node>
                      </Node>
                      <Node pos="r" depth="8" NCoef="0" IVar="0" Cut="1.6131809353828430e-01" cType="1" res="-9.9000000000000000e+01" rms="0.0000000000000000e+00" purity="4.2432212829589844e-01" nType="0">
                        <Node pos="l" depth="9" NCoef="0" IVar="-1" Cut="-1.4667304754257202e+00" cType="1" res="-9.9000000000000000e+01" rms="0.0000000000000000e+00" purity="5.1369410753250122e-01" nType="1"/>
                        <Node pos="r" depth="9" NCoef="0" IVar="-1" Cut="0.0000000000000000e+00" cType="1" res="-9.9000000000000000e+01" rms="0.0000000000000000e+00" purity="2.1254092454910278e-01" nType="-1"/>
                      </Node>
                    </Node>
                    <Node pos="r" depth="7" NCoef="0" IVar="-1" Cut="2.5341067463159561e-02" cType="1" res="-9.9000000000000000e+01" rms="0.0000000000000000e+00" purity="3.5951995849609375e-01" nType="-1"/>
                  </Node>
                  <Node pos="r" depth="6" NCoef="0" IVar="3" Cut="8.8020744323730469e+00" cType="0" res="-9.9000000000000000e+01" rms="0.0000000000000000e+00" purity="3.5745364427566528e-01" nType="0">
                    <Node pos="l" depth="7" NCoef="0" IVar="1" Cut="3.9426168799400330e-01" cType="1" res="-9.9000000000000000e+01" rms="0.0000000000000000e+00" purity="4.0495374798774719e-01" nType="0">
                      <Node pos="l" depth="8" NCoef="0" IVar="0" Cut="1.6067947447299957e-01" cType="1" res="-9.9000000000000000e+01" rms="0.0000000000000000e+00" purity="4.6302992105484009e-01" nType="0">
                        <Node pos="l" depth="9" NCoef="0" IVar="-1" Cut="2.4402758789062500e+02" cType="1" res="-9.9000000000000000e+01" rms="0.0000000000000000e+00" purity="5.3006625175476074e-01" nType="1"/>
                        <Node pos="r" depth="9" NCoef="0" IVar="-1" Cut="-7.4345242977142334e-01" cType="1" res="-9.9000000000000000e+01" rms="0.0000000000000000e+00" purity="3.2484394311904907e-01" nType="-1"/>
                      </Node>
                      <Node pos="r" depth="8" NCoef="0" IVar="-1" Cut="0.0000000000000000e+00" cType="1" res="-9.9000000000000000e+01" rms="0.0000000000000000e+00" purity="1.9634734094142914e-01" nType="-1"/>
                    </Node>
                    <Node pos="r" depth="7" NCoef="0" IVar="-1" Cut="0.0000000000000000e+00" cType="1" res="-9.9000000000000000e+01" rms="0.0000000000000000e+00" purity="8.6185656487941742e-02" nType="-1"/>
                  </Node>
                </Node>
                <Node pos="r" depth="5" NCoef="0" IVar="-1" Cut="3.6536401367187500e+02" cType="1" res="-9.9000000000000000e+01" rms="0.0000000000000000e+00" purity="2.4083612859249115e-01" nType="-1"/>
              </Node>
              <Node pos="r" depth="4" NCoef="0" IVar="5" Cut="2.2927176952362061e+00" cType="0" res="-9.9000000000000000e+01" rms="0.0000000000000000e+00" purity="1.6453997790813446e-01" nType="0">
                <Node pos="l" depth="5" NCoef="0" IVar="2" Cut="-1.5029456615447998e+00" cType="1" res="-9.9000000000000000e+01" rms="0.0000000000000000e+00" purity="2.8647077083587646e-01" nType="0">
                  <Node pos="l" depth="6" NCoef="0" IVar="-1" Cut="0.0000000000000000e+00" cType="1" res="-9.9000000000000000e+01" rms="0.0000000000000000e+00" purity="5.3899121284484863e-01" nType="1"/>
                  <Node pos="r" depth="6" NCoef="0" IVar="-1" Cut="3.0290411376953125e+02" cType="1" res="-9.9000000000000000e+01" rms="0.0000000000000000e+00" purity="1.9650116562843323e-01" nType="-1"/>
                </Node>
                <Node pos="r" depth="5" NCoef="0" IVar="-1" Cut="2.6716909790039062e+02" cType="1" res="-9.9000000000000000e+01" rms="0.0000000000000000e+00" purity="1.0238651186227798e-01" nType="-1"/>
              </Node>
            </Node>
          </Node>
          <Node pos="r" depth="2" NCoef="0" IVar="2" Cut="-5.3689819574356079e-01" cType="1" res="-9.9000000000000000e+01" rms="0.0000000000000000e+00" purity="3.0470916628837585e-01" nType="0">
            <Node pos="l" depth="3" NCoef="0" IVar="1" Cut="1.5358633995056152e+00" cType="1" res="-9.9000000000000000e+01" rms="0.0000000000000000e+00" purity="4.2216634750366211e-01" nType="0">
              <Node pos="l" depth="4" NCoef="0" IVar="0" Cut="3.5523518919944763e-01" cType="1" res="-9.9000000000000000e+01" rms="0.0000000000000000e+00" purity="5.1596581935882568e-01" nType="0">
                <Node pos="l" depth="5" NCoef="0" IVar="6" Cut="2.2404521179199219e+02" cType="1" res="-9.9000000000000000e+01" rms="0.0000000000000000e+00" purity="5.9045314788818359e-01" nType="0">
                  <Node pos="l" depth="6" NCoef="0" IVar="3" Cut="5.2392768859863281e+00" cType="0" res="-9.9000000000000000e+01" rms="0.0000000000000000e+00" purity="6.3044863939285278e-01" nType="0">
                    <Node pos="l" depth="7" NCoef="0" IVar="2" Cut="-1.4120584726333618e+00" cType="1" res="-9.9000000000000000e+01" rms="0.0000000000000000e+00" purity="6.8626612424850464e-01" nType="0">
                      <Node pos="l" depth="8" NCoef="0" IVar="-1" Cut="1.1263032257556915e-01" cType="1" res="-9.9000000000000000e+01" rms="0.0000000000000000e+00" purity="7.8443425893783569e-01" nType="1"/>
                      <Node pos="r" depth="8" NCoef="0" IVar="0" Cut="2.1387024223804474e-01" cType="1" res="-9.9000000000000000e+01" rms="0.0000000000000000e+00" purity="6.3179087638854980e-01" nType="0">
                        <Node pos="l" depth="9" NCoef="0" IVar="6" Cut="8.3269783020019531e+01" cType="0" res="-9.9000000000000000e+01" rms="0.0000000000000000e+00" purity="6.6528141498565674e-01" nType="0">
                          <Node pos="l" depth="10" NCoef="0" IVar="-1" Cut="1.7023265075683594e+02" cType="1" res="-9.9000000000000000e+01" rms="0.0000000000000000e+00" purity="6.9806724786758423e-01" nType="1"/>
                          <Node pos="r" depth="10" NCoef="0" IVar="2" Cut="-8.7130069732666016e-01" cType="1" res="-9.9000000000000000e+01" rms="0.0000000000000000e+00" purity="4.9425336718559265e-01" nType="0">
                            <Node pos="l" depth="11" NCoef="0" IVar="-1" Cut="0.0000000000000000e+00" cType="1" res="-9.9000000000000000e+01" rms="0.0000000000000000e+00" purity="5.9447056055068970e-01" nType="1"/>
                            <Node pos="r" depth="11" NCoef="0" IVar="-1" Cut="0.0000000000000000e+00" cType="1" res="-9.9000000000000000e+01" rms="0.0000000000000000e+00" purity="3.2824471592903137e-01" nType="-1"/>
                          </Node>
                        </Node>
                        <Node pos="r" depth="9" NCoef="0" IVar="-1" Cut="-7.8667700290679932e-01" cType="1" res="-9.9000000000000000e+01" rms="0.0000000000000000e+00" purity="4.9432268738746643e-01" nType="-1"/>
                      </Node>
                    </Node>
                    <Node pos="r" depth="7" NCoef="0" IVar="-1" Cut="-1.3395067453384399e+00" cType="0" res="-9.9000000000000000e+01" rms="0.0000000000000000e+00" purity="1.5462884306907654e-01" nType="-1"/>
                  </Node>
                  <Node pos="r" depth="6" NCoef="0" IVar="-1" Cut="2.5854501342773438e+02" cType="1" res="-9.9000000000000000e+01" rms="0.0000000000000000e+00" purity="2.5453045964241028e-01" nType="-1"/>
                </Node>
                <Node pos="r" depth="5" NCoef="0" IVar="6" Cut="2.2304331970214844e+02" cType="1" res="-9.9000000000000000e+01" rms="0.0000000000000000e+00" purity="3.1272044777870178e-01" nType="0">
                  <Node pos="l" depth="6" NCoef="0" IVar="3" Cut="4.1303343772888184e+00" cType="0" res="-9.9000000000000000e+01" rms="0.0000000000000000e+00" purity="3.4556928277015686e-01" nType="0">
                    <Node pos="l" depth="7" NCoef="0" IVar="0" Cut="4.1512235999107361e-01" cType="1" res="-9.9000000000000000e+01" rms="0.0000000000000000e+00" purity="3.7681776285171509e-01" nType="0">
                      <Node pos="l" depth="8" NCoef="0" IVar="-1" Cut="-2.8607973456382751e-01" cType="1" res="-9.9000000000000000e+01" rms="0.0000000000000000e+00" purity="5.6080037355422974e-01" nType="1"/>
                      <Node pos="r" depth="8" NCoef="0" IVar="6" Cut="1.1679508209228516e+02" cType="0" res="-9.9000000000000000e+01" rms="0.0000000000000000e+00" purity="3.3263140916824341e-01" nType="0">
                        <Node pos="l" depth="9" NCoef="0" IVar="4" Cut="-3.8346865773200989e-01" cType="1" res="-9.9000000000000000e+01" rms="0.0000000000000000e+00" purity="4.1321876645088196e-01" nType="0">
                          <Node pos="l" depth="10" NCoef="0" IVar="-1" Cut="5.2368980646133423e-01" cType="1" res="-9.9000000000000000e+01" rms="0.0000000000000000e+00" purity="5.7804071903228760e-01" nType="1"/>
                          <Node pos="r" depth="10" NCoef="0" IVar="-1" Cut="1.1807250976562500e+00" cType="1" res="-9.9000000000000000e+01" rms="0.0000000000000000e+00" purity="2.8594574332237244e-01" nType="-1"/>
                        </Node>
                        <Node pos="r" depth="9" NCoef="0" IVar="-1" Cut="2.9599561691284180e+00" cType="0" res="-9.9000000000000000e+01" rms="0.0000000000000000e+00" purity="2.4583645164966583e-01" nType="-1"/>
                      </Node>
                    </Node>
                    <Node pos="r" depth="7" NCoef="0" IVar="-1" Cut="0.0000000000000000e+00" cType="1" res="-9.9000000000000000e+01" rms="0.0000000000000000e+00" purity="4.7143798321485519e-02" nType="-1"/>
                  </Node>
                  <Node pos="r" depth="6" NCoef="0" IVar="-1" Cut="0.0000000000000000e+00" cType="1" res="-9.9000000000000000e+01" rms="0.0000000000000000e+00" purity="5.7797137647867203e-02" nType="-1"/>
                </Node>
              </Node>
              <Node pos="r" depth="4" NCoef="0" IVar="6" Cut="2.3305235290527344e+02" cType="1" res="-9.9000000000000000e+01" rms="0.0000000000000000e+00" purity="2.6435425877571106e-01" nType="0">
                <Node pos="l" depth="5" NCoef="0" IVar="6" Cut="8.9349838256835938e+01" cType="0" res="-9.9000000000000000e+01" rms="0.0000000000000000e+00" purity="3.1053170561790466e-01" nType="0">
                  <Node pos="l" depth="6" NCoef="0" IVar="0" Cut="2.6010382175445557e-01" cType="1" res="-9.9000000000000000e+01" rms="0.0000000000000000e+00" purity="4.3592208623886108e-01" nType="0">
                    <Node pos="l" depth="7" NCoef="0" IVar="5" Cut="2.6057691574096680e+00" cType="0" res="-9.9000000000000000e+01" rms="0.0000000000000000e+00" purity="5.5406028032302856e-01" nType="0">
                      <Node pos="l" depth="8" NCoef="0" IVar="2" Cut="-1.3197723627090454e+00" cType="1" res="-9.9000000000000000e+01" rms="0.0000000000000000e+00" purity="6.2339359521865845e-01" nType="0">
                        <Node pos="l" depth="9" NCoef="0" IVar="-1" Cut="-9.4599895477294922e+00" cType="0" res="-9.9000000000000000e+01" rms="0.0000000000000000e+00" purity="7.2300773859024048e-01" nType="1"/>
                        <Node pos="r" depth="9" NCoef="0" IVar="5" Cut="2.9009151458740234e+00" cType="0" res="-9.9000000000000000e+01" rms="0.0000000000000000e+00" purity="5.6813943386077881e-01" nType="0">
                          <Node pos="l" depth="10" NCoef="0" IVar="-1" Cut="-7.9497373104095459e-01" cType="0" res="-9.9000000000000000e+01" rms="0.0000000000000000e+00" purity="6.7778241634368896e-01" nType="1"/>
                          <Node pos="r" depth="10" NCoef="0" IVar="-1" Cut="2.8589293360710144e-02" cType="1" res="-9.9000000000000000e+01" rms="0.0000000000000000e+00" purity="4.8700612783432007e-01" nType="-1"/>
                        </Node>
                      </Node>
                      <Node pos="r" depth="8" NCoef="0" IVar="-1" Cut="2.4690403938293457e+00" cType="0" res="-9.9000000000000000e+01" rms="0.0000000000000000e+00" purity="3.2273864746093750e-01" nType="-1"/>
                    </Node>
                    <Node pos="r" depth="7" NCoef="0" IVar="-1" Cut="3.7884172797203064e-01" cType="1" res="-9.9000000000000000e+01" rms="0.0000000000000000e+00" purity="2.4000054597854614e-01" nType="-1"/>
                  </Node>
                  <Node pos="r" depth="6" NCoef="0" IVar="4" Cut="-9.4425287246704102e+00" cType="0" res="-9.9000000000000000e+01" rms="0.0000000000000000e+00" purity="1.4927521347999573e-01" nType="0">
                    <Node pos="l" depth="7" NCoef="0" IVar="0" Cut="4.8136733472347260e-02" cType="1" res="-9.9000000000000000e+01" rms="0.0000000000000000e+00" purity="3.1558021903038025e-01" nType="0">
                      <Node pos="l" depth="8" NCoef="0" IVar="-1" Cut="0.0000000000000000e+00" cType="1" res="-9.9000000000000000e+01" rms="0.0000000000000000e+00" purity="6.0460984706878662e-01" nType="1"/>
                      <Node pos="r" depth="8" NCoef="0" IVar="-1" Cut="3.4534764289855957e-01" cType="1" res="-9.9000000000000000e+01" rms="0.0000000000000000e+00" purity="2.3148040473461151e-01" nType="-1"/>
                    </Node>
                    <Node pos="r" depth="7" NCoef="0" IVar="-1" Cut="7.2154632568359375e+01" cType="0" res="-9.9000000000000000e+01" rms="0.0000000000000000e+00" purity="6.1716623604297638e-03" nType="-1"/>
                  </Node>
                </Node>
                <Node pos="r" depth="5" NCoef="0" IVar="-1" Cut="-1.5496302843093872e+00" cType="1" res="-9.9000000000000000e+01" rms="0.0000000000000000e+00" purity="5.3106192499399185e-02" nType="-1"/>
              </Node>
            </Node>
            <Node pos="r" depth="3" NCoef="0" IVar="6" Cut="8.1684425354003906e+01" cType="0" res="-9.9000000000000000e+01" rms="0.0000000000000000e+00" purity="1.4492940902709961e-01" nType="0">
              <Node pos="l" depth="4" NCoef="0" IVar="0" Cut="1.4599576592445374e-01" cType="1" res="-9.9000000000000000e+01" rms="0.0000000000000000e+00" purity="2.5365307927131653e-01" nType="0">
                <Node pos="l" depth="5" NCoef="0" IVar="6" Cut="2.1865985107421875e+02" cType="1" res="-9.9000000000000000e+01" rms="0.0000000000000000e+00" purity="3.8086590170860291e-01" nType="0">
                  <Node pos="l" depth="6" NCoef="0" IVar="2" Cut="-1.3640026748180389e-01" cType="1" res="-9.9000000000000000e+01" rms="0.0000000000000000e+00" purity="4.1598033905029297e-01" nType="0">
                    <Node pos="l" depth="7" NCoef="0" IVar="0" Cut="5.4092746227979660e-02" cType="1" res="-9.9000000000000000e+01" rms="0.0000000000000000e+00" purity="5.0758248567581177e-01" nType="0">
                      <Node pos="l" depth="8" NCoef="0" IVar="6" Cut="1.5986587524414062e+02" cType="1" res="-9.9000000000000000e+01" rms="0.0000000000000000e+00" purity="5.5435287952423096e-01" nType="0">
                        <Node pos="l" depth="9" NCoef="0" IVar="5" Cut="2.8999781608581543e+00" cType="1" res="-9.9000000000000000e+01" rms="0.0000000000000000e+00" purity="6.0000717639923096e-01" nType="0">
                          <Node pos="l" depth="10" NCoef="0" IVar="-1" Cut="-1.9353346526622772e-01" cType="1" res="-9.9000000000000000e+01" rms="0.0000000000000000e+00" purity="7.3989510536193848e-01" nType="1"/>
                          <Node pos="r" depth="10" NCoef="0" IVar="5" Cut="2.9950773715972900e+00" cType="0" res="-9.9000000000000000e+01" rms="0.0000000000000000e+00" purity="5.0745213031768799e-01" nType="0">
                            <Node pos="l" depth="11" NCoef="0" IVar="-1" Cut="3.0858571529388428e+00" cType="0" res="-9.9000000000000000e+01" rms="0.0000000000000000e+00" purity="5.9192627668380737e-01" nType="1"/>
                            <Node pos="r" depth="11" NCoef="0" IVar="-1" Cut="0.0000000000000000e+00" cType="1" res="-9.9000000000000000e+01" rms="0.0000000000000000e+00" purity="3.6647126078605652e-01" nType="-1"/>
                          </Node>
                        </Node>
                        <Node pos="r" depth="9" NCoef="0" IVar="-1" Cut="0.0000000000000000e+00" cType="1" res="-9.9000000000000000e+01" rms="0.0000000000000000e+00" purity="3.0897191166877747e-01" nType="-1"/>
                      </Node>
                      <Node pos="r" depth="8" NCoef="0" IVar="-1" Cut="0.0000000000000000e+00" cType="1" res="-9.9000000000000000e+01" rms="0.0000000000000000e+00" purity="3.1379050016403198e-01" nType="-1"/>
                    </Node>
                    <Node pos="r" depth="7" NCoef="0" IVar="-1" Cut="2.9140686988830566e+00" cType="1" res="-9.9000000000000000e+01" rms="0.0000000000000000e+00" purity="2.6516747474670410e-01" nType="-1"/>
                  </Node>
                  <Node pos="r" depth="6" NCoef="0" IVar="-1" Cut="0.0000000000000000e+00" cType="1" res="-9.9000000000000000e+01" rms="0.0000000000000000e+00" purity="4.3728474527597427e-02" nType="-1"/>
                </Node>
                <Node pos="r" depth="5" NCoef="0" IVar="-1" Cut="3.4551388025283813e-01" cType="1" res="-9.9000000000000000e+01" rms="0.0000000000000000e+00" purity="1.4526554942131042e-01" nType="-1"/>
              </Node>
              <Node pos="r" depth="4" NCoef="0" IVar="-1" Cut="-9.7832369804382324e-01" cType="0" res="-9.9000000000000000e+01" rms="0.0000000000000000e+00" purity="4.5636836439371109e-02" nType="-1"/>
            </Node>
          </Node>
        </Node>
        <Node pos="r" depth="1" NCoef="0" IVar="1" Cut="4.2662715911865234e-01" cType="1" res="-9.9000000000000000e+01" rms="0.0000000000000000e+00" purity="7.7580399811267853e-02" nType="0">
          <Node pos="l" depth="2" NCoef="0" IVar="0" Cut="9.8668563365936279e-01" cType="1" res="-9.9000000000000000e+01" rms="0.0000000000000000e+00" purity="2.2838775813579559e-01" nType="0">
            <Node pos="l" depth="3" NCoef="0" IVar="2" Cut="-8.2446503639221191e-01" cType="1" res="-9.9000000000000000e+01" rms="0.0000000000000000e+00" purity="3.9595028758049011e-01" nType="0">
              <Node pos="l" depth="4" NCoef="0" IVar="6" Cut="2.1394467163085938e+02" cType="1" res="-9.9000000000000000e+01" rms="0.0000000000000000e+00" purity="4.6081396937370300e-01" nType="0">
                <Node pos="l" depth="5" NCoef="0" IVar="1" Cut="1.5288923867046833e-02" cType="1" res="-9.9000000000000000e+01" rms="0.0000000000000000e+00" purity="5.1247608661651611e-01" nType="0">
                  <Node pos="l" depth="6" NCoef="0" IVar="3" Cut="9.6839447021484375e+00" cType="0" res="-9.9000000000000000e+01" rms="0.0000000000000000e+00" purity="6.2287271022796631e-01" nType="0">
                    <Node pos="l" depth="7" NCoef="0" IVar="0" Cut="8.3588105440139771e-01" cType="1" res="-9.9000000000000000e+01" rms="0.0000000000000000e+00" purity="6.8756490945816040e-01" nType="0">
                      <Node pos="l" depth="8" NCoef="0" IVar="-1" Cut="-3.5043171048164368e-01" cType="1" res="-9.9000000000000000e+01" rms="0.0000000000000000e+00" purity="7.4390995502471924e-01" nType="1"/>
                      <Node pos="r" depth="8" NCoef="0" IVar="4" Cut="-1.4700125157833099e-01" cType="1" res="-9.9000000000000000e+01" rms="0.0000000000000000e+00" purity="5.9943145513534546e-01" nType="0">
                        <Node pos="l" depth="9" NCoef="0" IVar="-1" Cut="-1.9711415469646454e-01" cType="1" res="-9.9000000000000000e+01" rms="0.0000000000000000e+00" purity="6.8271702527999878e-01" nType="1"/>
                        <Node pos="r" depth="9" NCoef="0" IVar="-1" Cut="0.0000000000000000e+00" cType="1" res="-9.9000000000000000e+01" rms="0.0000000000000000e+00" purity="4.8987141251564026e-01" nType="-1"/>
                      </Node>
                    </Node>
                    <Node pos="r" depth="7" NCoef="0" IVar="5" Cut="3.0763926506042480e+00" cType="0" res="-9.9000000000000000e+01" rms="0.0000000000000000e+00" purity="5.2516508102416992e-01" nType="0">
                      <Node pos="l" depth="8" NCoef="0" IVar="-1" Cut="0.0000000000000000e+00" cType="1" res="-9.9000000000000000e+01" rms="0.0000000000000000e+00" purity="6.9692099094390869e-01" nType="1"/>
                      <Node pos="r" depth="8" NCoef="0" IVar="0" Cut="8.0570650100708008e-01" cType="1" res="-9.9000000000000000e+01" rms="0.0000000000000000e+00" purity="4.8105159401893616e-01" nType="0">
                        <Node pos="l" depth="9" NCoef="0" IVar="1" Cut="-2.2881524264812469e-01" cType="1" res="-9.9000000000000000e+01" rms="0.0000000000000000e+00" purity="5.7184004783630371e-01" nType="0">
                          <Node pos="l" depth="10" NCoef="0" IVar="-1" Cut="0.0000000000000000e+00" cType="1" res="-9.9000000000000000e+01" rms="0.0000000000000000e+00" purity="7.5112330913543701e-01" nType="1"/>
                          <Node pos="r" depth="10" NCoef="0" IVar="-1" Cut="0.0000000000000000e+00" cType="1" res="-9.9000000000000000e+01" rms="0.0000000000000000e+00" purity="4.4451901316642761e-01" nType="-1"/>
                        </Node>
                        <Node pos="r" depth="9" NCoef="0" IVar="-1" Cut="-1.2755851745605469e+00" cType="1" res="-9.9000000000000000e+01" rms="0.0000000000000000e+00" purity="3.8948547840118408e-01" nType="-1"/>
                      </Node>
                    </Node>
                  </Node>
                  <Node pos="r" depth="6" NCoef="0" IVar="2" Cut="-1.3866856098175049e+00" cType="1" res="-9.9000000000000000e+01" rms="0.0000000000000000e+00" purity="4.1624155640602112e-01" nType="0">
                    <Node pos="l" depth="7" NCoef="0" IVar="3" Cut="6.7799105644226074e+00" cType="0" res="-9.9000000000000000e+01" rms="0.0000000000000000e+00" purity="5.1645576953887939e-01" nType="0">
                      <Node pos="l" depth="8" NCoef="0" IVar="0" Cut="7.7536141872406006e-01" cType="1" res="-9.9000000000000000e+01" rms="0.0000000000000000e+00" purity="5.5787140130996704e-01" nType="0">
                        <Node pos="l" depth="9" NCoef="0" IVar="-1" Cut="2.2784458100795746e-01" cType="1" res="-9.9000000000000000e+01" rms="0.0000000000000000e+00" purity="6.3567638397216797e-01" nType="1"/>
                        <Node pos="r" depth="9" NCoef="0" IVar="4" Cut="-1.5243671834468842e-01" cType="1" res="-9.9000000000000000e+01" rms="0.0000000000000000e+00" purity="4.9703565239906311e-01" nType="0">
                          <Node pos="l" depth="10" NCoef="0" IVar="-1" Cut="8.9376430511474609e+00" cType="0" res="-9.9000000000000000e+01" rms="0.0000000000000000e+00" purity="5.6397598981857300e-01" nType="1"/>
                          <Node pos="r" depth="10" NCoef="0" IVar="-1" Cut="0.0000000000000000e+00" cType="1" res="-9.9000000000000000e+01" rms="0.0000000000000000e+00" purity="3.7640729546546936e-01" nType="-1"/>
                        </Node>
                      </Node>
                      <Node pos="r" depth="8" NCoef="0" IVar="-1" Cut="0.0000000000000000e+00" cType="1" res="-9.9000000000000000e+01" rms="0.0000000000000000e+00" purity="2.7656114101409912e-01" nType="-1"/>
                    </Node>
                    <Node pos="r" depth="7" NCoef="0" IVar="-1" Cut="7.6056414842605591e-01" cType="1" res="-9.9000000000000000e+01" rms="0.0000000000000000e+00" purity="3.2344597578048706e-01" nType="-1"/>
                  </Node>
                </Node>
                <Node pos="r" depth="5" NCoef="0" IVar="-1" Cut="2.4104269409179688e+02" cType="1" res="-9.9000000000000000e+01" rms="0.0000000000000000e+00" purity="2.0315536856651306e-01" nType="-1"/>
              </Node>
              <Node pos="r" depth="4" NCoef="0" IVar="1" Cut="-1.1715016514062881e-01" cType="1" res="-9.9000000000000000e+01" rms="0.0000000000000000e+00" purity="2.4012818932533264e-01" nType="0">
                <Node pos="l" depth="5" NCoef="0" IVar="5" Cut="2.7947542667388916e+00" cType="0" res="-9.9000000000000000e+01" rms="0.0000000000000000e+00" purity="3.9237609505653381e-01" nType="0">
                  <Node pos="l" depth="6" NCoef="0" IVar="-1" Cut="1.2993527221679688e+02" cType="0" res="-9.9000000000000000e+01" rms="0.0000000000000000e+00" purity="5.4315590858459473e-01" nType="1"/>
                  <Node pos="r" depth="6" NCoef="0" IVar="-1" Cut="0.0000000000000000e+00" cType="1" res="-9.9000000000000000e+01" rms="0.0000000000000000e+00" purity="1.7257222533226013e-01" nType="-1"/>
                </Node>
                <Node pos="r" depth="5" NCoef="0" IVar="-1" Cut="2.0565963745117188e+02" cType="1" res="-9.9000000000000000e+01" rms="0.0000000000000000e+00" purity="1.8475852906703949e-01" nType="-1"/>
              </Node>
            </Node>
            <Node pos="r" depth="3" NCoef="0" IVar="-1" Cut="1.2762289047241211e+00" cType="1" res="-9.9000000000000000e+01" rms="0.0000000000000000e+00" purity="1.1413180083036423e-01" nType="-1"/>
          </Node>
          <Node pos="r" depth="2" NCoef="0" IVar="0" Cut="9.8675203323364258e-01" cType="1" res="-9.9000000000000000e+01" rms="0.0000000000000000e+00" purity="3.4140840172767639e-02" nType="0">
            <Node pos="l" depth="3" NCoef="0" IVar="2" Cut="-1.1967636346817017e+00" cType="1" res="-9.9000000000000000e+01" rms="0.0000000000000000e+00" purity="1.0363852232694626e-01" nType="0">
              <Node pos="l" depth="4" NCoef="0" IVar="1" Cut="1.0772542953491211e+00" cType="1" res="-9.9000000000000000e+01" rms="0.0000000000000000e+00" purity="2.1952052414417267e-01" nType="0">
                <Node pos="l" depth="5" NCoef="0" IVar="0" Cut="7.6053380966186523e-01" cType="1" res="-9.9000000000000000e+01" rms="0.0000000000000000e+00" purity="3.0897191166877747e-01" nType="0">
                  <Node pos="l" depth="6" NCoef="0" IVar="6" Cut="6.7854660034179688e+01" cType="0" res="-9.9000000000000000e+01" rms="0.0000000000000000e+00" purity="4.1369944810867310e-01" nType="0">
                    <Node pos="l" depth="7" NCoef="0" IVar="-1" Cut="-4.2381513118743896e-01" cType="1" res="-9.9000000000000000e+01" rms="0.0000000000000000e+00" purity="5.2979683876037598e-01" nType="1"/>
                    <Node pos="r" depth="7" NCoef="0" IVar="-1" Cut="0.0000000000000000e+00" cType="1" res="-9.9000000000000000e+01" rms="0.0000000000000000e+00" purity="1.9862774014472961e-01" nType="-1"/>
                  </Node>
                  <Node pos="r" depth="6" NCoef="0" IVar="-1" Cut="-1.8814998865127563e+00" cType="1" res="-9.9000000000000000e+01" rms="0.0000000000000000e+00" purity="2.5277271866798401e-01" nType="-1"/>
                </Node>
                <Node pos="r" depth="5" NCoef="0" IVar="-1" Cut="1.8204267024993896e+00" cType="1" res="-9.9000000000000000e+01" rms="0.0000000000000000e+00" purity="9.8608955740928650e-02" nType="-1"/>
              </Node>
              <Node pos="r" depth="4" NCoef="0" IVar="-1" Cut="8.6169123649597168e-01" cType="1" res="-9.9000000000000000e+01" rms="0.0000000000000000e+00" purity="6.6082105040550232e-02" nType="-1"/>
            </Node>
            <Node pos="r" depth="3" NCoef="0" IVar="-1" Cut="1.0794694423675537e+00" cType="1" res="-9.9000000000000000e+01" rms="0.0000000000000000e+00" purity="1.8063258379697800e-02" nType="-1"/>
          </Node>
        </Node>
      </Node>
    </BinaryTree>
    <BinaryTree type="DecisionTree" boostWeight="9.3129856106383080e-01" itree="1">
      <Node pos="s" depth="0" NCoef="0" IVar="0" Cut="1.0500638484954834e+00" cType="1" res="-9.9000000000000000e+01" rms="0.0000000000000000e+00" purity="4.3775117397308350e-01" nType="0">
        <Node pos="l" depth="1" NCoef="0" IVar="1" Cut="6.4830189943313599e-01" cType="1" res="-9.9000000000000000e+01" rms="0.0000000000000000e+00" purity="4.9364495277404785e-01" nType="0">
          <Node pos="l" depth="2" NCoef="0" IVar="2" Cut="-1.4607483148574829e+00" cType="1" res="-9.9000000000000000e+01" rms="0.0000000000000000e+00" purity="5.2068179845809937e-01" nType="0">
            <Node pos="l" depth="3" NCoef="0" IVar="6" Cut="1.9855857849121094e+02" cType="1" res="-9.9000000000000000e+01" rms="0.0000000000000000e+00" purity="5.6083512306213379e-01" nType="0">
              <Node pos="l" depth="4" NCoef="0" IVar="-1" Cut="2.5039044022560120e-01" cType="1" res="-9.9000000000000000e+01" rms="0.0000000000000000e+00" purity="5.8852410316467285e-01" nType="1"/>
              <Node pos="r" depth="4" NCoef="0" IVar="-1" Cut="-6.8429237604141235e-01" cType="0" res="-9.9000000000000000e+01" rms="0.0000000000000000e+00" purity="4.6965223550796509e-01" nType="-1"/>
            </Node>
            <Node pos="r" depth="3" NCoef="0" IVar="-1" Cut="-1.7196416854858398e-01" cType="1" res="-9.9000000000000000e+01" rms="0.0000000000000000e+00" purity="4.9971130490303040e-01" nType="-1"/>
          </Node>
          <Node pos="r" depth="2" NCoef="0" IVar="-1" Cut="1.4892305247485638e-02" cType="1" res="-9.9000000000000000e+01" rms="0.0000000000000000e+00" purity="4.0675207972526550e-01" nType="-1"/>
        </Node>
        <Node pos="r" depth="1" NCoef="0" IVar="-1" Cut="4.2662715911865234e-01" cType="1" res="-9.9000000000000000e+01" rms="0.0000000000000000e+00" purity="1.5759617090225220e-01" nType="-1"/>
      </Node>
    </BinaryTree>
    <BinaryTree type="DecisionTree" boostWeight="8.0711441157205488e-01" itree="2">
      <Node pos="s" depth="0" NCoef="0" IVar="0" Cut="1.0500638484954834e+00" cType="1" res="-9.9000000000000000e+01" rms="0.0000000000000000e+00" purity="4.6843659877777100e-01" nType="0">
        <Node pos="l" depth="1" NCoef="0" IVar="1" Cut="2.2023532390594482e+00" cType="1" res="-9.9000000000000000e+01" rms="0.0000000000000000e+00" purity="5.0393050909042358e-01" nType="0">
          <Node pos="l" depth="2" NCoef="0" IVar="1" Cut="7.8146529197692871e-01" cType="1" res="-9.9000000000000000e+01" rms="0.0000000000000000e+00" purity="5.0874972343444824e-01" nType="0">
            <Node pos="l" depth="3" NCoef="0" IVar="0" Cut="1.8164737522602081e-01" cType="1" res="-9.9000000000000000e+01" rms="0.0000000000000000e+00" purity="5.1855355501174927e-01" nType="0">
              <Node pos="l" depth="4" NCoef="0" IVar="-1" Cut="-2.3185764253139496e-01" cType="0" res="-9.9000000000000000e+01" rms="0.0000000000000000e+00" purity="5.3367054462432861e-01" nType="1"/>
              <Node pos="r" depth="4" NCoef="0" IVar="-1" Cut="2.3632826805114746e+00" cType="0" res="-9.9000000000000000e+01" rms="0.0000000000000000e+00" purity="4.9636217951774597e-01" nType="-1"/>
            </Node>
            <Node pos="r" depth="3" NCoef="0" IVar="-1" Cut="5.6867950439453125e+01" cType="0" res="-9.9000000000000000e+01" rms="0.0000000000000000e+00" purity="4.5859992504119873e-01" nType="-1"/>
          </Node>
          <Node pos="r" depth="2" NCoef="0" IVar="-1" Cut="8.1099075317382812e+01" cType="0" res="-9.9000000000000000e+01" rms="0.0000000000000000e+00" purity="2.9306334257125854e-01" nType="-1"/>
        </Node>
        <Node pos="r" depth="1" NCoef="0" IVar="-1" Cut="1.0794135332107544e+00" cType="1" res="-9.9000000000000000e+01" rms="0.0000000000000000e+00" purity="2.4847090244293213e-01" nType="-1"/>
      </Node>
    </BinaryTree>
    <BinaryTree type="DecisionTree" boostWeight="7.5268052846852251e-01" itree="3">
      <Node pos="s" depth="0" NCoef="0" IVar="0" Cut="1.0500638484954834e+00" cType="1" res="-9.9000000000000000e+01" rms="0.0000000000000000e+00" purity="4.7768285870552063e-01" nType="0">
        <Node pos="l" depth="1" NCoef="0" IVar="1" Cut="1.2699224948883057e+00" cType="1" res="-9.9000000000000000e+01" rms="0.0000000000000000e+00" purity="5.0115168094635010e-01" nType="0">
          <Node pos="l" depth="2" NCoef="0" IVar="6" Cut="3.7962750244140625e+02" cType="1" res="-9.9000000000000000e+01" rms="0.0000000000000000e+00" purity="5.0849151611328125e-01" nType="0">
            <Node pos="l" depth="3" NCoef="0" IVar="5" Cut="2.1213948726654053e+00" cType="0" res="-9.9000000000000000e+01" rms="0.0000000000000000e+00" purity="5.0903522968292236e-01" nType="0">
              <Node pos="l" depth="4" NCoef="0" IVar="2" Cut="-4.0727305412292480e+00" cType="1" res="-9.9000000000000000e+01" rms="0.0000000000000000e+00" purity="5.0949591398239136e-01" nType="0">
                <Node pos="l" depth="5" NCoef="0" IVar="-1" Cut="0.0000000000000000e+00" cType="1" res="-9.9000000000000000e+01" rms="0.0000000000000000e+00" purity="8.8940536975860596e-01" nType="1"/>
                <Node pos="r" depth="5" NCoef="0" IVar="1" Cut="5.7302945852279663e-01" cType="1" res="-9.9000000000000000e+01" rms="0.0000000000000000e+00" purity="5.0909841060638428e-01" nType="0">
                  <Node pos="l" depth="6" NCoef="0" IVar="6" Cut="2.3518688964843750e+02" cType="1" res="-9.9000000000000000e+01" rms="0.0000000000000000e+00" purity="5.1502162218093872e-01" nType="0">
                    <Node pos="l" depth="7" NCoef="0" IVar="-1" Cut="1.6846445202827454e-01" cType="1" res="-9.9000000000000000e+01" rms="0.0000000000000000e+00" purity="5.1818990707397461e-01" nType="1"/>
                    <Node pos="r" depth="7" NCoef="0" IVar="-1" Cut="2.5111806869506836e+01" cType="1" res="-9.9000000000000000e+01" rms="0.0000000000000000e+00" purity="4.7295114398002625e-01" nType="-1"/>
                  </Node>
                  <Node pos="r" depth="6" NCoef="0" IVar="-1" Cut="5.5070255279541016e+01" cType="0" res="-9.9000000000000000e+01" rms="0.0000000000000000e+00" purity="4.8509907722473145e-01" nType="-1"/>
                </Node>
              </Node>
              <Node pos="r" depth="4" NCoef="0" IVar="-1" Cut="0.0000000000000000e+00" cType="1" res="-9.9000000000000000e+01" rms="0.0000000000000000e+00" purity="5.0686493515968323e-02" nType="-1"/>
            </Node>
            <Node pos="r" depth="3" NCoef="0" IVar="-1" Cut="4.2427606201171875e+02" cType="0" res="-9.9000000000000000e+01" rms="0.0000000000000000e+00" purity="8.5004702210426331e-02" nType="-1"/>
          </Node>
          <Node pos="r" depth="2" NCoef="0" IVar="2" Cut="6.0026712715625763e-02" cType="1" res="-9.9000000000000000e+01" rms="0.0000000000000000e+00" purity="4.1185703873634338e-01" nType="0">
            <Node pos="l" depth="3" NCoef="0" IVar="-1" Cut="5.6863872528076172e+01" cType="0" res="-9.9000000000000000e+01" rms="0.0000000000000000e+00" purity="4.3502733111381531e-01" nType="-1"/>
            <Node pos="r" depth="3" NCoef="0" IVar="5" Cut="3.2058093547821045e+00" cType="0" res="-9.9000000000000000e+01" rms="0.0000000000000000e+00" purity="1.9670499861240387e-01" nType="0">
              <Node pos="l" depth="4" NCoef="0" IVar="-1" Cut="2.0334107875823975e+00" cType="0" res="-9.9000000000000000e+01" rms="0.0000000000000000e+00" purity="5.3574734926223755e-01" nType="1"/>
              <Node pos="r" depth="4" NCoef="0" IVar="-1" Cut="8.4985435485839844e+01" cType="0" res="-9.9000000000000000e+01" rms="0.0000000000000000e+00" purity="1.3049657642841339e-01" nType="-1"/>
            </Node>
          </Node>
        </Node>
        <Node pos="r" depth="1" NCoef="0" IVar="1" Cut="1.4058067798614502e+00" cType="1" res="-9.9000000000000000e+01" rms="0.0000000000000000e+00" purity="3.1155017018318176e-01" nType="0">
          <Node pos="l" depth="2" NCoef="0" IVar="2" Cut="-4.2194527387619019e-01" cType="1" res="-9.9000000000000000e+01" rms="0.0000000000000000e+00" purity="3.8014930486679077e-01" nType="0">
            <Node pos="l" depth="3" NCoef="0" IVar="1" Cut="6.2858468294143677e-01" cType="1" res="-9.9000000000000000e+01" rms="0.0000000000000000e+00" purity="4.1656967997550964e-01" nType="0">
              <Node pos="l" depth="4" NCoef="0" IVar="-1" Cut="1.7282782793045044e+00" cType="1" res="-9.9000000000000000e+01" rms="0.0000000000000000e+00" purity="4.5946326851844788e-01" nType="-1"/>
              <Node pos="r" depth="4" NCoef="0" IVar="6" Cut="2.0987063598632812e+02" cType="1" res="-9.9000000000000000e+01" rms="0.0000000000000000e+00" purity="3.4997001290321350e-01" nType="0">
                <Node pos="l" depth="5" NCoef="0" IVar="6" Cut="6.0438198089599609e+01" cType="0" res="-9.9000000000000000e+01" rms="0.0000000000000000e+00" purity="3.6393105983734131e-01" nType="0">
                  <Node pos="l" depth="6" NCoef="0" IVar="-1" Cut="1.2945127487182617e+00" cType="1" res="-9.9000000000000000e+01" rms="0.0000000000000000e+00" purity="4.2876911163330078e-01" nType="-1"/>
                  <Node pos="r" depth="6" NCoef="0" IVar="2" Cut="-1.2313860654830933e+00" cType="1" res="-9.9000000000000000e+01" rms="0.0000000000000000e+00" purity="2.4154740571975708e-01" nType="0">
                    <Node pos="l" depth="7" NCoef="0" IVar="4" Cut="-9.7614550590515137e-01" cType="0" res="-9.9000000000000000e+01" rms="0.0000000000000000e+00" purity="3.6214596033096313e-01" nType="0">
                      <Node pos="l" depth="8" NCoef="0" IVar="4" Cut="-3.5618388652801514e-01" cType="1" res="-9.9000000000000000e+01" rms="0.0000000000000000e+00" purity="4.4077393412590027e-01" nType="0">
                        <Node pos="l" depth="9" NCoef="0" IVar="-1" Cut="3.0302264690399170e+00" cType="0" res="-9.9000000000000000e+01" rms="0.0000000000000000e+00" purity="6.2255907058715820e-01" nType="1"/>
                        <Node pos="r" depth="9" NCoef="0" IVar="-1" Cut="1.4622694253921509e+00" cType="1" res="-9.9000000000000000e+01" rms="0.0000000000000000e+00" purity="1.4944919943809509e-01" nType="-1"/>
                      </Node>
                      <Node pos="r" depth="8" NCoef="0" IVar="-1" Cut="0.0000000000000000e+00" cType="1" res="-9.9000000000000000e+01" rms="0.0000000000000000e+00" purity="0.0000000000000000e+00" nType="-1"/>
                    </Node>
                    <Node pos="r" depth="7" NCoef="0" IVar="-1" Cut="-6.9126945734024048e-01" cType="0" res="-9.9000000000000000e+01" rms="0.0000000000000000e+00" purity="1.7370414733886719e-01" nType="-1"/>
                  </Node>
                </Node>
                <Node pos="r" depth="5" NCoef="0" IVar="-1" Cut="-1.4760700464248657e+00" cType="1" res="-9.9000000000000000e+01" rms="0.0000000000000000e+00" purity="1.0294604301452637e-01" nType="-1"/>
              </Node>
            </Node>
            <Node pos="r" depth="3" NCoef="0" IVar="-1" Cut="-1.4183486811816692e-02" cType="1" res="-9.9000000000000000e+01" rms="0.0000000000000000e+00" purity="2.4306853115558624e-01" nType="-1"/>
          </Node>
          <Node pos="r" depth="2" NCoef="0" IVar="-1" Cut="7.8304176330566406e+01" cType="0" res="-9.9000000000000000e+01" rms="0.0000000000000000e+00" purity="1.3868181407451630e-01" nType="-1"/>
        </Node>
      </Node>
    </BinaryTree>
    <BinaryTree type="DecisionTree" boostWeight="7.2801402355295586e-01" itree="4">
      <Node pos="s" depth="0" NCoef="0" IVar="0" Cut="1.2400192022323608e+00" cType="1" res="-9.9000000000000000e+01" rms="0.0000000000000000e+00" purity="4.8529145121574402e-01" nType="0">
        <Node pos="l" depth="1" NCoef="0" IVar="0" Cut="7.7866262197494507e-01" cType="1" res="-9.9000000000000000e+01" rms="0.0000000000000000e+00" purity="4.9989297986030579e-01" nType="0">
          <Node pos="l" depth="2" NCoef="0" IVar="5" Cut="2.2423388957977295e+00" cType="0" res="-9.9000000000000000e+01" rms="0.0000000000000000e+00" purity="5.0698381662368774e-01" nType="0">
            <Node pos="l" depth="3" NCoef="0" IVar="2" Cut="4.9823853373527527e-01" cType="1" res="-9.9000000000000000e+01" rms="0.0000000000000000e+00" purity="5.0850147008895874e-01" nType="0">
              <Node pos="l" depth="4" NCoef="0" IVar="1" Cut="3.3749166131019592e-01" cType="1" res="-9.9000000000000000e+01" rms="0.0000000000000000e+00" purity="5.0905925035476685e-01" nType="0">
                <Node pos="l" depth="5" NCoef="0" IVar="-1" Cut="3.3438104248046875e+02" cType="1" res="-9.9000000000000000e+01" rms="0.0000000000000000e+00" purity="5.1769745349884033e-01" nType="1"/>
                <Node pos="r" depth="5" NCoef="0" IVar="6" Cut="5.9399974822998047e+01" cType="0" res="-9.9000000000000000e+01" rms="0.0000000000000000e+00" purity="4.9489825963973999e-01" nType="0">
                  <Node pos="l" depth="6" NCoef="0" IVar="-1" Cut="-6.0779690742492676e-02" cType="1" res="-9.9000000000000000e+01" rms="0.0000000000000000e+00" purity="5.0459027290344238e-01" nType="1"/>
                  <Node pos="r" depth="6" NCoef="0" IVar="-1" Cut="-1.5421785116195679e+00" cType="0" res="-9.9000000000000000e+01" rms="0.0000000000000000e+00" purity="4.2828205227851868e-01" nType="-1"/>
                </Node>
              </Node>
              <Node pos="r" depth="4" NCoef="0" IVar="-1" Cut="1.0731052160263062e+00" cType="1" res="-9.9000000000000000e+01" rms="0.0000000000000000e+00" purity="1.1582635343074799e-01" nType="-1"/>
            </Node>
            <Node pos="r" depth="3" NCoef="0" IVar="-1" Cut="1.9973443448543549e-01" cType="1" res="-9.9000000000000000e+01" rms="0.0000000000000000e+00" purity="3.1091478466987610e-01" nType="-1"/>
          </Node>
          <Node pos="r" depth="2" NCoef="0" IVar="-1" Cut="2.0528614521026611e+00" cType="1" res="-9.9000000000000000e+01" rms="0.0000000000000000e+00" purity="4.3891060352325439e-01" nType="-1"/>
        </Node>
        <Node pos="r" depth="1" NCoef="0" IVar="1" Cut="1.5839821100234985e+00" cType="1" res="-9.9000000000000000e+01" rms="0.0000000000000000e+00" purity="3.2431375980377197e-01" nType="0">
          <Node pos="l" depth="2" NCoef="0" IVar="2" Cut="4.0480930358171463e-02" cType="1" res="-9.9000000000000000e+01" rms="0.0000000000000000e+00" purity="3.7830281257629395e-01" nType="0">
            <Node pos="l" depth="3" NCoef="0" IVar="-1" Cut="1.5656486749649048e+00" cType="1" res="-9.9000000000000000e+01" rms="0.0000000000000000e+00" purity="3.8932237029075623e-01" nType="-1"/>
            <Node pos="r" depth="3" NCoef="0" IVar="5" Cut="3.3006339073181152e+00" cType="0" res="-9.9000000000000000e+01" rms="0.0000000000000000e+00" purity="1.2349879741668701e-01" nType="0">
              <Node pos="l" depth="4" NCoef="0" IVar="-1" Cut="0.0000000000000000e+00" cType="1" res="-9.9000000000000000e+01" rms="0.0000000000000000e+00" purity="5.3177797794342041e-01" nType="1"/>
              <Node pos="r" depth="4" NCoef="0" IVar="-1" Cut="0.0000000000000000e+00" cType="1" res="-9.9000000000000000e+01" rms="0.0000000000000000e+00" purity="0.0000000000000000e+00" nType="-1"/>
            </Node>
          </Node>
          <Node pos="r" depth="2" NCoef="0" IVar="-1" Cut="7.8304176330566406e+01" cType="0" res="-9.9000000000000000e+01" rms="0.0000000000000000e+00" purity="1.4753620326519012e-01" nType="-1"/>
        </Node>
      </Node>
    </BinaryTree>
    <BinaryTree type="DecisionTree" boostWeight="7.2327810542230730e-01" itree="5">
      <Node pos="s" depth="0" NCoef="0" IVar="0" Cut="1.0500638484954834e+00" cType="1" res="-9.9000000000000000e+01" rms="0.0000000000000000e+00" purity="4.9526327848434448e-01" nType="0">
        <Node pos="l" depth="1" NCoef="0" IVar="1" Cut="6.4830189943313599e-01" cType="1" res="-9.9000000000000000e+01" rms="0.0000000000000000e+00" purity="5.0871860980987549e-01" nType="0">
          <Node pos="l" depth="2" NCoef="0" IVar="0" Cut="3.2637196779251099e-01" cType="1" res="-9.9000000000000000e+01" rms="0.0000000000000000e+00" purity="5.2001446485519409e-01" nType="0">
            <Node pos="l" depth="3" NCoef="0" IVar="-1" Cut="-4.0941176414489746e+00" cType="1" res="-9.9000000000000000e+01" rms="0.0000000000000000e+00" purity="5.2818882465362549e-01" nType="1"/>
            <Node pos="r" depth="3" NCoef="0" IVar="-1" Cut="1.7707023620605469e+01" cType="1" res="-9.9000000000000000e+01" rms="0.0000000000000000e+00" purity="4.9905222654342651e-01" nType="-1"/>
          </Node>
          <Node pos="r" depth="2" NCoef="0" IVar="-1" Cut="3.0297067761421204e-01" cType="1" res="-9.9000000000000000e+01" rms="0.0000000000000000e+00" purity="4.6967783570289612e-01" nType="-1"/>
        </Node>
        <Node pos="r" depth="1" NCoef="0" IVar="-1" Cut="2.0585930347442627e+00" cType="1" res="-9.9000000000000000e+01" rms="0.0000000000000000e+00" purity="3.8266214728355408e-01" nType="-1"/>
      </Node>
    </BinaryTree>
    <BinaryTree type="DecisionTree" boostWeight="6.9869015347441965e-01" itree="6">
      <Node pos="s" depth="0" NCoef="0" IVar="0" Cut="1.2400192022323608e+00" cType="1" res="-9.9000000000000000e+01" rms="0.0000000000000000e+00" purity="5.0260555744171143e-01" nType="0">
        <Node pos="l" depth="1" NCoef="0" IVar="1" Cut="7.5435894727706909e-01" cType="1" res="-9.9000000000000000e+01" rms="0.0000000000000000e+00" purity="5.1148420572280884e-01" nType="0">
          <Node pos="l" depth="2" NCoef="0" IVar="0" Cut="6.2487339973449707e-01" cType="1" res="-9.9000000000000000e+01" rms="0.0000000000000000e+00" purity="5.2105659246444702e-01" nType="0">
            <Node pos="l" depth="3" NCoef="0" IVar="-1" Cut="-7.6679933071136475e-01" cType="0" res="-9.9000000000000000e+01" rms="0.0000000000000000e+00" purity="5.2568823099136353e-01" nType="1"/>
            <Node pos="r" depth="3" NCoef="0" IVar="6" Cut="1.9919773864746094e+02" cType="1" res="-9.9000000000000000e+01" rms="0.0000000000000000e+00" purity="4.9341076612472534e-01" nType="0">
              <Node pos="l" depth="4" NCoef="0" IVar="-1" Cut="-1.7196416854858398e-01" cType="1" res="-9.9000000000000000e+01" rms="0.0000000000000000e+00" purity="5.0701713562011719e-01" nType="1"/>
              <Node pos="r" depth="4" NCoef="0" IVar="-1" Cut="-7.0084851980209351e-01" cType="1" res="-9.9000000000000000e+01" rms="0.0000000000000000e+00" purity="4.1257125139236450e-01" nType="-1"/>
            </Node>
          </Node>
          <Node pos="r" depth="2" NCoef="0" IVar="6" Cut="3.0763171386718750e+02" cType="1" res="-9.9000000000000000e+01" rms="0.0000000000000000e+00" purity="4.7072222828865051e-01" nType="0">
            <Node pos="l" depth="3" NCoef="0" IVar="2" Cut="3.3682149648666382e-01" cType="1" res="-9.9000000000000000e+01" rms="0.0000000000000000e+00" purity="4.7248956561088562e-01" nType="0">
              <Node pos="l" depth="4" NCoef="0" IVar="0" Cut="4.8883017897605896e-01" cType="1" res="-9.9000000000000000e+01" rms="0.0000000000000000e+00" purity="4.7562149167060852e-01" nType="0">
                <Node pos="l" depth="5" NCoef="0" IVar="2" Cut="-2.9848484992980957e+00" cType="0" res="-9.9000000000000000e+01" rms="0.0000000000000000e+00" purity="4.9247863888740540e-01" nType="0">
                  <Node pos="l" depth="6" NCoef="0" IVar="6" Cut="7.4076454162597656e+01" cType="0" res="-9.9000000000000000e+01" rms="0.0000000000000000e+00" purity="4.9457567930221558e-01" nType="0">
                    <Node pos="l" depth="7" NCoef="0" IVar="-1" Cut="-3.5673105716705322e-01" cType="1" res="-9.9000000000000000e+01" rms="0.0000000000000000e+00" purity="5.0312936305999756e-01" nType="1"/>
                    <Node pos="r" depth="7" NCoef="0" IVar="-1" Cut="-9.4517049789428711e+00" cType="0" res="-9.9000000000000000e+01" rms="0.0000000000000000e+00" purity="4.5250749588012695e-01" nType="-1"/>
                  </Node>
                  <Node pos="r" depth="6" NCoef="0" IVar="-1" Cut="2.7327649593353271e+00" cType="1" res="-9.9000000000000000e+01" rms="0.0000000000000000e+00" purity="3.3394283056259155e-01" nType="-1"/>
                </Node>
                <Node pos="r" depth="5" NCoef="0" IVar="-1" Cut="2.1669788360595703e+00" cType="1" res="-9.9000000000000000e+01" rms="0.0000000000000000e+00" purity="4.3927037715911865e-01" nType="-1"/>
              </Node>
              <Node pos="r" depth="4" NCoef="0" IVar="-1" Cut="1.5647987127304077e+00" cType="1" res="-9.9000000000000000e+01" rms="0.0000000000000000e+00" purity="2.4762320518493652e-01" nType="-1"/>
            </Node>
            <Node pos="r" depth="3" NCoef="0" IVar="-1" Cut="0.0000000000000000e+00" cType="1" res="-9.9000000000000000e+01" rms="0.0000000000000000e+00" purity="2.3956162855029106e-02" nType="-1"/>
          </Node>
        </Node>
        <Node pos="r" depth="1" NCoef="0" IVar="1" Cut="1.5839821100234985e+00" cType="1" res="-9.9000000000000000e+01" rms="0.0000000000000000e+00" purity="3.8740527629852295e-01" nType="0">
          <Node pos="l" depth="2" NCoef="0" IVar="5" Cut="2.4097089767456055e+00" cType="0" res="-9.9000000000000000e+01" rms="0.0000000000000000e+00" purity="4.2086079716682434e-01" nType="0">
            <Node pos="l" depth="3" NCoef="0" IVar="2" Cut="-5.0114553421735764e-02" cType="1" res="-9.9000000000000000e+01" rms="0.0000000000000000e+00" purity="4.2565003037452698e-01" nType="0">
              <Node pos="l" depth="4" NCoef="0" IVar="-1" Cut="7.0409385681152344e+01" cType="0" res="-9.9000000000000000e+01" rms="0.0000000000000000e+00" purity="4.3578729033470154e-01" nType="-1"/>
              <Node pos="r" depth="4" NCoef="0" IVar="5" Cut="3.3714504241943359e+00" cType="0" res="-9.9000000000000000e+01" rms="0.0000000000000000e+00" purity="2.1359670162200928e-01" nType="0">
                <Node pos="l" depth="5" NCoef="0" IVar="-1" Cut="0.0000000000000000e+00" cType="1" res="-9.9000000000000000e+01" rms="0.0000000000000000e+00" purity="6.5780895948410034e-01" nType="1"/>
                <Node pos="r" depth="5" NCoef="0" IVar="-1" Cut="2.8680131435394287e+00" cType="1" res="-9.9000000000000000e+01" rms="0.0000000000000000e+00" purity="9.1117076575756073e-02" nType="-1"/>
              </Node>
            </Node>
            <Node pos="r" depth="3" NCoef="0" IVar="-1" Cut="0.0000000000000000e+00" cType="1" res="-9.9000000000000000e+01" rms="0.0000000000000000e+00" purity="9.5340713858604431e-02" nType="-1"/>
          </Node>
          <Node pos="r" depth="2" NCoef="0" IVar="6" Cut="1.0388669586181641e+02" cType="0" res="-9.9000000000000000e+01" rms="0.0000000000000000e+00" purity="2.4556192755699158e-01" nType="0">
            <Node pos="l" depth="3" NCoef="0" IVar="0" Cut="1.7826559543609619e+00" cType="1" res="-9.9000000000000000e+01" rms="0.0000000000000000e+00" purity="3.6239650845527649e-01" nType="0">
              <Node pos="l" depth="4" NCoef="0" IVar="5" Cut="2.6312923431396484e+00" cType="0" res="-9.9000000000000000e+01" rms="0.0000000000000000e+00" purity="4.4462651014328003e-01" nType="0">
                <Node pos="l" depth="5" NCoef="0" IVar="3" Cut="9.8064880371093750e+00" cType="1" res="-9.9000000000000000e+01" rms="0.0000000000000000e+00" purity="5.0421845912933350e-01" nType="0">
                  <Node pos="l" depth="6" NCoef="0" IVar="-1" Cut="-9.4955263137817383e+00" cType="1" res="-9.9000000000000000e+01" rms="0.0000000000000000e+00" purity="6.3001745939254761e-01" nType="1"/>
                  <Node pos="r" depth="6" NCoef="0" IVar="-1" Cut="-1.0224626064300537e+00" cType="1" res="-9.9000000000000000e+01" rms="0.0000000000000000e+00" purity="2.3900388181209564e-01" nType="-1"/>
                </Node>
                <Node pos="r" depth="5" NCoef="0" IVar="-1" Cut="0.0000000000000000e+00" cType="1" res="-9.9000000000000000e+01" rms="0.0000000000000000e+00" purity="1.3272696733474731e-01" nType="-1"/>
              </Node>
              <Node pos="r" depth="4" NCoef="0" IVar="-1" Cut="0.0000000000000000e+00" cType="1" res="-9.9000000000000000e+01" rms="0.0000000000000000e+00" purity="0.0000000000000000e+00" nType="-1"/>
            </Node>
            <Node pos="r" depth="3" NCoef="0" IVar="2" Cut="-5.7593750953674316e-01" cType="1" res="-9.9000000000000000e+01" rms="0.0000000000000000e+00" purity="1.7430000007152557e-01" nType="0">
              <Node pos="l" depth="4" NCoef="0" IVar="2" Cut="-7.4136739969253540e-01" cType="0" res="-9.9000000000000000e+01" rms="0.0000000000000000e+00" purity="3.3245941996574402e-01" nType="0">
                <Node pos="l" depth="5" NCoef="0" IVar="-1" Cut="1.8998305797576904e+00" cType="1" res="-9.9000000000000000e+01" rms="0.0000000000000000e+00" purity="5.7349127531051636e-01" nType="1"/>
                <Node pos="r" depth="5" NCoef="0" IVar="1" Cut="3.3344752788543701e+00" cType="0" res="-9.9000000000000000e+01" rms="0.0000000000000000e+00" purity="1.8033461272716522e-01" nType="0">
                  <Node pos="l" depth="6" NCoef="0" IVar="-1" Cut="0.0000000000000000e+00" cType="1" res="-9.9000000000000000e+01" rms="0.0000000000000000e+00" purity="6.3689726591110229e-01" nType="1"/>
                  <Node pos="r" depth="6" NCoef="0" IVar="-1" Cut="0.0000000000000000e+00" cType="1" res="-9.9000000000000000e+01" rms="0.0000000000000000e+00" purity="0.0000000000000000e+00" nType="-1"/>
                </Node>
              </Node>
              <Node pos="r" depth="4" NCoef="0" IVar="-1" Cut="1.9636651277542114e+00" cType="0" res="-9.9000000000000000e+01" rms="0.0000000000000000e+00" purity="7.1182817220687866e-02" nType="-1"/>
            </Node>
          </Node>
        </Node>
      </Node>
    </BinaryTree>
    <BinaryTree type="DecisionTree" boostWeight="6.8987492429812614e-01" itree="7">
      <Node pos="s" depth="0" NCoef="0" IVar="1" Cut="7.5435894727706909e-01" cType="1" res="-9.9000000000000000e+01" rms="0.0000000000000000e+00" purity="5.0207197666168213e-01" nType="0">
        <Node pos="l" depth="1" NCoef="0" IVar="0" Cut="2.9022365808486938e-01" cType="1" res="-9.9000000000000000e+01" rms="0.0000000000000000e+00" purity="5.1523840427398682e-01" nType="0">
          <Node pos="l" depth="2" NCoef="0" IVar="0" Cut="-3.6105161905288696e-01" cType="0" res="-9.9000000000000000e+01" rms="0.0000000000000000e+00" purity="5.2515059709548950e-01" nType="0">
            <Node pos="l" depth="3" NCoef="0" IVar="-1" Cut="2.3877429199218750e+02" cType="1" res="-9.9000000000000000e+01" rms="0.0000000000000000e+00" purity="5.2949619293212891e-01" nType="1"/>
            <Node pos="r" depth="3" NCoef="0" IVar="3" Cut="7.1231360435485840e+00" cType="0" res="-9.9000000000000000e+01" rms="0.0000000000000000e+00" purity="4.9777340888977051e-01" nType="0">
              <Node pos="l" depth="4" NCoef="0" IVar="-1" Cut="1.9010475158691406e+01" cType="1" res="-9.9000000000000000e+01" rms="0.0000000000000000e+00" purity="5.0896799564361572e-01" nType="1"/>
              <Node pos="r" depth="4" NCoef="0" IVar="-1" Cut="6.2303857803344727e+00" cType="0" res="-9.9000000000000000e+01" rms="0.0000000000000000e+00" purity="3.3774748444557190e-01" nType="-1"/>
            </Node>
          </Node>
